<?xml version="1.0"?>
<opencv_storage>
<opencv_ml_ann_mlp>
  <format>3</format>
  <layer_sizes>
    400 20 10</layer_sizes>
  <activation_function>SIGMOID_SYM</activation_function>
  <f_param1>6.6666666666666663e-01</f_param1>
  <f_param2>1.7159000000000000e+00</f_param2>
  <min_val>-9.4999999999999996e-01</min_val>
  <max_val>9.4999999999999996e-01</max_val>
  <min_val1>-9.7999999999999998e-01</min_val1>
  <max_val1>9.7999999999999998e-01</max_val1>
  <training_params>
    <train_method>RPROP</train_method>
    <dw0>1.0000000000000001e-01</dw0>
    <dw_plus>1.2000000000000000e+00</dw_plus>
    <dw_minus>5.0000000000000000e-01</dw_minus>
    <dw_min>1.1920928955078125e-07</dw_min>
    <dw_max>50.</dw_max>
    <term_criteria>
      <epsilon>1.0000000000000000e-02</epsilon>
      <iterations>1000</iterations></term_criteria></training_params>
  <input_scale>
    1. 0. 1. 0. 1. 0. 3.9100163390085392e+04 -4.0825169257547667e-03
    4.6011916600785662e+03 -7.1867304314442116e-03
    1.4237033687119597e+03 -6.5264707435227073e-03
    1.2168487414258752e+03 -9.1570850055623758e-03
    3.5732285040585521e+02 -8.1875976203404054e-03
    3.0445034838474720e+02 -1.6104031081673579e-02
    3.3986842670189702e+02 -3.1913729097655809e-02
    2.2845938142943712e+02 -4.6440623344669051e-02
    1.6620193930865980e+02 -5.3090318316589717e-02
    1.8349162784006100e+02 -4.0571483829192352e-02
    4.0315948909499531e+02 -2.6454509314723214e-02
    9.1817983436666191e+02 -1.4337633278814677e-02
    1.1071848035598005e+04 -7.6146088155646108e-03
    2.2133007165262658e+04 -4.2385434163975779e-03
    3.0800053603525726e+03 -4.0825169257547667e-03
    3.5774632028364163e+03 -4.0825169257547667e-03 1. 0.
    1.7892456438587246e+03 -5.2931854807781488e-03
    2.2479674382574904e+03 -9.2199729025352305e-03
    2.5729316017065739e+03 -9.8376803851386654e-03
    1.1456278840530974e+03 -9.2184675099354421e-03
    3.0800228481748428e+02 -1.5255147672819370e-02
    1.3750591863925285e+02 -2.3874409981910292e-02
    7.3797834812764435e+01 -3.6171974092510058e-02
    5.3161754794901988e+01 -5.2518890794061107e-02
    3.7749985936225350e+01 -7.3099100269758258e-02
    2.6338033486245898e+01 -1.1698902223794115e-01
    1.6341057190403514e+01 -1.7848743923368462e-01
    1.2691706266106495e+01 -2.0205367802471733e-01
    1.5969180010008243e+01 -1.7268742158272332e-01
    3.0714043953355617e+01 -1.0719624190179115e-01
    8.3411550674867030e+01 -5.4159938759171425e-02
    2.3675987697756341e+02 -1.9879473937969020e-02
    8.6266106065826034e+02 -1.0584512911599824e-02
    5.5638373296183909e+02 -4.1434225693833242e-03
    1.1594506731075508e+03 -4.0825169257547658e-03 1. 0.
    1.2674828855417813e+03 -8.1956647101261940e-03
    6.2477767891070857e+02 -1.0055398675716282e-02
    3.2217556105027501e+02 -1.3374234344676696e-02
    1.9976076932720042e+02 -1.9846412154558752e-02
    8.2892022507939615e+01 -3.5903115563025202e-02
    3.3593466556643406e+01 -6.8911892309341319e-02
    1.6353671300233305e+01 -1.1105255853742076e-01
    1.0183789703250753e+01 -1.5862325821002027e-01
    7.4348509951930533e+00 -2.0554762707292040e-01
    6.1272851018941141e+00 -2.6577313449599488e-01
    5.0768951509084337e+00 -3.3196379020080347e-01
    4.7069024361574003e+00 -3.3153379912874392e-01
    6.1882895162662903e+00 -2.6786849308883803e-01
    1.1250605026190199e+01 -1.6978217177469340e-01
    2.6945573133457067e+01 -8.9443000357323221e-02
    7.5027407248147199e+01 -3.7099581378179577e-02
    1.5936431451284460e+02 -1.3815219488695933e-02
    1.1926532437047515e+03 -9.7210007825348499e-03
    1.0292678087762857e+04 -5.6592906490292522e-03
    1.0746239180937433e+05 -4.0825169257547667e-03
    4.8897319203986240e+02 -1.5918474593929456e-02
    4.1628976972668772e+02 -2.1883305585182502e-02
    1.9206124133671818e+02 -2.8943723155647499e-02
    7.1759957221235965e+01 -5.8811670973277906e-02
    2.6779442016289394e+01 -1.2067831509465703e-01
    1.2040732823396690e+01 -2.1345365774940464e-01
    6.7439986064816626e+00 -3.3048355797123730e-01
    4.6004055406308400e+00 -4.7303321041818858e-01
    3.6312823884287950e+00 -6.5838101409802241e-01
    3.0985083196087340e+00 -8.8436400326089193e-01
    2.9018564068499999e+00 -9.7200181020497034e-01
    3.2046574915360000e+00 -8.4491486202190991e-01
    4.1493133614086544e+00 -6.3429824594293793e-01
    6.0186411296944060e+00 -4.3446966466449866e-01
    9.4803512147324103e+00 -2.8003390997098809e-01
    1.6481284893489047e+01 -1.7570739206024147e-01
    3.2573155819242942e+01 -1.0504905588372936e-01
    7.4399271387222598e+01 -5.7176764102971976e-02
    1.9356362407758695e+02 -2.7804133846965024e-02
    1.1650508395294028e+03 -1.2377047326921851e-02
    4.3426015994409522e+02 -2.1614696772357365e-02
    3.9338947919993592e+02 -3.1259904488702042e-02
    1.0207089604402054e+02 -4.1855430905679829e-02
    3.2446044801345664e+01 -9.1662121923056367e-02
    1.2688147228798035e+01 -1.8608945894820556e-01
    6.3091643126021122e+00 -3.3037928169995717e-01
    3.9611332923776876e+00 -5.2462758301662338e-01
    3.0154543041889026e+00 -7.5106414201766381e-01
    2.7159680056797706e+00 -1.0202239313358177e+00
    2.6854768217252603e+00 -1.3571342326058802e+00
    2.6324848168641091e+00 -1.4766263679448846e+00
    2.7021659805575657e+00 -1.3249578872468546e+00
    2.7969285824242855e+00 -1.0052740134635436e+00
    3.3999091331747051e+00 -7.1477142938261062e-01
    4.7670925747265702e+00 -4.5150860285904237e-01
    7.5582626360716585e+00 -2.7390318022203419e-01
    1.3996299890695120e+01 -1.6183625469450272e-01
    3.0671418838950672e+01 -8.7689884871878190e-02
    8.2509735905528586e+01 -4.2145838423457767e-02
    3.7413260818794851e+02 -1.5816455919602110e-02
    2.8777302188748865e+02 -1.6606595793566162e-02
    1.3967022857406837e+02 -2.7702939605853433e-02
    5.0125150099553323e+01 -6.7522484441253278e-02
    1.8297845571878089e+01 -1.4830842589077659e-01
    8.1333099429563731e+00 -2.8529139347968840e-01
    4.5335192084640523e+00 -4.8744277194795393e-01
    3.1709663603882441e+00 -7.6228245136592299e-01
    2.7352262232670626e+00 -1.0745069652576686e+00
    2.7605852237915331e+00 -1.3823054910140484e+00
    2.8462838422779000e+00 -1.6008443674563617e+00
    2.7305283214107132e+00 -1.5428835234903899e+00
    2.7981704331314554e+00 -1.4862739877818685e+00
    2.6692905953121548e+00 -1.3087708635878603e+00
    2.8334734252337106e+00 -1.0325138862832250e+00
    3.5999430458075752e+00 -6.7169952732016425e-01
    5.6122224354641457e+00 -3.9340813807094993e-01
    1.0339849387264994e+01 -2.1914462921611044e-01
    2.2282441595748349e+01 -1.1586878634600432e-01
    6.4323721456952811e+01 -5.9622586671050345e-02
    2.2907925172436774e+02 -2.1409570372297571e-02
    3.7427537377906805e+02 -1.6951035774820388e-02
    1.2366985823044701e+02 -3.9424294519629616e-02
    2.9457471324321993e+01 -9.1067004428994375e-02
    1.2192154165211655e+01 -1.8817732891849442e-01
    6.1622489323651477e+00 -3.5640383244256330e-01
    3.7827897306828202e+00 -6.0716941174245809e-01
    2.9185798824754272e+00 -9.4811908032315029e-01
    2.7339834156397043e+00 -1.2754144950142052e+00
    2.7849398280842110e+00 -1.3753716017540194e+00
    2.8291275138881584e+00 -1.2949331163194882e+00
    2.7308463356259254e+00 -1.1554639021413367e+00
    2.8684169138012714e+00 -1.2236014054443709e+00
    2.7014171342651543e+00 -1.2614248997324728e+00
    2.7360243479296575e+00 -1.1380120743809172e+00
    3.1412335661883164e+00 -7.9616011471896109e-01
    4.5956050983284795e+00 -4.8779796487962646e-01
    8.8088571885327340e+00 -2.7285579510378233e-01
    1.9938336704040569e+01 -1.3187632310202219e-01
    5.7856605867744712e+01 -6.2140622352931905e-02
    1.8093265274312159e+02 -2.1727321146681935e-02
    2.9258007266231687e+02 -1.1200510213316991e-02
    9.5147089266669667e+01 -4.2372871105742865e-02
    2.2589627247018150e+01 -9.6968264487769615e-02
    9.9382737445395879e+00 -1.9490544347072550e-01
    5.2243143776916279e+00 -3.7662118648858811e-01
    3.3009370510185487e+00 -6.3996273873911869e-01
    2.6576651807514797e+00 -9.6006890091422059e-01
    2.5458321312140808e+00 -1.1494325592783781e+00
    2.6872656883886772e+00 -1.0596031655325258e+00
    2.8383301828754095e+00 -9.0989888922367790e-01
    2.6928288291259488e+00 -8.3380806439734445e-01
    2.7967716018217557e+00 -9.7857671077608377e-01
    2.6220733342860338e+00 -1.0847446296409118e+00
    2.6568412948466649e+00 -1.0446666629361494e+00
    2.9304354267812505e+00 -7.7276448220575111e-01
    3.9220317458504699e+00 -4.9321861279905604e-01
    7.0146144860497239e+00 -2.8621034594564565e-01
    1.7754544274090811e+01 -1.3732546562367973e-01
    5.5942691449487448e+01 -5.4643234615757187e-02
    1.8815592458103708e+02 -1.8285174005125419e-02
    4.7760598743239410e+02 -1.6003313165596465e-02
    8.9490811146987525e+01 -4.3592883127504665e-02
    2.6084866237268450e+01 -1.0259410898996363e-01
    1.0525973029851913e+01 -2.3407108683219194e-01
    5.0029846855971716e+00 -4.2395569103721353e-01
    3.2657217181322187e+00 -6.9283164925459129e-01
    2.7601886787642340e+00 -9.8368908455016313e-01
    2.6927065288270318e+00 -1.0852431049400864e+00
    2.9834995864381830e+00 -1.0040533276554771e+00
    3.0111226530340875e+00 -9.0192964672977527e-01
    2.7554897154117519e+00 -9.1311868348179481e-01
    2.8969444777123297e+00 -1.1154099137212403e+00
    2.7213995246497000e+00 -1.1473717168826116e+00
    2.8186131597337694e+00 -1.0436528635680946e+00
    3.1083420021356671e+00 -7.6461071419087434e-01
    3.8988034133770753e+00 -5.0577538151757273e-01
    6.1688292256734334e+00 -3.1922915858642464e-01
    1.4062834196443186e+01 -1.7129144793740003e-01
    5.1219961906474381e+01 -7.2383522690215474e-02
    2.3952420380731749e+02 -3.1159554445916653e-02
    8.0975377148444397e+02 -1.7300746860996755e-02
    1.0360483652704757e+02 -3.2953931295410889e-02
    2.9075815090714602e+01 -9.7242458600427517e-02
    9.6322209512580415e+00 -2.5521720573832701e-01
    4.4379142171147743e+00 -4.2859387289226447e-01
    3.1082927655965653e+00 -6.8167266424397943e-01
    2.7412415326722193e+00 -9.3767519496432394e-01
    2.5837564087473064e+00 -9.8594563155525405e-01
    2.7889924729380771e+00 -9.7895780922654796e-01
    2.6616873488191728e+00 -9.7866278904678794e-01
    2.5459462826441217e+00 -1.0960539924989661e+00
    2.7664626581132858e+00 -1.3133233727810882e+00
    2.5542922245605491e+00 -1.2012139791109908e+00
    2.7725045443889518e+00 -1.0275044342245787e+00
    3.0955791641373556e+00 -7.2668137979777003e-01
    3.7354591179725669e+00 -4.9396688284211071e-01
    5.3334848538902646e+00 -3.3978128953404191e-01
    9.7468419267767352e+00 -1.8390961658965474e-01
    3.6852200661644140e+01 -8.2884955999377619e-02
    1.5177248978024258e+02 -3.1791798088736001e-02
    6.9239491548002002e+02 -7.5955269918415343e-03
    1.4242080058408479e+02 -1.9191250184153887e-02
    2.9335554852404581e+01 -5.4536905689471747e-02
    8.6251891589429537e+00 -2.3689861334336917e-01
    3.9565775022377236e+00 -3.9982568964615206e-01
    2.8851786752426700e+00 -6.2429182451680276e-01
    2.6132940382242840e+00 -8.5040181443629703e-01
    2.4320181393683842e+00 -8.9973029325680443e-01
    2.6242760020807814e+00 -9.8586970476233782e-01
    2.5164349329399451e+00 -1.1194368853694323e+00
    2.4689161804846358e+00 -1.2874606603704382e+00
    2.6589508964025970e+00 -1.4328179186635510e+00
    2.3519841347949590e+00 -1.1691290092040918e+00
    2.6165680117990719e+00 -9.7732210908746642e-01
    2.8623733100595872e+00 -6.8574460123802261e-01
    3.3671058396514213e+00 -4.8445273623352686e-01
    4.6233362740237762e+00 -3.4689654275955117e-01
    7.9144335945763640e+00 -1.7824308036989342e-01
    3.3465523640073805e+01 -7.4114104258647756e-02
    2.9587213497955270e+02 -2.7699045328371499e-02
    1.5293300408860387e+03 -1.3641648730785579e-02
    1.2377167496857084e+02 -3.6434781336072294e-02
    2.9883210614298342e+01 -9.4851041507354100e-02
    8.8897933079131963e+00 -2.8034811757522465e-01
    4.2262942825799321e+00 -4.3821730789518615e-01
    3.1397814100713930e+00 -6.3586048240746817e-01
    2.8397023325410653e+00 -8.2371210154691576e-01
    2.6860137637931683e+00 -8.9798318543964895e-01
    2.7975217042969094e+00 -1.0215266147456621e+00
    2.6925761054626509e+00 -1.1799232376706552e+00
    2.6457008029785412e+00 -1.3450785037447455e+00
    2.8060799416783402e+00 -1.4528740319856637e+00
    2.6185549876980594e+00 -1.2141158348349770e+00
    2.8645012033000401e+00 -1.0295215511085838e+00
    3.0224134634047131e+00 -7.6922464918470634e-01
    3.4483828565879251e+00 -5.5416735023730757e-01
    4.7397397564233454e+00 -3.9309735512624738e-01
    8.6021179914105783e+00 -2.2871869771613884e-01
    3.0516520300512678e+01 -1.1620980314056574e-01
    1.9333256803002035e+02 -4.2662209804696830e-02
    2.4472168591174013e+03 -7.8344926855740821e-03
    1.7370149487858311e+02 -2.7989072936822394e-02
    3.6082198668270060e+01 -8.6379000973314801e-02
    9.8857793533918379e+00 -2.5314695089888167e-01
    4.4336200454379773e+00 -4.1658541939141353e-01
    3.1624260755910636e+00 -5.8784063817644228e-01
    2.8188479203183099e+00 -7.2483686679235770e-01
    2.6677577718651659e+00 -7.6208205480985980e-01
    2.6834087199716463e+00 -8.1306154498575389e-01
    2.6011275567022638e+00 -9.4604263562570723e-01
    2.5301794222294545e+00 -1.1253876282329569e+00
    2.6582084885624933e+00 -1.2668939249950231e+00
    2.6663082293698368e+00 -1.1474053956286001e+00
    2.7668225917541842e+00 -9.8053325912246314e-01
    2.8610090411699995e+00 -7.6754480075979981e-01
    3.3568475128363571e+00 -5.5690694957457654e-01
    4.8717578805044468e+00 -3.7633581035279740e-01
    9.4496074106827059e+00 -2.1825681232680910e-01
    2.7812524540779293e+01 -1.0206529564639225e-01
    1.6054617832894763e+02 -4.1897305283592118e-02
    3.9050655333604809e+03 -1.1993400642187691e-02
    2.1098797059806623e+02 -2.5245435006752033e-02
    4.3188429185700805e+01 -8.2012612037771881e-02
    1.2127878568665245e+01 -2.2655855817899639e-01
    5.0765038045339175e+00 -4.0880630034261517e-01
    3.3423394797379489e+00 -5.8768729319732183e-01
    2.9093111948900812e+00 -7.3747389407659536e-01
    2.7890314123900732e+00 -7.8869776307618478e-01
    2.8512122769322099e+00 -8.1402678280124385e-01
    2.8448221989752613e+00 -9.6746872859867217e-01
    2.6813338363485548e+00 -1.1879622806629475e+00
    2.9035802697833648e+00 -1.4213407075309865e+00
    2.9001312257509069e+00 -1.2992845499287073e+00
    2.7572842873624381e+00 -1.0338495303087112e+00
    2.9313679342436498e+00 -7.8676707079976349e-01
    3.7178029778315635e+00 -5.4953302259290859e-01
    5.8362883262853114e+00 -3.5571057323099858e-01
    1.1607772913787807e+01 -2.0616171335682301e-01
    3.2278845290714600e+01 -1.0386513542620673e-01
    1.7356005285339347e+02 -4.3695670869269509e-02
    2.3193636746992520e+03 -7.2959527761283002e-03
    3.1125345422954911e+02 -1.8867604503255243e-02
    5.8386464040754390e+01 -7.1357108266962191e-02
    1.4340140997765790e+01 -1.8308784642177592e-01
    5.9263085738134453e+00 -3.5826198903871775e-01
    3.5285451507939527e+00 -5.5541715578464390e-01
    2.8185567552688982e+00 -7.3706898203278248e-01
    2.6184952299103155e+00 -8.4437993049389026e-01
    2.6562633155712709e+00 -9.1854500363882263e-01
    2.7207098521708617e+00 -1.1409415500606679e+00
    2.6903847832566314e+00 -1.4303728144503414e+00
    3.0325326301468429e+00 -1.6592851667414299e+00
    2.7634321499935957e+00 -1.3038815708603408e+00
    2.6795164615701026e+00 -9.7356555874362016e-01
    3.1413289729564915e+00 -6.9684811600866248e-01
    4.4683999155527214e+00 -4.5814577886604874e-01
    7.3032288632769760e+00 -2.7924634940416410e-01
    1.3660717787189800e+01 -1.6314436983725827e-01
    3.6652756368515178e+01 -9.0207459689684147e-02
    1.6900496255258415e+02 -3.7233062717464488e-02
    2.2588423861883944e+03 -7.8118296128115933e-03
    2.1995251244646994e+02 -1.3280801192069135e-02
    6.8944612257729688e+01 -5.3344936477028343e-02
    1.8948404975341969e+01 -1.3866385302301551e-01
    7.7406760857032237e+00 -2.7872844728806778e-01
    4.2946002676533288e+00 -4.6725972261536464e-01
    3.0523009833754986e+00 -6.6928007207441187e-01
    2.6485950322524374e+00 -8.5594208181899734e-01
    2.6705973233642726e+00 -1.0942552016626428e+00
    2.8575269176818994e+00 -1.5212330601899651e+00
    3.0052155120565605e+00 -1.8855261976385298e+00
    3.0579878218053262e+00 -1.7283508796138771e+00
    2.6901917662136405e+00 -1.1216768656146543e+00
    2.9759757143431029e+00 -7.8417302454984872e-01
    4.1463482017302553e+00 -5.2154322299330913e-01
    6.6245611317878037e+00 -3.1630927913551504e-01
    1.0546174745861093e+01 -1.8629917707386323e-01
    1.8578569633970918e+01 -1.1728191962883440e-01
    4.8077862233769153e+01 -6.8330287750697521e-02
    1.8071399338723069e+02 -3.0756901227015923e-02
    9.5585233018244048e+02 -7.7140563950439042e-03
    2.1422835275463322e+02 -1.3204710703926459e-02
    9.1565195939610319e+01 -3.7377974748138462e-02
    3.2183120099949328e+01 -9.7900979074196842e-02
    1.2836034725218292e+01 -1.9529015620647780e-01
    6.6478097719446732e+00 -3.3159991694508706e-01
    4.2356301294083352e+00 -5.0247987129100202e-01
    3.2031793348765647e+00 -7.0547564123896689e-01
    2.7943027266494087e+00 -9.8344076517136547e-01
    2.7839235658093888e+00 -1.4170401149740237e+00
    2.8893648730124557e+00 -1.6497342259820322e+00
    2.9603865153205140e+00 -1.2968418484634450e+00
    3.2850920718232777e+00 -8.2875803408588045e-01
    4.6962448512831587e+00 -5.4722504234085789e-01
    8.1113490982320204e+00 -3.3660696863731793e-01
    1.3370045187162026e+01 -1.8988615832197547e-01
    2.0736306122822381e+01 -1.2162863032897978e-01
    3.7533910580194338e+01 -8.3189521575145656e-02
    9.5338472149399649e+01 -5.0743666027824180e-02
    3.1183105747800187e+02 -2.8226084920140049e-02
    4.1882913069927026e+03 -6.4056219551815461e-03
    3.6069740782189319e+02 -6.9163137251934655e-03
    1.8040638622533513e+02 -1.6415138870583844e-02
    6.3129273683541001e+01 -3.5505110547808354e-02
    2.9137019192684999e+01 -7.7138497729306088e-02
    1.4019676562014871e+01 -1.4147258590282180e-01
    7.7578772381343333e+00 -2.3219392661793395e-01
    4.8469626253837816e+00 -3.7503074355470328e-01
    3.3343423690375049e+00 -5.7154261198429501e-01
    2.7215013848931742e+00 -7.5194552609099785e-01
    2.7675810542804964e+00 -7.9323075584837854e-01
    3.4856148172454562e+00 -6.1892237168009689e-01
    5.5647181574739424e+00 -3.8706256398855388e-01
    1.0890350701166669e+01 -2.1327519858896307e-01
    2.2607854840502082e+01 -1.0393862349903778e-01
    3.9101172623019089e+01 -5.2342924852208185e-02
    6.5982678526912807e+01 -3.4327245371219575e-02
    1.3559679360608246e+02 -2.5969555558247964e-02
    2.6012432424192400e+02 -1.5600977312563328e-02
    8.6022993013443488e+02 -1.1088461901353880e-02
    5.1031461128351566e+03 -4.0825169257547667e-03
    9.3571726746417926e+02 -4.2758604614280202e-03
    4.1631123551136454e+02 -7.5272747860913192e-03
    2.0508954818450229e+02 -1.5234785765289137e-02
    1.2201766136061288e+02 -2.7607422704833979e-02
    5.8672181784610842e+01 -6.0680768913610614e-02
    2.4468035355590807e+01 -1.2148931911358650e-01
    1.0748209573951060e+01 -2.2755405528095402e-01
    5.8245305143467627e+00 -3.5014255548064455e-01
    4.5889244278031436e+00 -4.3518798839580253e-01
    5.5280084064302537e+00 -4.2496432931543493e-01
    9.4712489566418867e+00 -3.0795425192210391e-01
    1.9166499535519044e+01 -1.6924443974305520e-01
    4.1745527924259413e+01 -8.2677194436776472e-02
    9.0902251312041699e+01 -4.1629101053961344e-02
    1.7092991589957003e+02 -2.4477247302588535e-02
    3.6071595459890324e+02 -1.6936880749800209e-02
    5.2491386430134287e+02 -1.1184181514203037e-02
    1.8730004515976630e+03 -9.3657674190227407e-03
    2.8753874492665855e+03 -8.1871022783885430e-03 1. 0. 1. 0. 1. 0.
    1.0410418575155477e+06 -4.0825169257547667e-03
    2.5078003786209047e+03 -1.2879726051971657e-02
    2.7340421096672731e+02 -2.4090573593117445e-02
    7.6872005379005429e+01 -6.0149982135512793e-02
    2.9261859103294782e+01 -1.1889204755032440e-01
    1.6759270984595624e+01 -1.7883880027499280e-01
    1.6704716648063211e+01 -2.2157126801593632e-01
    2.6291243496846498e+01 -2.0705678268833846e-01
    6.0855607192288311e+01 -1.3536620487114817e-01
    1.5669043938240350e+02 -6.3216574777244655e-02
    4.1291158421621464e+02 -2.7690679068495472e-02
    5.7872880504900638e+02 -1.0496315336218346e-02
    8.6482348929039654e+02 -5.6845186342370695e-03
    3.4219750107513519e+03 -8.6262278858887341e-03
    4.2926794525899249e+03 -7.3582271634970997e-03
    3.5339482120546086e+03 -5.9626710198198837e-03
    1.5234332962611526e+04 -4.7072096660393265e-03</input_scale>
  <output_scale>
    5.2631578947368418e-01 4.9999999999999994e-01 5.2631578947368418e-01
    4.9999999999999994e-01 5.2631578947368418e-01 4.9999999999999994e-01
    5.2631578947368418e-01 4.9999999999999994e-01 5.2631578947368418e-01
    4.9999999999999994e-01 5.2631578947368418e-01 4.9999999999999994e-01
    5.2631578947368418e-01 4.9999999999999994e-01 5.2631578947368418e-01
    4.9999999999999994e-01 5.2631578947368418e-01 4.9999999999999994e-01
    5.2631578947368418e-01 4.9999999999999994e-01</output_scale>
  <inv_output_scale>
    1.8999999999999999e+00 -9.4999999999999996e-01
    1.8999999999999999e+00 -9.4999999999999996e-01
    1.8999999999999999e+00 -9.4999999999999996e-01
    1.8999999999999999e+00 -9.4999999999999996e-01
    1.8999999999999999e+00 -9.4999999999999996e-01
    1.8999999999999999e+00 -9.4999999999999996e-01
    1.8999999999999999e+00 -9.4999999999999996e-01
    1.8999999999999999e+00 -9.4999999999999996e-01
    1.8999999999999999e+00 -9.4999999999999996e-01
    1.8999999999999999e+00 -9.4999999999999996e-01</inv_output_scale>
  <weights>
    <_>
      -4.7504818525171463e-03 4.6364992922844645e-03
      2.7542537410404945e-03 -1.9516291138343847e-03
      -3.6447626367252755e-03 -4.9141218502341292e-03
      2.7901884809901595e-03 3.6696261353952892e-03
      3.8670733869841385e-04 -8.7501657260362559e-04
      -5.7527328748933741e-04 -8.0093027910168484e-04
      4.4848168217932419e-03 -2.9119623136009704e-03
      1.3648782418380812e-03 2.9805089319823105e-03
      -3.8858060858721383e-03 4.4696300174219749e-03
      -3.7411222504942724e-03 -1.5931496246177784e-03
      1.0145719327966148e-03 4.0674729190456121e-03
      -4.0474313795193210e-04 4.3705278290597522e-03
      3.4428752715829052e-03 -4.4221628059526426e-03
      -3.5469276986393335e-03 -3.5018149593240033e-03
      2.8305782888635857e-03 3.3338164125347935e-03
      -1.6331214878263802e-03 -9.6830105551926060e-04
      -3.3215140043306064e-03 -2.0590218116450429e-05
      7.7519062752116473e-04 2.5080184387206992e-04
      4.5473010003480559e-03 2.6758887981851685e-03
      -3.9293800001763794e-03 2.6497065858880294e-03
      -2.5130204740628553e-03 -3.8897047825695165e-03
      1.7735442505538697e-03 5.9612396970038146e-04
      -2.5754553218222515e-03 -3.5800148330968258e-03
      2.9256345466057913e-03 3.1249602921937913e-03
      2.0646863434494104e-03 -2.5134460523329864e-03
      3.7820964793552113e-03 3.2603114774870799e-03
      -3.7197399027292201e-03 -1.7480010768431129e-03
      -4.6727275343295387e-03 -1.5773279318605994e-03
      -3.3756221916730893e-03 -3.9752044895567217e-04
      4.3631245706940037e-03 -3.6746329130655990e-03
      -1.3401734355387207e-01 1.2851233727467395e-01
      1.4084826786391827e-01 -5.1309570765268231e-01
      3.5134274936130871e-01 -1.2085233227372778e+00
      -3.4274826972006395e-01 9.1602398648588446e-01
      -1.7763386262810019e-01 -1.2982841122208884e+00
      -1.0884626560834121e+00 2.0740123511524122e-01
      1.6349839177747941e-01 2.4124117537078388e-01
      -2.1700816344619822e+00 -3.1370063097844814e-01
      -9.3600076013831524e-01 2.2027775062925711e-01
      -8.1513045508757070e-02 -7.4944766886841774e-01
      -7.4039417752615755e-01 1.4468495392923814e-01
      1.2684540064153299e-01 -4.9035145079165524e-02
      3.5303686023669484e-01 -1.2091885733141576e+00
      3.6143484842675452e-03 9.1600667573625738e-01
      -3.4592539360773861e-02 9.9720370838713335e-04
      -9.1605700125486134e-02 2.1177052725511863e-01
      1.6021660894427084e-01 1.3140304084448171e-02
      -4.2442267963685908e-02 -5.7940632622830057e-02
      -9.3461603249144198e-01 2.2098662201267213e-01
      -6.5323608260208876e-01 -3.5927400102596624e-02
      -7.3927167385287018e-01 -4.6851723590354992e-02
      1.2044303744704676e-01 -5.2443371054702793e-02
      3.5432483130439568e-01 -1.1977896117751905e+00
      4.4002155105185440e-03 9.2019849385890196e-01
      -2.5612982205914767e-02 1.7000763744550635e-03
      -9.3716690175946249e-02 2.1140038489468974e-01
      1.6450079457379510e-01 1.2229249613676357e-02
      -3.6644468528222750e-02 -5.2825092412621573e-02
      -5.3430718693465835e-02 2.1776717331406140e-01
      -1.7981311141543295e+00 -3.7823788122281043e-02
      -7.3709533892616375e-01 -2.0098066042967361e-01
      7.5304355196936373e-02 1.5018224306906383e-01
      3.5688094872997661e-01 -1.1921069789644021e+00
      1.6480658675612603e-01 9.1871164240766900e-01
      -2.9307064969740121e-01 -5.3543386376737054e-05
      -2.4645358275643706e-01 2.0453431449071571e-01
      1.4060550532166688e-01 -9.1528682352014831e-03
      3.9052672152235984e-02 1.4975666242240068e-01
      -4.9963043897835707e-02 2.2145609588944123e-01
      -1.7989516205724303e+00 -1.3379980013229464e-01
      -1.2692067441791222e-01 -7.2809341479005876e-02
      1.5580053419678622e-01 2.1740824949323466e-02
      7.5605233313990039e-01 -7.3374024172673954e-02
      1.6714571316195947e-01 9.1897237986587810e-01
      -1.8225122540290478e-01 3.1900485388496758e-01
      -2.5143238985002508e-01 2.0967795639953465e-01
      -3.8622236930077219e-01 -9.3087513008964784e-02
      4.4258860532166003e-02 2.5049502279243741e-01
      1.2207230768597636e-01 2.1867706453587307e-01
      -4.9933026819012760e-01 1.0438994468382569e-01
      4.1990051979566190e-01 -1.3096208764913628e-01
      1.6892763301258168e-01 -6.9260026479416467e-02
      7.9389659496429132e-01 4.7117810538429750e-01
      2.4660399535734515e-01 9.1673063704666091e-01
      -2.3713055526138482e-01 5.0499345438320797e-01
      -2.5523335018059362e-01 2.0873676634025898e-01
      -2.7355741978894027e-01 -1.2027806091540225e-02
      3.0178559669685701e-01 1.9076732908283678e-01
      2.2681691263305888e-02 2.2057735454375113e-01
      -1.3296244504895738e+00 2.8390242755659743e-02
      4.4108739821686227e-01 3.8251873914088790e-02
      5.2468949949588717e-01 -4.7047283101189724e-01
      3.5642015208881583e-01 2.7865052716240285e-01
      1.8453009768838785e-01 9.2429304821508940e-01
      2.1498059449670923e-01 -3.9748974279119764e-01
      -1.0907520146259186e+00 2.0572921267459007e-01
      -1.8470859629676700e-01 1.5291787458847508e-01
      2.8707284377415484e-02 6.7020928173051483e-02
      -3.2236077798433505e-01 2.2344480972798317e-01
      3.4942197576447800e-02 2.2595370910349039e-02
      2.4158979137936831e-01 7.2898862851492094e-02
      5.0850241702841303e-01 -5.1561108704121639e-01
      3.6166707866962339e-01 4.6316831183709842e-02
      2.6328178821356935e-01 9.2444341162280741e-01
      4.6399220409399367e-02 -1.2935066929759729e+00
      -1.0841458373939157e+00 2.1283306326116275e-01
      4.4355592139236616e-01 7.1337280915111226e-02
      5.6729950697728605e-02 2.3005388968307727e-01
      -9.5991526761122548e-01 2.1700307226558468e-01
      1.6769875791399674e-01 1.7405784429905511e-02
      7.3136006736238580e-03 6.1375879577230397e-01
      5.0763459543986644e-01 -5.1821386759380683e-01
      3.5870271885727795e-01 2.5462994295954533e-01
      5.1380246077462866e-01 5.0837011144148470e-01
      1.1821501214018566e-01 -1.3012094423292790e+00
      -1.0903250215558284e+00 2.0987126479621668e-01
      4.7940881224059773e-01 7.2700237584576471e-02
      8.0467292986146320e-03 3.8222751580143371e-01
      -9.3301004209095384e-01 2.2590339649847127e-01
      2.6543055038835650e-01 4.0244310655298356e-02
      -7.9590857648639768e-02 6.0934115060802130e-01
      1.5062461294120374e-01 -5.1405930982306158e-01
      3.5301894518144145e-01 2.9596871712674666e-01
      1.6088027902658157e+00 5.0739732935712611e-01
      5.1729881568527106e-02 -1.2972524979252933e+00
      -1.0890706478411472e+00 2.1033743900383420e-01
      4.8191759821301750e-01 3.8995819251004940e-02
      3.7979645595705247e-01 3.8334177262465335e-01
      -9.4213955091641199e-01 2.3405101233361397e-01
      2.6506557640474976e-01 -6.0454118188004294e-02
      -1.4055525959212817e-01 2.2029573382802339e-01
      5.1030825395194968e-01 -5.1295600384548634e-01
      3.5377142777189413e-01 2.3106608384529534e-01
      -1.7151754813269010e-01 9.2481212452018735e-01
      2.0052100221088293e-01 -1.2900917200557152e+00
      -1.0857931668426601e+00 2.0595707653728570e-01
      1.2906847697088759e+00 1.3950365657531643e-02
      3.6808808383924918e-01 2.0148168117323056e-01
      -9.3665024207478564e-01 2.2519449710154041e-01
      -2.2036864380605512e-03 -7.9099707670567385e-02
      -3.0918064956041719e-01 5.1012531550452334e-01
      5.1370645884842348e-01 -5.1413418053124449e-01
      3.4587943901976986e-01 1.2551980305059987e+00
      -3.3061505088398035e-01 9.1897880467745485e-01
      4.6386232757164203e-01 -1.2898361818031587e+00
      -1.0892304912606716e+00 2.1225917684578310e-01
      4.2176988285981470e-01 7.2432997195374618e-02
      -1.1219413262492079e+00 8.6956992495812457e-02
      -9.3875179039122603e-01 2.1717796684466698e-01
      -3.8345118141339064e-05 -6.5033293899731920e-02
      -3.8436121487441008e-02 6.1183783957278060e-01
      1.4616577749382317e-01 -5.1487083573808146e-01
      3.5109102554076294e-01 -5.5424573756926598e-01
      -3.4281376496274679e-01 9.1952787975345840e-01
      -2.8309768096848573e-02 -1.2967940973385543e+00
      -1.0851590343978821e+00 2.1168911112242508e-01
      4.2422592304347995e-01 -3.9091690620923866e-02
      -1.5831601287875299e+00 -1.2021419695077580e-03
      -9.3511125629193093e-01 2.2293218752087976e-01
      7.3023175995572398e-03 -6.5203784882066435e-02
      -7.3884113703990861e-01 5.1318036294135304e-02
      -1.2176209670838462e-01 -5.1444033180445614e-01
      3.5403042631447862e-01 -1.2085997013592458e+00
      7.6552632089366265e-03 9.1763003904075713e-01
      -2.6348533620390777e-02 -1.3039467826318596e+00
      -1.0861101454586677e+00 2.0598179544690967e-01
      4.2143841144179500e-01 2.3926540107497268e-01
      -2.1650100117625528e+00 -8.8967072680855937e-04
      -9.3495121623012378e-01 2.1953763554698322e-01
      -1.6285464759912172e-01 -7.4754435747425951e-01
      -7.3619243114434507e-01 5.6941596875871435e-02
      -1.2198911695661691e-01 -5.1527855834085334e-01
      3.4556558332651482e-01 -1.2027575037402238e+00
      5.2391385028371937e-03 9.2182191224356058e-01
      -2.9745616641846249e-02 -1.3024282612467388e+00
      -1.0865963851623659e+00 2.0636139062025971e-01
      4.2112508776072288e-01 2.4212032169346637e-01
      -2.1685577775119125e+00 -5.6889243349711231e-02
      -9.3532408024451807e-01 2.2143494517553955e-01
      -4.9331874042540447e-01 -7.4981680623978253e-01
      -7.3828522896624116e-01 5.3986039289976938e-02
      -1.2123928690184615e-01 -5.1588413665079957e-01
      3.5375840635782324e-01 -1.2008478372144524e+00
      2.7122284330007148e-03 9.1669705413385871e-01
      -3.1242785924844339e-02 -1.3003596931422527e+00
      -1.0856418223092834e+00 2.0599624130893276e-01
      4.1883042536533005e-01 2.4146110499258083e-01
      -2.1725261545524708e+00 -6.5980403323278231e-02
      -9.3735690847195763e-01 2.2672546962146387e-01
      -5.0021604935656105e-01 -7.5240264156151238e-01
      -1.6139016085264550e-03 -3.3688700422081848e-03
      1.9918617746862025e-03 9.2810587554388840e-04
      -3.6648004940218258e-03 2.9990523591980427e-03
      -3.9703710531116976e-03 3.1653071584000097e-03
      4.4616728390652781e-03 4.1898000223934201e-03
      -4.6748275274790868e-03 -3.3295229315042897e-04
      -1.7607623686087272e-03 3.8595164073939796e-03
      -3.9699658042651352e-03 -2.4061874510806032e-03
      4.0289589917295822e-03 -4.0233343282499003e-03
      3.5577421657787284e-03 3.1890842264380211e-03
      -3.3854045867382959e-01 1.8015973044626152e-01
      -5.6425032535126457e-02 -5.6323976639468532e-02
      3.6459012099819660e-01 3.1809068114612433e-02
      1.6571601318053603e-01 1.9239354681929005e-01
      -6.3573731585526802e-02 -3.2709710446634754e-01
      -5.9844160087821126e-02 -1.0277433595299978e-02
      -2.9831765618233731e-02 7.1245401416063961e-02
      -9.6685224810302436e-02 3.0340687406101335e-02
      -9.4815307919951253e-01 2.3893868703085497e-01
      6.5496935659187586e-02 -6.9477387154268833e-01
      -6.8200263651747739e-01 2.6839463634091565e-01
      1.4447690268201271e-01 -5.1736710266745967e-01
      3.4887349199411671e-01 1.5910574829732704e-01
      1.6789854422945172e-01 9.2163882897398330e-01
      7.5659848437730937e-02 -1.2959045258328254e+00
      1.8876038645330476e-01 2.1878451545317046e-01
      -2.1991929757166806e-01 -9.8692269739267979e-02
      6.1784103511656779e-02 7.6457801116986662e-02
      -9.3515091655835569e-01 -7.7101650286116097e-02
      1.6001043756050884e-01 -3.9294864794852091e-01
      -1.1112100848978447e-01 2.6417564882819843e-02
      1.4610274057045455e-01 -5.1042055177799384e-01
      3.5134691401353219e-01 9.9717348425141433e-02
      -1.6205312022674091e-03 9.1597397873703945e-01
      1.3516011928777141e-01 -1.3002737474591601e+00
      1.0335834338435737e-01 2.0356824920495223e-01
      9.6418248171775620e-02 1.2867902634725545e-01
      5.4029277091877853e-02 -1.5513937290680567e-03
      -9.4186956544399536e-01 2.2179957328743186e-01
      1.0320393535398643e-01 2.6282047452814275e-02
      -7.3527375459731148e-01 6.2713796584816586e-02
      4.7003794096545551e-02 -3.9529533760486341e-01
      -5.8606638492254819e-03 -7.1380770239388269e-01
      1.4632055392046031e-02 1.9499908897806484e-01
      -1.9294642598878076e-01 1.6974684984043321e-03
      -1.4258439262615414e+00 2.1168507047967283e-01
      -1.6302117077529713e-01 3.3360818024104639e-03
      -9.4600811690577347e-01 2.5458845824599232e-03
      4.8702191893576614e-02 2.1979744339662702e-01
      -9.1726227953656925e-01 -7.4263017429348943e-01
      -3.7384207820172502e-02 3.2362266712033266e-02
      -2.3858408051240582e-01 -3.1420368964683906e-02
      -3.7843065993858310e-02 -1.7234235187772717e-01
      -8.0520255652191758e-02 9.1799476224575549e-01
      -1.6650878903078845e-01 1.7320213913310248e-01
      -1.0861344622540885e+00 2.0384838016914272e-01
      -1.3958898501811767e-01 4.5234592750436911e-02
      -3.7350916960111030e-02 2.0259640613802338e-01
      2.7221725660648361e-02 2.1642970852048216e-01
      -1.7927172612020075e+00 -2.6819901520691508e-01
      -6.2196961513396187e-01 -2.7964625332163839e-01
      -1.0668334237005159e+00 4.0550371965377291e-01
      7.4323080171470460e-04 -5.4518122311655492e-01
      7.9821930043793343e-02 9.2591373947537747e-01
      -2.8691256360147049e-01 1.8417540636011340e-01
      -1.0876842872360346e+00 2.1077664683472233e-01
      -7.8193982625711020e-02 -1.0396233016913980e-02
      2.4147827741467138e-02 1.9740262902056671e-01
      3.1856143081951005e-02 2.2765934278567165e-01
      -1.6906853775899604e+00 -1.4647953295577948e-01
      -5.2923058687992564e-01 -3.4427092919938629e-01
      -2.6487302688370723e-01 1.5174896807623467e-01
      -3.9017895803961603e-02 1.9676058733156097e+00
      1.4705991213848141e-01 9.2043616346451096e-01
      -2.9435745581240358e-01 1.1918443846443601e-01
      -1.0854707333258282e+00 2.1115619334082578e-01
      -3.6311436950076367e-02 3.5465016954531581e-02
      2.0795909581925145e-01 4.6955155202175781e-02
      4.9703686598969406e-02 2.3673406138236130e-01
      -1.4922170334012779e+00 1.2955008235800858e+00
      -6.3343364647996073e-02 1.7699929785440868e-01
      -7.9991588009031567e+00 1.0522138836680295e-01
      -1.8485137847675043e-01 2.1414697816556899e-01
      1.5946844631034526e-01 9.1671320309449988e-01
      -9.1591921693958356e-01 3.1789007315469980e-01
      -1.0894814897640701e+00 2.0398382970665432e-01
      -1.8816167667674918e-01 1.4703169826454806e-02
      -1.0400782758051894e-01 2.6114131635423043e-01
      9.5815113651100042e-02 2.8083782640506944e-01
      4.2531762868567066e-02 2.2845065666255136e-02
      -2.0288355840288610e-01 -1.3637422277316912e-02
      1.5822249205172076e-01 -1.7218170807116295e-02
      -2.8611802336731296e-01 2.5711391569997832e-01
      1.6868078633862135e-01 9.2444141542847025e-01
      -2.8585277674490145e-01 5.6157530443221770e-01
      -9.2555147468534127e-01 2.3749865639907386e-01
      2.5369843726978702e-02 1.7696531418779700e-02
      -7.6156149757159702e-02 2.6255615141919308e-01
      1.5437293651240777e-01 1.8717910546619576e-01
      3.8982881726521146e-02 3.1286888987323506e-02
      1.7054820076607824e-01 9.5056770790401521e-02
      4.5830877552040350e-01 -4.5887201524042902e-02
      -9.8803448101406385e-02 2.7894071527732749e-02
      1.3473791780949224e-01 9.1747878816569128e-01
      -4.3208296255801859e-02 1.1055680215303754e-01
      6.5067260825576290e-02 1.6304060201565018e-01
      1.3890776013727618e-01 -2.3249202823976639e-01
      -9.7376588275145504e-02 5.0477730989302527e-01
      -1.5593846863341054e-01 8.3936539421419709e-02
      2.4825198772486862e-01 2.3512043861242976e-01
      2.5138571783540858e-01 9.1015438580728802e-02
      6.3120043259278080e-01 -3.8772904259036595e-01
      5.9211287895050133e-02 -3.0910159336859692e-02
      1.7189783417186441e-01 4.0035452415054484e-01
      -6.6012304272275724e-03 3.6508432703760640e-01
      -1.9787311803387214e-01 1.3863816651911173e-01
      6.0984257136959186e-01 -3.8902040469212924e-02
      2.3807340739957047e-02 1.0113168019704051e+00
      -7.1592266325530907e-01 -3.2490357044551339e-03
      1.3215697218912725e-01 2.0949809130002056e-01
      1.3424123634260643e-01 -1.1463008256068664e-01
      5.0989237409694643e-01 -4.1663087902271989e-01
      3.4791059835067123e-01 7.6987978734798235e-02
      1.8803749461769881e-03 2.1657370801741135e-01
      -8.7159814507699926e-02 3.2732355230453242e-01
      -2.3971294716579439e-01 1.0525141611249952e-01
      1.2380522365987476e+00 1.6587486593444091e-02
      2.8753083673841447e-02 3.0734866797222432e-01
      -5.3192971764275243e-01 1.2625087732151492e-02
      8.6112693071739035e-02 2.1218084890370531e-01
      2.3331326820076523e-01 -2.7739194852050575e-01
      5.0068045357763225e-01 -4.3888482872239859e-01
      3.4412237330938689e-01 1.9191741422934033e-02
      7.6213449676779052e-02 2.1935543614448783e-01
      6.1266986755688507e-02 1.3890846536513710e-01
      -3.0793353041993493e-01 1.4997157106201064e-01
      1.2913215683182566e+00 2.2224283534619474e-01
      5.6002798192498271e-01 2.3052499849919080e-02
      -7.8458745729721091e-01 1.2911364030739563e-02
      -1.3218103797397354e-01 2.1731133866519653e-01
      2.6365590551036028e-01 -3.9357309339549548e-02
      5.0207980395542995e-01 -5.1532467159181572e-01
      3.4897702399584091e-01 -7.4020884848366893e-03
      2.4809251692833753e-02 2.1895269696476241e-01
      1.0916125553482810e-01 2.7999137470489727e-01
      -3.2693088318044544e-01 -5.5891207671418155e-02
      4.7881016583920211e-01 9.0149738851271026e-03
      3.7450254977798370e-01 3.5494127435834813e-02
      -6.2927657543928062e-01 -1.6114459650369284e-01
      7.4652323190869618e-02 2.1317019005490509e-01
      1.8984784061760046e-01 1.2186402396993522e-02
      5.1850860635813079e-01 -5.1191676319284118e-01
      3.6773787001058655e-01 -1.8505306250972395e-02
      4.2092101912191093e-02 9.1774306971295971e-01
      -5.3694353486243115e-02 7.7942254189664106e-02
      -1.0812216497792244e+00 -3.5557468811025970e-02
      4.7405482106145924e-01 3.2748907434285324e-02
      1.7780744758252115e-01 1.3292333844953819e-01
      -9.3482452665168858e-01 4.4373075057146258e-02
      4.8817744848543801e-02 2.3257075953331013e-02
      1.4790385457327337e-01 1.1985118621400970e+00
      4.8533896549080924e-01 -5.1170157530378979e-01
      3.5323321384075795e-01 4.4117668290893190e-02
      -7.6442161158333646e-02 9.2010033058053031e-01
      7.1947926499825454e-02 -2.6769466872047776e-01
      -1.0902303542209142e+00 8.1343603250286167e-02
      -1.6587385399942756e-01 2.4724101169946583e-02
      -8.6494560944222282e-02 8.8260247306775428e-03
      -9.4112163991389497e-01 1.7781273989076921e-01
      1.1894375351975894e-01 2.4740875984204602e-02
      -2.1548906864296072e-02 5.0941202665787810e-01
      1.4058613287474650e-01 -4.9494101489668998e-02
      3.4867044205234771e-01 9.8395235534080264e-02
      -3.3136694043834575e-01 9.1618052198543165e-01
      -4.2915965447163085e-02 -1.2982964294993209e+00
      -1.0883470170017724e+00 2.0788256037873928e-01
      -2.9354952169827714e-01 -1.1766302707196450e-02
      -2.1658259133360174e+00 1.0590188941274666e-01
      -9.3505541705637818e-01 2.2091802504493094e-01
      -2.1576355372334328e-02 8.2315351613868729e-02
      -7.3199986726360722e-01 5.7436988792070674e-02
      -1.1834727251194332e-01 -5.0907902329974630e-01
      3.5037803064140277e-01 -1.2092373566979657e+00
      5.2732005181989625e-03 9.2167267011111786e-01
      8.1218018561323383e-03 -1.2983320177431832e+00
      -1.0825276530499945e+00 2.0656536284850299e-01
      4.2424823120982669e-01 2.2825970748356039e-01
      -2.1696652102781413e+00 -6.1356767974033867e-02
      -9.3596277681562279e-01 2.2263450142327743e-01
      -1.8515683176524655e-01 -7.0430011527595959e-01
      -7.3413570376603077e-01 5.5437985703351865e-02
      -1.2153748960838373e-01 -5.1163557244103886e-01
      3.5377241657069330e-01 -1.2063219564009118e+00
      7.9137769044374789e-03 9.2141936692960524e-01
      -2.5546872474319946e-02 -1.2945953766014671e+00
      -1.0843246334760070e+00 2.1315981736112941e-01
      4.1988233593742175e-01 2.3993630690352175e-01
      -2.1683071738253270e+00 -6.1453412850976358e-02
      -9.3640132616355676e-01 2.2196088541638317e-01
      -4.9362674288559694e-01 -7.4621049057096878e-01
      3.4143801596148607e-03 -3.8157818821027835e-03
      -2.7229912317643366e-03 3.1926969230388043e-03
      -1.8672070896532634e-03 4.9764360251570968e-03
      1.8729829831427300e-03 -3.0273727523985588e-03
      1.8136354844609671e-03 2.9471277428899105e-03
      2.6186765537240951e-03 2.5139603536731580e-03
      1.5273113575675604e-03 2.4196214887583422e-03
      3.2889477890333295e-03 -6.6237484758972039e-04
      -1.1675650645620443e-03 -3.5936538219530655e-03
      4.5916100711102656e-03 -2.6257368173740313e-03
      -1.2922087985826625e-01 1.9877512235132577e-01
      -1.2572156881142618e-02 -1.1567905878265169e-01
      -1.7266682649840953e-01 -1.2010728072554397e+00
      -3.4766525985741131e-01 -4.2397213253846011e-01
      -2.3591469567953421e-02 6.4121493080696104e-02
      -1.0909709571648982e+00 6.2413278466642283e-02
      -1.6758188648368993e-01 1.0504515621525834e+00
      -9.6602597882110885e-01 -3.1221951684179777e-01
      -4.7382889163526315e-02 1.8771444612753552e-01
      -1.7936355383167031e+00 4.0513044329536935e-01
      2.2836489775321542e-01 -3.2267482179778421e-02
      -3.0352741682071131e-02 1.1682387064038006e-01
      6.9513211238716940e-02 3.9743436255594844e-02
      6.0507583135997786e-02 5.0843393124282432e-01
      1.7619801799910854e-02 -1.3025138143342216e+00
      -1.9739415816929529e-01 -1.7520766739105548e-02
      1.6264902163079500e-01 1.0124687400668149e-01
      1.1861140700139546e-02 8.4388621688097382e-02
      -9.3635058843446484e-01 1.9323471966349609e-01
      1.4329361156163031e-01 4.9997184982740896e-02
      4.9576497231185783e-02 6.4190093219367549e-03
      4.0883632692922395e-01 5.0452150556441394e-02
      3.5259006350714300e-01 2.7312079387765864e-01
      1.8455005213348077e-01 9.2204335498582790e-01
      9.5560895949760791e-03 -7.1400296448443379e-01
      -1.4983129822475200e-01 1.1483623780379375e-01
      2.6810715750369717e-02 -2.9769482821231218e-03
      1.6299990862321304e-01 7.7626449390375316e-02
      -1.0172402628600754e+00 2.2173027413093846e-01
      4.3218898259382368e-02 2.2670157187722914e-01
      -2.2807832184108587e-01 1.0246475933507785e-02
      -2.7953230780588800e-01 1.2392246377609127e-01
      1.7478989765837397e-01 3.0094776720509142e-01
      1.2246184699183915e-01 1.9581611091709317e-01
      -1.5389279630190073e-01 1.4828978627316561e-01
      -1.1433264378237022e+00 9.7499992318920235e-03
      1.4839652998742932e-02 1.7197880125584333e-02
      6.2970362970883917e-02 8.5015130886286649e-02
      1.5239251005154072e-01 1.0510164003362422e-01
      -8.1144002158414008e-01 8.1260372773549111e-02
      1.9538491865944647e-02 -6.0643220013029839e-02
      1.1949176494275131e-01 2.0513323246769258e-01
      -4.8084180211983109e-02 4.4432118347005756e-01
      2.5291096944552942e-02 5.1405790867211265e-01
      -2.6133386077739618e-01 7.5135491751950209e-02
      -1.0917478595394547e+00 -1.4979756942200202e-02
      7.3532955265103231e-04 4.1212107116108412e-02
      -5.0174329883500374e-02 3.0482613194997182e-01
      9.0448365831265531e-02 9.6476324174410433e-02
      -1.7992808911422447e+00 -9.0275473568317291e-02
      2.0875802459663664e-02 6.7583631091544961e-04
      -1.5688538170325714e-01 9.8414701309572236e-02
      -4.1606286955085128e-02 2.5121049814814023e-01
      -7.4674156649979812e-02 3.4782020731355201e-01
      -9.0885164172667399e-01 5.6224298884020221e-03
      -1.0882214816533768e+00 -7.0860020133650961e-02
      -1.6127071848814117e-01 -4.0238471815326367e-02
      -3.4157647867254740e-02 5.8886813343316513e-01
      1.3629503842437479e-01 2.0433166516536996e-02
      -1.4895595004923057e+00 4.9386448477223482e-02
      -8.1807956694501527e-02 -1.6625925355274163e-01
      -1.9082809401544470e-01 1.5654612822742833e-01
      -1.8858522440596448e-01 4.0446909040482065e-02
      3.2375339188616459e-02 1.9124184612882106e-01
      -9.0047458141642245e-01 1.0068667570621785e-01
      -1.0818762775408957e+00 3.4952917886957147e-02
      -8.8147571550090772e-02 -6.2575709803829330e-02
      -2.4371023367780181e-01 1.3313750921417213e+00
      5.6369619750463534e-02 -7.5442227416319313e-02
      -7.1524929859051856e-01 4.1028589492462859e-02
      -7.1375205683842535e-02 -2.4605789159600416e-01
      -4.2571101696034952e-01 1.2640039487614749e-01
      -2.5687060102911019e-01 5.5697493725567149e-01
      1.0143379043590858e-01 1.8882776782135685e-01
      -5.2679686413117577e-01 1.1610028971657746e-01
      -6.3299485178060344e-01 1.2310861051091138e-01
      -3.7065309247488953e-01 -6.8995114122048021e-02
      2.2329971463350463e-02 9.8190898908943292e-01
      5.3597995908144055e-02 1.3556550877777526e-01
      -3.3668793974841638e-01 1.0591163490222784e+00
      -4.5121814900450624e-01 -1.9862347626049687e-01
      -2.2660599890994765e-01 4.0942762741526650e-01
      -4.5828959885391618e-01 2.4832748947560643e-01
      9.9818734108811313e-02 1.8645922499533429e-01
      -2.4093189037245838e-01 1.1244665924414714e-01
      -3.0025535351837829e-01 1.3184251597527172e-01
      -1.3854200480097345e-01 -5.8398250891079986e-03
      7.1131911574321860e-02 1.2505802791932130e+00
      8.7296252985192037e-03 1.5089623901672403e-01
      2.8977865134353575e-02 1.8424980899198395e-01
      -6.8119809454612004e-02 -3.6145857277517718e-01
      -3.0758843501479993e-01 1.9365688795026800e-01
      -3.1968146727283181e-02 4.1674329228119045e-01
      2.6532357392078404e-01 2.8955848063447781e-02
      2.6045065853003728e-03 2.6620488189527636e-01
      -2.5739641535729979e-01 9.7615969832275957e-03
      -4.9651595043170550e-02 -3.6865394183672501e-03
      3.1613057280005330e-01 7.7774836083540899e-01
      -6.1857947733680453e-02 2.4315014612597247e-02
      -1.9669855064466785e-01 5.9316342083780234e-02
      -8.2307793554682762e-02 -5.7980280956842429e-03
      4.8048202695192360e-01 -5.8591920740805305e-02
      6.5690910627497351e-02 3.1922626619335487e-01
      5.5500127783608494e-02 2.4633607636673904e-01
      -3.5761933476607881e-02 -9.9863154515874492e-02
      -4.4189885364152531e-01 1.4686333449904668e-01
      -3.6187474474990272e-01 -1.3499318733691268e-01
      9.9323081825785919e-02 8.1609164155603409e-01
      -2.1736722310116499e-01 -2.1080046425515173e-01
      2.6409083762448271e-01 8.8644609985385869e-01
      2.3154090883770220e-01 -1.3108697285752846e-01
      5.9768259038137850e-01 -5.0059624315579221e-01
      3.0408830562932837e-01 1.2193466344952485e-02
      2.6194920559322942e-02 3.8076705592680665e-01
      1.5316778057231367e-01 2.5067219299579557e-01
      -1.8578121248204715e-01 1.7404870273705425e-01
      4.0059686284260085e-02 -1.2763480933124424e-01
      5.4985252964381802e-02 6.8110577272337680e-01
      -4.4058236522019600e-01 -5.0837412583313724e-01
      7.5157098384225615e-02 8.3049932335976406e-01
      3.4807002567660522e-01 1.5020367281289421e-03
      4.6016172517346843e-01 -1.9938996314611246e-01
      8.2976045741078752e-01 1.1984339241361153e-02
      2.8907747381900273e-02 4.3188644295787526e-01
      1.6602751042715991e-01 1.3044085271004424e-01
      6.5384139051984869e-02 1.4546620065202012e-01
      7.3909293178860691e-01 -1.2248627359131467e-01
      -1.4083114197202812e-01 3.0734959113247035e-01
      -4.0128255716519440e-01 -1.5255910681046672e-01
      6.5985415187276034e-02 9.0612422106658319e-01
      2.4601486763159031e-01 3.8500449998725783e-03
      1.6125441473934077e-01 2.8317541457717779e-02
      3.1306038490974819e-01 -4.2345779906992499e-03
      3.9968331844909402e-02 4.8809509392819839e-01
      1.7928328332899590e-01 1.1893112417754755e-01
      -2.7197549566296900e-02 1.1317282120782444e-01
      7.1367132429419805e-02 -2.6475689968980590e-02
      -1.2054329029131851e-01 1.3616375226950264e-01
      -1.1706409592833561e-02 -4.6598410430071618e-01
      -7.9439506025588810e-04 9.1520304380691464e-01
      1.5953029214738348e-01 -6.3693344498320387e-03
      5.2222906808219072e-01 -3.6353165475080468e-01
      3.8151990299649347e-01 -2.9016393026844674e-02
      4.6656211856769020e-02 1.2632020298609500e-01
      6.8266817949175926e-02 1.0166686410337038e-01
      -1.2618611562089974e-01 2.3628293196664063e-01
      -1.5061860836249180e-01 7.6425089494144102e-02
      2.5727069887272569e-01 -6.1171275660102796e-02
      -1.8040245694584076e-01 -1.5784335363178637e-01
      -9.6039429858929659e-02 5.1138805570398194e-01
      7.8675881657108454e-02 4.8101378714098225e-02
      5.2842312522679602e-01 -4.4011885749528301e-01
      3.6031718551808611e-01 -1.8510966725518944e-02
      1.0555909429112218e-02 -1.8654725834377661e-02
      1.2514267257595552e-01 7.9450763871874275e-02
      -1.4586536274566303e-02 1.7066600184086123e-02
      3.4031227956698101e-01 3.7008573641105880e-02
      -1.4483570856213374e-01 -1.1779553175516787e-01
      -4.2326707611824478e-02 -1.8499556478899659e-01
      -1.6834437173757077e-01 4.9956084662727912e-02
      -9.7533575277840553e-02 2.9159005536159477e-01
      4.8580265916514820e-01 -1.1351204300410361e-01
      3.4624040522919164e-01 4.7790742557109155e-03
      -2.2425942689366113e-01 7.2282832355574117e-02
      4.4474385191812231e-02 7.7890498616925305e-02
      1.8831065801045699e-01 -1.0087292175748389e-02
      1.4168266935857465e-01 -7.4284319052141140e-02
      -4.3084951064571331e-01 -3.8567788621252578e-03
      -7.1188220900304222e-01 2.0492146555873827e-01
      1.3086417000506295e-01 1.3697027422019231e-01
      -1.8184826561747547e-01 2.4023032652392293e-01
      1.3192649330369696e-02 -5.1057898711277372e-01
      3.5058684982458871e-01 8.7530265103461902e-02
      -3.4386471885468045e-01 9.1986244871809919e-01
      2.7536576966229458e-02 -9.8787928664106350e-02
      -2.5595750037555770e-01 4.8325411387285738e-01
      1.6668625401429663e-01 7.3865908469189223e-02
      -2.1696758493204369e+00 1.0179126849589257e-01
      -9.3477472606200973e-01 2.2349974544886778e-01
      6.8166123299474968e-02 -1.7576882773588090e-01
      -7.3271586798579191e-01 1.8999464773710140e-01
      -3.3244030449206090e-02 -5.1417888976701132e-01
      3.5011259021132968e-01 -2.6885055137377684e-01
      -3.3974147260206972e-01 9.1679910370769890e-01
      -1.4720295793675373e-01 -1.2966507194758812e+00
      -1.0953324940983316e+00 -5.4785964573311981e-02
      1.6523945878097027e-01 2.4917131349260996e-01
      -2.1700672433157426e+00 -3.0609707673375441e-01
      -9.3712020630911275e-01 2.1783232006913458e-01
      -1.8001794907936726e+00 -1.2962614849678353e-01
      -7.3496522709331447e-01 -3.4386762616238958e-01
      1.2612030049574177e-01 -5.3990955989500329e-02
      3.5272082943716371e-01 -1.2019193199688001e+00
      -3.4571480854028486e-01 9.1747315430788390e-01
      -2.9245068113110173e-01 -3.2664795754576542e-01
      -2.5572282837148991e-01 -5.4527396126814731e-02
      1.6640616439400627e-01 2.4078430726003425e-01
      -6.2598577090532970e-01 -1.2519682226992708e+00
      -2.0079646329635040e-01 2.2151240444106282e-01
      -1.8001053931790898e+00 -1.2721715805427944e-01
      6.8729329036937972e-02 3.4706903121631033e-03
      3.2062271225244736e-02 6.1302250876204978e-01
      -6.3927569057029426e-03 3.8125250950513206e-01
      -3.9076444192723950e-02 7.6814030221811821e-03
      -2.3301912624209756e-01 1.9098365980328540e-02
      -4.4143467997667751e-01 8.1197941672908294e-02
      1.0007436244227909e-01 -3.2932897563254619e-03
      1.3062167740742686e-01 -2.7820247496745946e-02
      -1.8356778106871938e-01 -1.3666912944947163e-01
      -3.0601392360572377e-01 5.0147451728655396e-02
      1.0138370965358585e-01 8.5146561559452522e-02
      1.6684479930463838e-03 2.4021957546966725e-02
      -1.2081921899864432e-02 9.7206526922339798e-01
      -3.8724987725852061e-02 8.4186947646357514e-03
      1.5925614709537578e-01 -5.2056475311448606e-03
      6.0637131702140523e-02 3.7364592339355962e-02
      1.8546931961632995e-01 -3.1193970831166977e-02
      1.8782840110700546e-03 6.2154351706751676e-01
      3.6071399850159634e-02 -1.0722715861309361e-01
      -1.2886096936115188e+00 -6.8144982071597898e-03
      1.0918099781096461e-02 9.3367011779781475e-02
      9.8656087135508441e-02 -3.6274537647180340e-02
      -4.1379223268043490e-02 -9.9788270310209818e-03
      -3.9430922653172190e-02 -7.9777726988673664e-02
      -1.6002612161230581e-01 1.1747011395429291e-01
      -1.4319998621101787e-01 1.0875165654846435e-01
      1.5805915553149608e-01 4.2488257222285377e-03
      2.1681846944970420e-01 2.8082285314339341e-02
      -4.9206699896720933e-02 5.1636182966928859e-02
      -2.1501531157972253e-01 4.1486144985411047e-02
      7.1497874960433971e-02 -1.6144271909122143e-01
      -5.0459931839027061e-01 5.4081583522069855e-02
      -1.3445827812236986e-02 -9.0870575019716487e-02
      8.9154357275492174e-02 4.1980958508831939e-01
      -6.7359219377142440e-02 8.3135937507739760e-02
      4.2767449515359296e-02 1.8620334030053204e-01
      -1.4215239370543561e-01 1.1318846925543356e-02
      -7.1879166076392470e-02 -3.2705336269230854e-02
      -3.5681159948634689e-02 1.2162210072055576e-01
      -1.1285109690012562e-01 2.3001462652884611e-01
      -3.3969340462154279e-01 -2.1778886501527306e-01
      -1.9429420012552501e-01 9.1409153306816857e-02
      2.3793600137647784e-02 -9.9301163112821195e-02
      1.7959471892584603e-01 -2.1259792041628034e-01
      -4.3067200582273479e-02 8.1443184578528768e-02
      7.9728533419593878e-02 1.5937114582503145e-02
      -1.6085719994937592e-01 1.3734649827896140e-02
      -9.9521448586089273e-02 3.8638468933247655e-02
      9.4035738924461085e-02 9.6771344737226594e-02
      1.6077881524022916e-01 2.0947865225586204e-01
      8.7462399178273847e-03 1.1344274182630132e-01
      -2.2706791571480139e-01 5.7737398728178457e-02
      -1.4461325671301314e-01 3.2705968599190061e-02
      1.2389862355078968e-01 2.8634354111492577e-01
      -1.5946993688309061e-01 1.3377664296384009e-01
      -4.9756878080605926e-01 6.7125624509398643e-02
      -4.7622473542367461e-01 -1.3420918218984329e-03
      3.5367655854001223e-01 4.1876578917133499e-02
      -4.0598350966205607e-02 -1.3456433393997863e-01
      -1.2342295517655481e-01 2.9536855290917707e-01
      3.2294827593998966e-02 5.8512977481105850e-02
      -3.9237063041485787e-01 5.8433339053872713e-02
      -1.5454594825583523e-01 4.2437601361186399e-02
      1.2436984528000682e-01 6.3060837975668388e-02
      -3.7225712949441714e-01 1.1166320923352654e-01
      -1.5702380532859664e-01 2.1851328685571778e-03
      -1.7296151317526742e-01 -7.2940391366928814e-02
      -1.3464209813183262e-01 4.9695202067788408e-02
      -3.8558149246480607e-02 3.1129597992454502e-02
      -5.1126105809506585e-02 3.1794659443067502e-01
      -4.5984948914138714e-02 -2.4293683792057180e-02
      -1.1246752124033037e+00 2.4160134371837869e-01
      -1.5376598622495111e-01 6.9087717283296990e-02
      1.2177434900025622e-01 2.6240036193343280e-01
      1.1753758786468620e-01 1.4690692048312287e-01
      -1.2548854815414054e-01 -3.5224463705327225e-02
      -1.9939537316726624e-01 -9.1223208218238705e-02
      5.3309717105972800e-02 2.5617344937871195e-01
      -5.9213248107874046e-02 5.8264582967522977e-03
      -2.4641578157328120e-02 2.9371961677610164e-01
      -3.4529417298989090e-02 -2.2494418487826712e-02
      -1.8061792578800095e-01 1.5000986533586277e-01
      -8.1039817797541991e-02 -2.8528015244523378e-03
      1.1216074178190555e-01 8.8017144552670082e-02
      -2.4297358141323960e-01 1.5221765964779574e-01
      -3.8688311567860408e-02 -3.0262446993798826e-02
      -2.1550983474295379e-01 -8.6870978517830419e-02
      -8.2661656537449779e-02 1.4023686044959827e-01
      -6.0736351989606717e-02 1.6432223448663041e-01
      4.8615587199286065e-03 1.7001900291041638e-01
      -4.1374581605015177e-02 -1.1233932017073329e-02
      -9.8764566417196581e-02 7.2720319573073330e-02
      -1.2914772735247365e-01 -1.6592859796601009e-01
      7.0442858010837467e-02 -3.8131676461931596e-01
      -1.2111994671603896e-01 -1.5379292485667201e-01
      -6.1344507163483990e-02 3.1205935457100248e-01
      -1.6096044550575503e-01 7.4283501676892807e-02
      7.3561457358333540e-02 5.6394311436308286e-01
      4.6809690487573018e-02 1.6191392642928175e-02
      -6.2278772767297930e-01 -1.0210833692725611e-01
      2.4099490962326275e-02 -3.5385496880899216e-03
      -8.5114504376608113e-02 -2.3906552356102490e-01
      -1.1411629846162824e-01 1.1001603286589549e-01
      -1.1050909586349250e-01 1.9817480447649808e-02
      -2.2778993748136592e-01 -1.8598132005891754e-01
      -6.3564163712430788e-02 8.0140553598191944e-02
      -8.3335459707886458e-02 7.6964088798404814e-02
      1.7055151260405166e-01 8.7330915004387455e-01
      2.8747427050499175e-01 -2.3488820069526812e-02
      6.3157781334936047e-02 -1.0314993565540258e-01
      -1.6367797050808375e-01 -1.2354217257571375e-02
      -3.5513049260479584e-01 5.6981844100321172e-02
      2.4214915842030854e-01 1.1676172707986740e-01
      2.4300084335181443e-01 2.7968040631537699e-01
      -1.1757562469643654e-01 1.0207436594193053e-01
      -1.4240349012681315e-02 8.3411211294798490e-02
      8.8548539805236706e-02 -1.9380820724877810e-03
      -6.1979694559048698e-02 1.0702156218635520e-01
      1.0680348208067272e-01 -5.4342877438321016e-02
      2.9482043386910191e-02 7.7677523426396319e-02
      -2.1545571648141099e-02 -2.3583986519301939e-02
      -2.3249609133125468e-01 3.5375882576868946e-02
      2.5112474988301459e-01 5.2527359484559007e-02
      -7.8659848920718964e-02 2.6153220844534791e-01
      -3.2204883745129413e-02 2.9049181463557383e-01
      3.7260459419513101e-02 1.4007230021740236e-01
      -1.1744327136369292e-01 -4.2901755193766348e-03
      -1.0820962385909867e-02 5.7343217819142544e-03
      -7.7268414389099283e-03 -2.7349497984395118e-02
      1.5878898885968475e-02 4.9220393276289021e-01
      3.3286720148711796e-01 -1.5925812331088621e-01
      1.0159965440210698e-01 -6.8521746452749027e-02
      2.3190136506936687e-01 2.6702418190649110e-02
      -1.3432609501452511e-01 -1.7980914425050454e-02
      7.0668150266907509e-02 -6.8631657537047780e-02
      1.7726352787084065e-01 3.2792768699233969e-02
      -4.1798545094374417e-01 -3.1675094565746457e-02
      3.8622105553255660e-02 -2.4182917568690379e-01
      -5.6062748834987831e-02 -1.9502570142691492e-01
      -2.9533098840826999e-02 -1.3780835995087873e-01
      1.1328788855986324e-01 -4.2774079099882990e-02
      4.2367468193664487e-01 5.0511041069783630e-02
      2.0002223225719284e-01 2.6938491344660014e-02
      -1.3435647840015566e-01 -2.2583556898939589e-01
      3.0290367297866322e-01 -2.1458823785616454e-01
      1.1202251954894778e-01 6.8748876904460909e-02
      -2.1883994822224553e-01 8.4270139767542163e-02
      3.3495644820941764e-03 -9.4374016302673711e-02
      -1.0873537790910684e-01 -3.3014308347234461e-01
      -2.4807276699268338e-01 -2.4095703969736082e-01
      3.2459040453751409e-01 -1.0464200334425657e-01
      -1.8522830878502261e-02 2.3459687589701689e-01
      2.3467687689365221e-01 2.9604218478862500e-02
      -8.3434092637632143e-02 -3.2593285371831413e-02
      3.3695160695717558e-01 -6.0365666070723356e-02
      1.7268018327237769e-01 -1.2968309890144614e-01
      -2.0855160455363203e-02 -1.3292720718770129e-01
      4.5124516408024153e-02 -1.6477893159362106e-01
      -1.1618018625190663e-01 -2.9551231159011188e-01
      6.0781475544644248e-02 -8.8639472121256214e-03
      3.6043465773035999e-01 -1.5314316625669195e-02
      2.7545650584475179e-01 -4.6112086539985969e-02
      1.0281017387595368e-01 -1.3569379267616316e-01
      -9.6374081999534011e-02 -1.8809808142876328e-01
      3.6204487119532996e-01 7.2216296430016466e-02
      5.5025152336008118e-03 -1.1214760775342687e-01
      4.6112761865686192e-01 1.8071043269411061e-01
      1.7569100904428858e-01 -3.4389471502079944e-01
      -3.1363236694974450e-01 -6.9252839615076639e-02
      1.3635432289055557e-01 -9.6269918750896591e-02
      2.1480800437058738e-02 -2.5397882497272317e-01
      4.1882167110352947e-01 -5.7677480100792475e-02
      9.2860372177165529e-02 4.7397169527618396e-03
      -3.3503997861525636e-01 -2.1458066029038653e-01
      7.3514123993731820e-02 1.3999156555263277e-02
      3.1777129354831579e-01 -2.0171129590874612e-01
      4.5202469529266445e-02 -2.2262390282170458e-01
      -2.7712540856455581e-01 5.2043726672135215e-01
      -5.3794147081485409e-02 -1.4827226958025871e-01
      -1.6572015484695143e-01 -1.8981468601711277e-01
      -6.4685728527604236e-02 1.5300063027047134e-01
      -1.0941671241102224e-01 1.9482519140567689e-01
      -4.2881052538553260e-02 1.1719543808740614e-01
      -3.4443392170529580e-01 -3.0326823122154394e-02
      3.2107396038804255e-02 5.1447163309964579e-02
      2.0482144000413958e+00 -5.4370708942873699e-02
      -9.3471516330582580e-02 8.6421057012452986e-03
      -1.3238130205796090e+00 -1.2506768631213545e+00
      -9.4024282285565558e-02 -3.5491792334954551e-02
      2.2460412319637069e-01 4.8177602384943663e-01
      -2.9957343546429566e-01 9.2324630202092917e-02
      -5.6562116979237430e-02 -4.1553488902851943e-01
      2.8355362830210531e-02 -8.0311793500617970e-02
      -3.3855681527102127e-01 1.7513735638747295e-03
      2.2191462498575601e-01 7.5868306004713740e-02
      1.4424142925634116e+00 1.2177919728949210e-01
      1.9835618910695776e-01 1.1576654314881511e-01
      -2.1700041639585477e+00 -1.2516647787699653e+00
      -4.4918621745620939e-02 1.4529973092761017e-01
      -1.5625902893830934e-01 -1.5049568748678227e-01
      -5.8706157924655146e-02 -6.0468300181135914e-02
      -6.8671246306992381e-02 2.6733153118614864e-02
      -4.3670182245653513e-02 -2.7486502075643231e-02
      1.9817813298331020e-02 1.9439422854387010e-02
      -1.0532583195305464e-01 7.4650443484690063e-02
      -5.8852477588334867e-02 8.7201956462587327e-02
      1.3721621028090464e-01 -1.8950618092985975e-02
      -6.3108109140563251e-02 4.3794061926337516e-02
      6.7963648055558296e-02 6.9955844050044347e-02
      6.5151529956488763e-02 -2.2572324853927447e-02
      -4.7473819452851160e-03 -3.2815640974418227e-02
      -1.0839364559460383e-02 4.2219289429939175e-02
      -2.0832627220738378e-02 4.1208392725643320e-02
      -4.7382568919611026e-02 -1.7848648308861285e-02
      9.9186895173249495e-02 -6.3688748215925406e-02
      1.0449012405623323e-01 5.3369148302966254e-02
      -3.6649438283944361e-02 5.2623540874920043e-02
      4.1557413159782265e-02 -5.6700548732594551e-03
      -3.2597678982905429e-02 2.3218427033655044e-02
      -9.3852949019955487e-02 1.9330491059927575e-02
      1.2641554310341988e-01 1.5793748066878591e-01
      -2.7770874523723198e-02 3.6464061178722203e-03
      4.2203719525296758e-02 -4.2669832834168436e-01
      -1.3695842741827384e-02 -4.1667105095511012e-02
      4.1135066893164346e-02 6.9217223116771046e-02
      8.7462331489211134e-02 1.3706838696188358e-02
      1.0523594074505946e-01 -2.2892225226315795e-02
      9.6836311405718092e-03 2.4084421396261251e-02
      -3.9512370586083180e-02 -7.6059322065034629e-02
      4.6866578700624367e-01 -5.6819145515595526e-02
      -5.9404746525093144e-02 3.1135541184463766e-02
      -1.0240100022716045e-01 -4.9016780083056703e-02
      -8.1423885594517770e-02 1.7196718990297355e-01
      3.8539626240536168e-02 5.0063041261987684e-02
      2.7020912064050787e-02 -3.7572501587501916e-02
      -9.4739931589631760e-03 -2.2034863978063406e-02
      -4.7151907241949076e-04 1.2768234545244660e-02
      -5.0720344477291016e-03 2.9333841614221215e-02
      1.2699101545764499e-01 8.0038829796013206e-03
      -1.4754475595796820e-01 -8.9461285044889483e-05
      4.8086208746447701e-02 -1.2585618089863443e-01
      2.5969214260543994e-01 9.2599675486017413e-02
      1.0605856074145306e-01 1.8039574350746054e-01
      1.1815080153601942e-01 7.8580339201535246e-02
      -5.2432746866178832e-02 1.2642321579186439e-01
      -1.4355334840027556e-01 8.4438368849760886e-02
      9.1308322489740523e-02 7.5041712372529512e-03
      3.5256103620919389e-02 7.3267289384543438e-02
      -5.9490681359871581e-02 -1.4573690591809113e-01
      -7.2585185289256920e-02 4.9843026751888217e-02
      -4.9749489359600302e-02 -2.8357221852252135e-01
      3.6135647139862524e-02 9.5272237191877940e-02
      6.0862643985964915e-02 3.5981533199113763e-02
      2.0702405545617561e-01 1.7605893443253345e-01
      -3.4391393172980711e-01 1.3419693742397312e-01
      -4.5061220873306224e-01 6.1428036897482129e-02
      -2.6068021095343824e-01 6.5039923969842622e-02
      7.8706005958226452e-02 7.6450763905242233e-02
      -7.3619521781204622e-02 1.2861953358102632e-02
      2.4600646301700502e-02 -7.3566015060045370e-02
      -4.7755173383832887e-02 6.2869710826874786e-02
      -2.7240990957952049e-01 8.0445743578369117e-02
      -1.2877315368381828e-01 -1.6039502679479631e-01
      3.2741549776834550e-01 1.1669395686755028e-01
      -1.0361351268880439e-01 1.7199548885448002e-01
      -8.9704292929924212e-02 -3.5162074664010889e-02
      1.0617508124214087e-01 4.5759790290789790e-02
      5.4582787293280727e-02 5.8905142148906076e-02
      -6.6545392653782870e-02 1.1068047632314287e-01
      -1.0790792982854288e-02 1.9375861589700816e-01
      -3.6683819770947299e-02 -1.3889674285960046e-01
      -2.3780947995578156e-01 7.7288424741315156e-02
      -3.5144281842511768e-02 1.7087938478616473e-03
      2.9718915312364125e-01 2.1278455042389313e-01
      -9.6971589211419990e-02 3.1187740801355168e-01
      -4.5086927787748386e-02 -2.8898940305746225e-02
      1.0698355949780472e-01 -3.8574590659793922e-03
      -3.2020579858882109e-01 2.0982393271442917e-01
      9.9231079471562775e-02 1.1134701232489025e-01
      2.7390149819532017e-01 1.9396734671961921e-01
      -5.2199841367640568e-02 1.2402040455822216e-01
      1.8064721812004986e-01 7.5272429418436995e-02
      -3.9350465551547240e-02 9.7976876957185211e-02
      2.4509733964234304e-01 -2.0912048766093504e-02
      -5.2148505462583511e-02 2.0738360711799589e-01
      -9.1909085928841283e-02 -1.8570793299659394e-01
      1.1035427376925429e-01 -7.4040669947228382e-02
      -1.4900096632708210e-01 2.8633320933884704e-01
      1.0491585340561323e-01 1.5737298970374408e-01
      -2.2478137851621205e-01 1.9836855461968117e-01
      -3.8019054789194165e-02 2.4340935964048308e-02
      -1.8902329848872659e-01 -4.1185769006946052e-02
      -6.5180451683237245e-02 1.0349899570852865e-01
      3.3886043855047968e-02 1.6949144910349143e-01
      -2.9221781100463657e-02 -1.2469263380247650e-01
      -7.4931340129687649e-02 8.5661658968719426e-02
      1.2578231341325871e-01 1.0897947236874413e-01
      -4.1835873345450719e-02 4.0941415731066078e-01
      -2.1957410886721840e-01 -5.6096189377058652e-04
      -2.1617101074730347e-01 -6.7990563004953056e-02
      2.3807571160654065e-01 7.1903348026899294e-02
      -2.8534715846945780e-01 -2.5854069676571639e-02
      -3.4248807909620838e-01 1.5041189216744250e-01
      3.1380162059688099e-01 3.2888447268942841e-02
      -1.3365885023196192e-01 -1.2689543818684859e-01
      -2.1351140093506982e-01 7.7611022255321488e-02
      -7.3338240580950054e-01 2.8531539144629147e-02
      -2.0106209723399970e-01 1.0797272403501925e+00
      -1.5712837303879257e-01 1.9062641196252679e-02
      -3.7183217018787018e-02 -7.2631309658984067e-02
      1.3456175572255131e-02 2.9210798572156299e-01
      -4.8223083759092250e-01 5.8199629615786952e-02
      -6.8340277449357570e-02 4.7246221203183814e-01
      1.0172507350130983e-01 1.6587821439108627e-01
      -4.8617980371776504e-01 -5.5551511799021902e-02
      -2.7372442037621020e-01 -9.9339322246878928e-02
      -4.5045328897063797e-01 -2.1830407376738584e-01
      1.2726291291005593e-01 3.4031251172180232e-01
      -3.3972425918377652e-01 1.5967694534072396e-01
      -2.0655600799177448e-01 -4.5779699437834123e-02
      -1.5468428663160647e-02 -1.1229289505256788e-01
      -1.5428284414243965e-01 5.0080004022753928e-02
      -9.5978998180266797e-02 8.7306176835246108e-02
      1.7905685507009045e-01 9.7243779646926889e-02
      -3.7308125000417969e-01 2.2314628676467191e-01
      -1.4776469692908992e-01 -9.2650189955701706e-02
      3.7384508632215943e-02 -8.8744105483534397e-02
      -1.5321255352138815e-02 1.1480649428380067e-01
      7.4369320392815297e-02 1.3506950823340724e-01
      -1.3879987350324474e-01 1.8340513234524736e-02
      -1.8634132712079390e-02 -2.1601057376618588e-01
      -2.5668525684906261e-02 -3.0309715653100727e-02
      -6.6797963945751338e-03 6.4757171840943234e-02
      -1.2417008405431298e-01 -9.3382986194887593e-02
      2.2971579059512209e-01 4.7253179767527305e-02
      4.8783802932858708e-02 -1.7384216766643310e-01
      -3.1072428611985649e-02 -6.0958704473679882e-02
      2.4944660506471661e-01 -4.6620632237532755e-01
      1.0329816916595684e-01 -8.5673491045089006e-02
      7.1848987568527645e-02 -6.2424962737305956e-03
      1.6389428476638815e-01 1.2004233715015190e-01
      5.8405553298223378e-01 -6.7670518013649955e-02
      4.2604273109857249e-01 -6.2611417599747282e-02
      -1.6444244624552201e-01 -1.4073030847479784e-01
      1.2539336353983038e-01 5.8783524258844880e-02
      1.7795868145432200e-01 -1.7766434890892221e-01
      2.0155809556230170e-02 -6.4641213017215399e-02
      -9.3960824646712557e-02 -8.7730118523221934e-01
      1.0002900132787862e-01 -3.1089616745080861e-01
      -1.2645870596091830e-02 -1.1987393073790291e-01
      2.0608828247266525e-01 -4.9740777214621737e-02
      5.0924930058908968e-02 6.9128047010968002e-02
      -4.4793540516511812e-03 1.3773146144016452e-03
      -1.8578130556525771e-01 5.4469461367660607e-02
      1.5073903195913699e-01 -5.5112195643968152e-02
      2.0481723904842497e-01 -6.2370529823310941e-02
      -1.2482899303384379e-01 1.4754879518089489e-01
      -5.4552207509532796e-02 -2.2916347529671305e-01
      -2.3617149134406085e-01 -3.0073016553201187e-01
      1.9443195964401339e-01 -1.1865079156629572e-01
      6.4528775524496318e-01 -1.3081665585309704e-01
      -2.6461423221882767e-03 1.5033408970049217e-01
      2.4191317577908641e-01 4.1996809825231365e-03
      -1.2520270454397844e-01 6.2050738932348769e-03
      1.4392703085758529e-01 1.0024067871955596e-01
      5.5803898093793110e-02 -2.1181335847881205e-01
      2.2079115204460040e-01 -1.9101552717315595e-01
      1.4282277213340671e-02 -1.8993850984226524e-01
      -7.5664707178193846e-02 -5.0252753330167023e-02
      1.4217706609529274e-01 3.1331667056180512e-02
      4.2364948764529092e-01 3.4349266468892345e-03
      8.0339813779607763e-02 -1.9450617123657557e-01
      -4.2273064466031983e-02 -6.7209545967594625e-02
      -3.3774587368307424e-01 -1.0418517824999320e-01
      5.2397937927331301e-02 3.4222869088628649e-02
      8.6680488686591825e-02 1.9652172978072677e-02
      1.3608944163025331e-02 2.4760263366335497e-01
      1.2883579006683232e-01 -4.8505589945380229e-01
      -1.7048506787598564e-01 -2.8422824914657540e-02
      8.5422051796301052e-02 -2.4056454426221431e-02
      1.1350559123831154e-01 -5.3969255022394713e-01
      1.0698901546473560e-01 6.1797176210557102e-02
      3.3803356451206086e-02 4.8678024395252976e-02
      -3.3274246314183953e-01 -1.0539807532461377e-01
      7.8254028672642223e-02 1.5456817457386993e-01
      9.1054645983128468e-01 -1.3534924016788227e-01
      1.0629336687303806e-01 -1.8945522264175749e-01
      -8.5274393425333161e-01 -1.1822781122724006e+00
      -4.1717742153971560e-02 -1.7060699191626655e-01
      -7.8149919032031931e-03 -1.9076414037943606e-02
      1.3413498998614137e-01 2.9445767663489431e-01
      1.8821518108011158e-02 -2.1707338633353296e-01
      1.1999530862408543e-01 -1.3247804381740652e-01
      -3.3050817133884769e-01 -1.4397106527233158e-01
      4.0412784556039166e-01 1.5602234761506925e-01
      4.1860391202050351e-01 -1.3495679327349414e-01
      -1.3734046261505836e-01 8.3791739893553305e-02
      -2.1668225666405143e+00 -1.2529009846750749e+00
      -3.3533198641655701e-02 2.4076902187199746e-02
      6.2733579507378345e-02 -3.1933973041385101e-03
      2.5765695412423328e-01 2.0133999995350454e-02
      -7.0848330324015441e-02 -5.8747947325475197e-02
      1.2990503251983235e-03 -1.1855881049124197e+00
      -4.7437146605175617e-02 -4.7695296556207287e-02
      -2.4477481368984446e-02 1.6964476534764864e-01
      2.8020209612988350e-01 1.4565903275884856e-01
      2.0451149384723943e-01 -1.1091595143774323e-01
      -3.4288302760531415e-02 1.7958183641545472e-01
      6.4271222959830940e-02 -4.1127552006751021e-02
      2.8558456696045908e-02 3.1657351321759716e-02
      2.7124700509360972e-01 2.4368583425131685e-01
      1.0551937238245340e-01 2.5403176798239363e-01
      1.9658668745864913e-01 -1.0232064975579422e+00
      3.9991817283182990e-02 -3.1800168501016535e-01
      -3.1000600122986579e-02 -7.0323793614968336e-02
      2.1100867520237249e-01 5.5751162344478256e-01
      2.2433362701546437e-02 3.3365260969865529e-02
      1.4253810610736642e-01 -7.7133063970574844e-02
      -3.7654833331017414e-02 -5.1779863953971002e-02
      -7.5841900137623722e-02 2.7786310170966486e-02
      -4.2133446595993729e-01 -4.0771305211691627e-01
      -1.1699275512029775e-02 -1.8414242765207745e-01
      -1.8464841422248682e-01 -1.0268941020730813e+00
      -2.6365291658814658e-02 -3.5219826281451161e-01
      2.8256453203915749e-01 -2.8766270582324716e-01
      6.0935848267037046e-02 -8.3642920898241305e-04
      1.7782298049865697e-01 1.4243225642823459e-01
      -7.7722060186929381e-03 -2.4084547634781345e-01
      -5.1293367477784968e-01 8.8878026164938215e-02
      7.4692205607310116e-02 -2.1036248185490172e-01
      -5.9259364983109616e-02 -2.9310489662445605e-01
      6.9812962064026485e-02 1.6479090654605441e-01
      1.3263247342993109e-01 -7.2230154236895183e-01
      -3.1845056989149190e-02 -1.1492375845127648e-01
      2.6324314363442194e-02 -1.5530202706375684e-01
      1.4325017101265073e-02 -4.2129601105679398e-02
      1.3444403960549312e-01 2.2351698282863944e-01
      -2.8886775743011670e-03 -8.2642063694537735e-02
      -5.2042842390568456e-01 2.0852272622709578e-01
      1.1312118813746895e-01 -5.4419145456665041e-03
      5.0468464911391342e-02 2.1258456256607833e-01
      1.2443110306011898e-01 7.9638525674768590e-02
      3.7724595028409691e-02 -7.4750560933419252e-02
      5.0884044002010353e-02 6.4859661568756402e-02
      -1.2665206806632089e-03 -8.4170989742376162e-02
      1.5894379618798488e-01 2.0416453285740488e-01
      1.3388714712061783e-01 -5.9135537860999024e-02
      1.8744179533249997e-01 -1.8676607368941708e-01
      -7.5253532676216484e-02 -1.0853318881225224e-01
      -1.8692512842247200e-01 -3.6308988899684452e-02
      -2.4277872821901317e-02 -7.5029192395539901e-02
      6.8644229201405810e-02 6.9463913029814972e-02
      2.8744480192360127e-02 -1.5821633279274172e-01
      1.2241445674671045e-01 -1.0084493543431888e-01
      -1.3092240042301875e-02 1.4679005795889538e-01
      9.3100815549071098e-02 1.6465741067000303e-01
      9.8775576482072275e-02 -5.0064932469992503e-02
      -7.2947475804008094e-02 -6.8530625803959119e-02
      -1.2482635289499519e-01 -5.6938966575415459e-02
      2.8571002023513190e-02 1.6468748207787318e-01
      -6.1654678900050136e-02 -9.1785526120546662e-02
      7.8909918612662500e-02 -5.3652089913823010e-02
      3.0264157535224320e-02 -1.5744964010096479e-01
      1.2051445001691105e-01 7.6973855213134129e-02
      2.2041107637897784e-02 1.3265701418945905e-01
      -2.1673724815482123e-01 -6.6709677834266901e-02
      3.1011735964005616e-01 -1.6190079822890911e-02
      -2.9374409081940039e-01 -4.9668515195341191e-02
      8.2988462570721788e-02 1.1468834743780713e-01
      2.5054217084060326e-01 3.2097602318463196e-02
      -7.7177072923846748e-02 -3.2043313930225753e-01
      -7.7388063283928832e-02 5.9182203909953761e-02
      -3.8953690745023910e-02 -7.6791516504585669e-02
      1.2347518691282264e-01 1.2622300113131198e-02
      2.1795629593824466e-02 1.2154271199680798e-01
      8.1078656615657524e-02 -1.1115520110756125e-02
      3.2336907186755875e-01 1.0788608260103140e-02
      -2.8838149400798546e-01 -1.5129965558884123e-01
      9.9790165659977503e-02 9.8424506883804858e-02
      3.6260839619053235e-02 4.3137656411884717e-02
      -4.3125520905302965e-02 -2.1166562751689835e-01
      -1.4340509699578846e-02 4.4215891064787016e-02
      8.3052728735846140e-02 -2.6487594846230006e-02
      1.5821678405041512e-01 1.1419412104239224e-01
      5.1502742393900777e-02 2.4440827527659276e-01
      -6.8554869128427467e-02 -1.6542870534724832e-02
      -1.0218994667079018e-01 1.0266987336226841e-02
      -5.0283170976576574e-01 -3.0739474715329934e-01
      -1.7707807517448765e-01 -3.6848764302212692e-02
      -4.8590522246286050e-01 3.5655093073195870e-01
      -7.0657123386950321e-02 1.8241096791729780e-01
      1.6545481484322871e-01 -1.0471509457099464e-01
      -1.3506916326361226e-01 -1.0968060853939074e-02
      -7.9871666197385449e-01 -1.7848218382629715e-02
      -8.2952968719855719e-02 -9.0108359770728702e-02
      7.1910414759559935e-02 -7.8283396674253547e-02
      -2.4452908113563904e-01 1.2539654607390971e-01
      1.0879111031892123e-01 2.3698929890205217e-01
      -1.9262752685709994e-01 -2.2878502234277451e-01
      -2.0206490199655941e-01 -1.3661781417127616e-01
      4.9751474667531145e-02 4.8639185096090853e-01
      1.1529667806319117e-01 -9.7372666755422332e-02
      -3.0356006448680559e-03 8.0780700658275445e-02
      9.2137307702239268e-02 -2.2308317540488565e-01
      -6.8143011333891390e-02 -3.6347621391994372e-01
      -2.3767573939808156e-01 -3.4012161489964288e-01
      -9.1443641284780075e-01 6.8229281188187912e-02
      3.4211825828587755e-02 4.8445193844840556e-02
      -4.3301168339881568e-01 2.2218100750209485e-01
      -1.6133182247522715e-01 -6.0370781463563494e-01
      1.4615893175023337e-01 -1.0183360778334942e-01
      -4.6580861065939394e-01 -1.6965243638203009e-01
      -6.6743857981797911e-02 1.3476872096960490e-01
      3.4401704741853251e-02 -1.5095801311279769e-01
      -1.9047955311921755e-01 9.1673302546961197e-02
      5.5848109231869419e-02 -4.7589400097266149e-01
      -5.4735160557770768e-01 -2.6003400732490429e-02
      6.4608773208138195e-02 -4.4769791658882224e-01
      -4.3212696688220420e-01 2.3884364005253125e-01
      3.1373860624277584e-02 5.0858040104738919e-03
      -2.0193395851870266e-01 -1.3248356156134769e-01
      -2.6925243903405910e-01 1.2402486510079373e-01
      -1.6514726831971471e-01 1.7759359127477173e-01
      2.4151015412660157e-01 7.1050767919567201e-02
      -1.7360435366809127e-01 2.0109853964673832e-01
      5.8696743399628916e-02 6.8264188469505729e-02
      -5.4583125027159680e-02 -3.2689455497193327e-02
      -3.2462935998291581e-01 -1.5659301860212876e-01
      -4.5576036718316487e-01 2.8044914803510584e-01
      7.3504229207715668e-02 1.9215950072162175e-01
      6.7258215307017801e-03 1.6153812557789915e-01
      5.8580953248909703e-02 5.5999853379439558e-02
      -2.2685233543282707e-01 3.5488759537109199e-02
      1.6345783422330568e-01 -1.2293461775130742e-01
      -7.0070604416864357e-02 -6.6015338662725009e-04
      -1.0573938334303053e-01 1.0368519664748292e-01
      -2.3937395022827219e-02 -7.6891495427328135e-02
      -2.7297163927060492e-01 4.8023951963509413e-02
      6.8113073324306897e-02 -4.4916618418420567e-01
      1.7963989201349867e-01 -6.4987836522293384e-03
      6.5385589573194472e-02 -1.4035636187611580e-01
      8.1722818755073354e-02 -2.2570505394934676e-01
      -1.1336280935024136e-01 1.8779257789358010e-02
      -1.2903560344670714e-01 -4.2947981369698129e-02
      -4.5312099624486145e-02 7.0133050858745327e-02
      -9.9007539383448667e-02 1.6468433479355896e-01
      1.3948158324748466e-01 3.2066119115837559e-02
      1.7530155283372956e-02 -4.2065892246308058e-02
      9.5889499521657415e-02 1.7387229493460301e-02
      6.9173779733107704e-02 9.0485194216723505e-02
      3.7484398888146353e-01 1.1170562835334649e-02
      2.5258251551602035e-01 -1.1687326594784930e-01
      1.5494798675455207e-01 2.0361775632663996e-02
      -1.5705082408716439e-01 2.7231031531166419e-02
      1.0193441583728920e-01 1.1050502461620973e-01
      4.4660719591219408e-02 1.7850946462639943e-02
      8.5690611519947127e-02 -2.6153105995352199e-01
      -6.1573101425509730e-02 -1.9845000546940458e-01
      5.7140213545483570e-02 -2.9901634829464528e-02
      -1.2086616742957268e-01 9.5943503377663136e-02
      5.3902915518695604e-01 -8.7913966328231966e-02
      1.2925701603920306e-01 2.8186129681338035e-01
      1.0932020348774814e-01 1.3025992085332505e-02
      -1.3093622838193003e-01 -2.6397674012564865e-02
      -1.4085535969966556e-01 3.8531677376489291e-03
      1.0302020659411829e-01 -4.3656931193838372e-02
      1.6433898371956138e-01 -6.8978147190064981e-02
      -2.0874374467508586e-01 -3.1949297711903701e-01
      -5.2502977797222274e-02 -2.3847273845475905e-01
      -2.0393022313225362e-01 -7.8018917113572880e-02
      2.2124829343815378e-01 3.1386693171828517e-01
      -4.3387785975679209e-02 -1.0845495279258502e-01
      1.3592380155933340e-01 -3.9397209742328340e-02
      -1.6380677974547203e-01 -2.5858714402787312e-02
      1.5130164108577674e-02 1.1257243629811145e-01
      1.2612022468973044e-01 2.1924926330985688e-02
      5.0957871130160692e-01 -4.1362985331821193e-02
      -5.9457566204042717e-02 -7.9380792651540399e-01
      -6.8079564267168706e-03 -2.5471627872366009e-02
      -1.0329683139505117e-02 1.1519670354604482e-01
      -1.9111305227746969e-01 4.1090419570767323e-01
      -1.1498427724505708e-01 2.4796119530299177e-01
      -4.3349706531671292e-02 1.3988260052098023e-01
      -2.7773385046363608e-01 -8.7619102713194091e-02
      4.8256774141985204e-02 1.5532233450875269e-01
      7.0623983687143229e-04 3.1669735125611026e-02
      -8.7021431010786826e-02 1.3092195295958714e-01
      -2.0482085259599637e-02 -1.2678371414017111e+00
      2.8042330802114376e-02 -8.7014025672160128e-02
      -2.0054979766649356e-01 -9.8654298504428126e-02
      -1.3622199882189984e-01 6.7482451963026699e-02
      1.0136877934674163e-01 -2.9954976263044736e-01
      -1.4135511612123224e-03 -1.0893354185029500e-01
      -2.7893546789417156e-01 -1.3535738130944899e-01
      1.3418671047900158e-01 2.7586313658329914e-01
      -2.2926971737724339e-01 7.1747912799097723e-03
      -5.4443993902531240e-01 3.7906007487121363e-02
      -6.8850880224352973e-01 -1.2559501631394134e+00
      -9.4983269722614894e-02 -7.8989554690453243e-03
      1.6292066024509483e-01 9.9603536099324180e-02
      3.0856885958969876e-02 1.6312444419107253e-01
      -1.9453625209039105e-01 4.5190565657485821e-01
      -4.2594814251074392e-02 -1.2060004272268898e+00
      7.3634761308840890e-02 -5.9979381689570899e-01
      2.3105726703898544e-01 -1.2801599247326421e+00
      1.0735131130313902e-02 1.0362681783996122e+00
      -2.0248334755743594e-01 8.7890818578401619e-01
      1.7407705032048859e-02 -1.0675615532898055e+00
      -1.1932024702217616e+00 4.0087226299043204e-02
      -4.8720082804758164e-01 4.3662019151521070e-02
      1.4184100545334943e-01 6.6339630666385221e-02
      5.0405227218966245e-02 -4.3340263656960691e-02
      -2.1224851226710417e-02 -1.0901851571849970e+00
      -6.6639624554423349e-02 -2.9602781738256856e-01
      8.9228606839339523e-03 -7.4115939569355305e-01
      1.6191064808722064e-01 5.0206557620793779e-01
      2.3378016081162703e-02 4.5168427752380325e-01
      1.1766404276400638e-01 -3.8792498116763940e-02
      -4.3755195741336239e-02 -5.7184405097177281e-03
      2.1042317843844224e-01 1.5329089864615897e-01
      -9.0349905200453967e-02 -2.0193753090482330e-01
      6.6483150302457952e-02 4.2996026611258331e-01
      7.9989049586433672e-02 -1.0239125968081357e+00
      6.9033697841687197e-02 -1.9767630303180025e-01
      3.1423596570590989e-01 -3.5043802973344113e-01
      1.8127953762176929e-01 1.1499661736063396e-01
      2.4497867042219429e-02 1.5723737781467234e-01
      -2.4050861174467089e-03 2.4545476960276125e-01
      -3.2521206396146080e-01 -2.0567589189784845e-02
      -2.6400225301952202e-02 -2.8446857628514327e-01
      6.1472028660866901e-02 -1.7644999451589205e-01
      1.5483605282224611e-01 5.0152592232327586e-01
      6.6242618372541737e-02 -2.4394997897391718e-01
      2.3256633991073861e-01 -1.4643007644471681e-01
      1.3167445297798244e-01 4.8545258287290539e-02
      1.1241880490653562e-01 2.3769117133124737e-01
      3.1305639054623774e-02 1.0724892709318345e-01
      1.3310647940182413e-02 -2.3120560146792768e-01
      -8.0998313751798362e-02 -5.0200012410329835e-02
      1.4599431496279161e-01 2.0099021384816181e-02
      -1.5803518468072170e-01 -3.1173929340350609e-01
      -2.0236020427362167e-01 1.3873646984979499e-01
      4.5068158950876324e-03 1.9498058100285454e-01
      -3.9419620586850959e-02 1.0282012371658056e-01
      7.9080409991920120e-02 -7.2468390369025845e-02
      1.3697231383200014e-02 1.0149864532650014e-01
      4.7132001351214309e-01 7.5485506966222179e-02
      1.2973382419531293e-01 1.7065346829320460e-01
      -9.4925889373621036e-02 -5.5964070078934620e-02
      5.1390334671363461e-02 -3.9794027587842486e-02
      5.4055486051120608e-02 -8.6508927131608904e-02
      3.2157186719931462e-03 4.8398096602022177e-02
      7.9673210518547352e-03 -2.9236869145184258e-01
      6.7143521100216555e-02 -8.6235688040061403e-02
      8.0810944142649166e-02 -6.2092406619071457e-02
      4.0171718462037431e-02 1.3513374552807195e-01
      3.1886079622570895e-01 9.4559819858943031e-02
      -8.5480781866326717e-03 5.7293255472657366e-02
      -8.3699028015075838e-02 -4.2363155041721029e-02
      -1.2511647485981980e-01 -3.8377785695732490e-02
      7.6217162096379922e-04 -1.8940959976128025e-01
      8.6829302107550910e-02 -1.9308179614560098e-01
      1.0441561943810236e-01 1.1652840766324129e-02
      5.7882730782024681e-02 2.9561969595285526e-02
      1.4336926656545210e-01 -4.3931958881667829e-02
      1.3592861906446499e-01 -2.9558392589774680e-02
      9.5451087742799673e-02 -1.0495368267622357e-01
      -6.7779656724782818e-03 -9.0115446121173212e-02
      8.8057321370938871e-02 -9.5758689041601355e-02
      2.2479677940783779e-01 -1.3185865780159076e-04
      1.4737817759032462e-01 2.5192128941216103e-02
      5.7634326847820605e-02 1.1168445783505714e-01
      1.3688793399534901e-01 1.2419735473456603e-01
      1.4777964359686863e-01 -1.2775828671872333e-01
      -6.2961259340445497e-02 -1.2754610247281511e-01
      3.1197402205291845e-02 -7.5034344354332663e-02
      -9.0135907120292610e-02 -3.9427668910281211e-02
      -1.9473759421059189e-01 -2.7672127809716834e-01
      -1.1405767422926104e-01 -9.3731717001707501e-02
      2.1539262611522439e-01 -3.5594250572207603e-01
      -5.4292381234482978e-01 2.2777378491326026e-02
      5.7079569342008932e-02 2.1770350229607024e-01
      -1.3926734072286706e-01 3.4702134276308083e-01
      -4.0237623280566299e-02 -1.5285745295264419e-01
      -2.0265323182500582e-02 -4.9500559427624630e-02
      4.1428279562186806e-03 -6.8037792832137999e-03
      5.5345737029334437e-02 2.2293752492560823e-01
      5.2960920319352679e-04 -7.7002453812107541e-01
      -1.5729978478788434e-01 3.4102181887057387e-01
      3.3306570782179767e-01 -1.0702689421941100e-01
      5.4572917219598921e-02 7.1198419740419044e-02
      7.5449151425587824e-01 -4.5676814069969797e-02
      -1.1863962713315013e-01 3.8350385679950035e-02
      4.2930742327376220e-01 -4.0177923276443811e-01
      -8.2576997108134806e-02 -1.4696888933117933e-01
      7.5964126526416223e-02 5.1690560797455831e-01
      -1.9423028843162043e-01 2.2142109812958186e-01
      -2.0228140806989502e-02 4.7962338252590753e-01
      -2.8352735088786196e-01 -2.2948839116662256e-01
      -1.5812473849867802e-02 -2.5678142019923417e-01
      3.2170772229880601e-02 5.2202407388669027e-02
      4.8816845929339048e-01 -7.7804720222572232e-02
      -3.3620993737845845e-01 -2.2336172787665770e-01
      1.3439394832237692e-01 -1.3651146773280246e-01
      1.0753868549439184e-01 -3.9831343520981655e-01
      4.6894474328651577e-02 4.1248637750439154e-01
      3.0539989348580809e-01 9.9638255692664282e-02
      7.5138979924321128e-02 9.2955279930323842e-01
      -2.0191689027272836e-02 -1.4231836127975178e-01
      -1.2545075649124815e-01 -4.5699196168117667e-01
      -6.9763519589910583e-01 -3.1342565612005435e-02
      -1.0031146631129111e+00 5.1132573887726052e-01
      -2.2278320649281266e-01 -2.9771840539498051e-01
      7.5097802018305193e-01 -3.2462197204012061e-01
      9.1706128589449085e-02 2.6809078764849709e-01
      -2.5738429001584157e-02 2.0024638035689923e-01
      9.7041861908386109e-02 1.1470611254070832e-01
      1.3960480185609841e-01 -3.0459149778603789e-01
      -4.1535047638939365e-01 -8.3381432828719543e-02
      -8.0477720905584166e-02 1.3297175249175860e-01
      -1.6116131422850111e-01 -1.5166557916457762e-01
      -6.4141442944079896e-01 3.4696018560934891e-02
      -1.1390322249751658e-01 3.4429866399993785e-02
      3.1615488005772185e-02 9.8539770041808569e-02
      -9.3716038288916864e-02 1.3230413002643038e-01
      -1.1347599248440626e-01 1.2548339050955018e-01
      5.3555773799155515e-01 -1.1288921818211772e-01
      2.0644307661785893e-01 6.7529591553266349e-02
      -7.8335845086343545e-02 -7.0651314260978537e-02
      -1.6197688953350783e-01 6.6629518340371716e-02
      -1.4519514726772573e-01 3.6023696129143114e-02
      -3.8126251749746926e-01 9.4897375156570332e-02
      -3.3490464561494548e-01 3.9208891107985533e-02
      1.5605790192975127e-01 -2.7602274666067128e-01
      -1.1914576083873783e-01 1.0461020554887569e-01
      -9.7432643969029530e-03 7.5022043405931660e-02
      1.0137776237227631e-03 -1.0463868151028095e-01
      -3.6785498706748843e-03 -5.5131772655381210e-02
      2.3098992339845182e-02 1.0671847928329552e-01
      1.7065161389379113e-01 9.6355683125422337e-02
      -1.1830399413480053e-01 -1.4703300832833227e-01
      -1.9406445754005608e-01 1.0228800004429774e-01
      8.0371878853683132e-02 -1.5343703569876176e-02
      9.2694373122733167e-02 -4.8098765665413386e-02
      -1.1163461133720837e-03 1.5830299791814845e-01
      1.6011696863130406e-01 7.7068032930678709e-02
      1.6528515197636678e-02 4.3941181344672470e-03
      2.5285954443411091e-01 6.0134230386006272e-02
      1.0483927649203829e-01 -6.0074179796657065e-02
      4.8968938211766289e-02 3.5436701883738131e-03
      8.1908219501506216e-02 6.8833465049940338e-03
      -6.4077210194883379e-03 -7.0422021457877848e-02
      -2.1856447919631278e-02 7.9389611296603643e-02
      6.0853448150748800e-02 6.2710826813891354e-02
      5.6413311395438599e-02 -5.1973865944562935e-04
      1.1089103951863655e-04 6.6633656783845835e-02
      1.1225442246209361e-02 1.8197020931719293e-01
      -1.5169151607212822e-01 -1.3760883077258013e-01
      1.6852316732467024e-01 -1.9370621758149234e-01
      5.1908439888015037e-02 5.3337477229465753e-02
      -6.4370769419691207e-02 -4.5447307808398341e-02
      6.2183398462516928e-02 8.0667085544747774e-02
      4.0271771647360580e-02 4.0906521820411303e-02
      -1.3983670958295663e-01 -1.1027187036626510e-02
      -5.5967539803606393e-02 6.1274394607741339e-02
      8.6148460793281922e-02 1.2554229460660574e-01
      3.8417670261713673e-02 -2.4947374009075252e-01
      -1.0120369832979748e-01 -3.4807351023062028e-01
      1.9075139713683006e-01 8.6989221498563835e-02
      5.7607162754352972e-02 3.6285938535196918e-02
      1.4320112669512214e-01 2.4584024065634247e-01
      1.8309820360017456e-01 5.1580276719701862e-02
      -2.8429888231072725e-01 3.4106953107067295e-02
      -6.8721098979112397e-02 -1.2994415075138247e-02
      9.5068903122703163e-02 7.9385161815881913e-02
      6.4872702943159115e-04 2.7287602795283174e-02
      9.8198690469661865e-01 1.3097892228908178e-01
      -1.4461472148116261e-01 -1.4571217030027337e-02
      1.7123239138576171e-01 -4.7241114531210375e-02
      8.0686928318715226e-02 1.1105982435485974e-01
      -1.8014982062120477e-01 5.1308592968416205e-03
      -1.2095721202698895e-01 -1.7132392904399121e-01
      3.1675390354600139e-04 4.0352020524957233e-02
      -1.3488111303396326e-02 -3.2772301208999696e-02
      1.8584271530420499e-02 2.3723731277166571e-01
      2.8293935146898058e-01 -9.0982201916747513e-05
      -1.1323394191285559e-01 -1.2709857886593090e-01
      6.1663065046060589e-02 -2.4514994787835587e-01
      2.6324089083115521e-01 -2.4547083908657522e-02
      -7.2284541896424831e-02 -7.0565525300922818e-02
      1.9520774427507148e-01 1.4074677757015003e-01
      -2.2590315193451754e-02 -1.1673257304395097e-01
      2.6941526598236404e-01 -4.2665221007760691e-02
      -3.2201127046382588e-01 -9.5195334362397202e-02
      1.1984723574367459e-01 1.9330334361088189e-01
      8.5719463970117434e-03 -8.7636139749082881e-02
      -7.5100142563746264e-01 7.2357855140235461e-02
      -6.3547947665069282e-01 -1.2902895465234991e+00
      -3.7259826896175313e-01 -4.4783990799811496e-01
      1.0733389333632881e-01 1.4805368855871595e-02
      -1.4147208917376869e-02 -1.5021166913305312e-01
      4.1793357997921254e-01 -7.1451472276584949e-01
      6.1523647235243367e-02 -1.2041027925352177e+00
      -1.1703155958291556e-01 2.8920418747520543e-01
      1.3108563087011338e-01 -1.2948881274947528e+00
      -1.5074632170708504e-02 5.6547827951838148e-01
      1.4423462679109827e-01 1.0529453154289532e+00
      -5.8184443052753484e-02 -1.2566132443289968e+00
      -3.7571701615655939e-01 -2.0104277681699834e-01
      -1.1320685854771022e+00 -3.1780995912874553e-02
      -4.2270818602519072e-01 1.5959845680549775e-01
      1.3141506285031374e-01 1.2450470670057269e-01
      1.2590907834861052e-02 -1.2091533565085841e+00
      -2.8583081287533677e-03 -1.7826438237680511e-02
      1.8217354007068292e-02 -1.2910048193427348e+00
      1.7905612427231269e-02 1.3784102600300339e+00
      -1.0758234399644184e-01 8.5888342137296325e-01
      -2.5484580219596313e-02 -1.2487833478800840e+00
      -1.7264421223387688e-01 2.5157571898670458e-02
      7.6161811074512947e-02 -6.7420125438239706e-02
      -2.9676882327559900e-01 -2.8461211127384012e-01
      1.6671048877593014e-01 -1.2708149636299654e-01
      -2.1817045439691221e-02 1.4890609226551044e-01
      -2.3330547506169086e-02 3.0334776460153284e-02
      1.2791051609825166e-01 1.0840835222865007e-01
      1.8045624564529594e-01 -1.6516891112457019e-01
      -2.5755685758991043e-03 8.3100365114466748e-03
      1.4345800475891793e-04 -1.3221114911718471e-01
      -8.6954712281427066e-02 -4.8645505727421046e-02
      2.2849229866789042e-01 4.9104925635735222e-02
      -4.2116103776098424e-02 -6.8051629315442952e-02
      -9.4789000841283319e-02 -3.6445089396870450e-01
      -1.2406933864134973e-03 2.1456110786910426e-02
      3.0151063601683831e-01 -1.2307062145595070e-02
      8.5946898778116870e-02 5.3602499897745987e-02
      8.0969395865614302e-02 -2.2558308283000020e-01
      1.2310593383328514e-01 -1.3162121767311311e-01
      1.2514824712921951e-01 -2.0770858976360398e-01
      -1.2997774487862540e-01 1.2306672450762871e-01
      3.3300795410192191e-01 -3.8298168295440568e-02
      4.5242475685685138e-02 -8.0650355185306943e-02
      -3.0431162138515067e-01 -2.4661050908216939e-01
      -1.3189120725016204e-01 -4.4432579272862390e-03
      -2.5896958789782619e-02 7.8555962394290232e-02
      4.5782097181071686e-02 4.0334498321943572e-02
      6.6624395446383863e-02 3.7608478411153244e-02
      1.5704894210511194e-01 1.0231694912062154e-01
      2.1582021070838531e-01 3.3954917142627694e-01
      -2.6057882183057549e-02 1.3190222616867620e-01
      3.5122037724100087e-02 -4.6081049754191417e-02
      -1.2403350851394956e-01 1.4139422408952848e-01
      1.0761022076381400e-03 -2.7651109893338081e-02
      9.8633000132782173e-02 2.5066658426185251e-01
      -7.9635887980596537e-02 -4.8159740238723603e-02
      6.1775087696909196e-02 -7.8736830144254463e-03
      5.5178052975388289e-02 2.6851565146066986e-02
      -6.7056640452103815e-03 -1.8513878210429952e-02
      2.2145128392923577e-01 -9.8089034936190422e-02
      4.6688074721943029e-02 -4.6059936810483308e-02
      7.8600362338802059e-03 -2.0812517296946431e-01
      -7.1252964504606121e-04 3.2705274569635151e-02
      1.4137538574833236e-01 1.3514766434734726e-01
      1.1754471701086891e-01 1.3856006542505364e-01
      -1.8334397070886879e-01 -1.5057338626210151e-01
      -5.2623276371498939e-02 1.0693956311788570e-01
      1.3302376602063634e-01 -4.5228898041406132e-02
      -1.9005130127007285e-02 2.0312845302143429e-01
      1.0017529819668701e-01 5.1963899083007341e-03
      1.1028301682167857e-01 4.6958543715432177e-02
      1.6827481710207687e-01 -3.2190745606602655e-01
      -4.4600288220803960e-02 -1.9680540976400115e-01
      3.1368213301641118e-01 9.2574709052536328e-02
      8.5505087030767868e-02 2.9409032033932653e-01
