<?xml version="1.0"?>
<opencv_storage>
<opencv_ml_ann_mlp>
  <format>3</format>
  <layer_sizes>
    784 80 40 9</layer_sizes>
  <activation_function>SIGMOID_SYM</activation_function>
  <f_param1>6.6666666666666663e-01</f_param1>
  <f_param2>1.7159000000000000e+00</f_param2>
  <min_val>-9.4999999999999996e-01</min_val>
  <max_val>9.4999999999999996e-01</max_val>
  <min_val1>-9.7999999999999998e-01</min_val1>
  <max_val1>9.7999999999999998e-01</max_val1>
  <training_params>
    <train_method>BACKPROP</train_method>
    <dw_scale>1.0000000000000000e-03</dw_scale>
    <moment_scale>0.</moment_scale>
    <term_criteria>
      <epsilon>1.0000000000000000e-03</epsilon>
      <iterations>5000</iterations></term_criteria></training_params>
  <input_scale>
    1. 0. 1. 0. 1. 0. 1. 0. 1. 0. 1. 0. 1. 0. 1. 0.
    2.3719769652535259e+04 -4.3002897632867043e-03
    9.6421831057964710e+02 -4.3002897632867043e-03
    2.7453437773973434e+02 -4.3002897632867043e-03
    3.6103151080026100e+02 -4.3002897632867043e-03
    8.7851000876714988e+03 -4.3002897632867043e-03 1. 0. 1. 0. 1. 0.
    5.1120194723754258e+02 -4.3002897632867052e-03
    2.3346230793718351e+02 -4.3002897632867043e-03 1. 0. 1. 0. 1. 0. 1.
    0. 1. 0. 1. 0. 1. 0. 1. 0. 1. 0. 1. 0. 1. 0. 1. 0. 1. 0. 1. 0. 1. 0.
    3.7062139201907794e+03 -4.3002897632867043e-03
    1.2176857515744998e+03 -5.2761893337738572e-03
    4.6395515188489969e+02 -6.9140904250387389e-03
    1.9335365460766428e+02 -6.3119405490048791e-03
    2.5296782029815438e+02 -7.3700155601190750e-03
    2.5883753691483065e+02 -9.1693608717094404e-03
    1.3485561539741184e+02 -1.6386454515389236e-02
    7.6401654397542970e+01 -2.2221266831103141e-02
    5.9441733317015427e+01 -2.6054941079684989e-02
    4.9493628194271821e+01 -3.6016854575109884e-02
    3.3797241568931213e+01 -4.7746224333560884e-02
    2.9754182661528610e+01 -4.9060840144036687e-02
    4.1476992842650972e+01 -3.9107820175286079e-02
    6.4744829252205022e+01 -2.4906026699848007e-02
    1.1867668815602900e+02 -1.4421073097359063e-02
    4.5348676054862898e+02 -9.5441512560233612e-03
    1.4375617681558568e+04 -4.3002897632867052e-03 1. 0.
    5.6075108873514489e+02 -4.3002897632867043e-03
    3.2404057289250699e+02 -4.3002897632867043e-03
    1.2040492424231393e+03 -4.3002897632867043e-03 1. 0. 1. 0. 1. 0. 1.
    0. 9.4683159477391507e+02 -7.6708951338243375e-03
    8.5368984887631314e+02 -7.9145614533810658e-03
    9.3624227958897573e+03 -5.6861760558900559e-03
    5.2178476280165785e+02 -7.3407487426412829e-03
    1.5475919090855916e+02 -1.2304116250853968e-02
    8.9583940800728442e+01 -1.8902086572941044e-02
    5.6172807220622140e+01 -2.7929296942464071e-02
    3.8485798636729221e+01 -3.8163768150164736e-02
    3.0351903097685895e+01 -4.8233276317462173e-02
    2.4916158327995209e+01 -6.0234521238687874e-02
    2.0003171330137803e+01 -7.8420010469281098e-02
    1.5403422073287901e+01 -1.0760993049278232e-01
    1.0685544172495282e+01 -1.5372952642041568e-01
    7.9273029129183712e+00 -1.8972292446478076e-01
    7.4037097431365453e+00 -1.9243359691135001e-01
    9.1757582864938030e+00 -1.6269883098775778e-01
    1.4375475778278991e+01 -1.1218181610893115e-01
    2.6701933229094745e+01 -6.7154041609350290e-02
    6.1878395943756914e+01 -3.5627435242038534e-02
    1.1841783168672562e+02 -1.6963170208128747e-02
    2.4538098480753607e+02 -1.0473787948488888e-02
    4.8974021635393615e+02 -6.7312205677061993e-03
    3.9748252940652105e+02 -4.3002897632867035e-03
    2.4968178956118636e+03 -4.3002897632867043e-03 1. 0. 1. 0.
    1.2583432864457802e+03 -4.3002897632867043e-03
    5.5126863331398381e+03 -5.9465830353430792e-03
    5.5468010073672576e+02 -9.2541312532729396e-03
    6.2003727778994721e+02 -1.2327164343483918e-02
    2.4170394166371773e+02 -1.2424025504880414e-02
    1.3901860316728431e+02 -2.0220420623884610e-02
    7.6328386472980085e+01 -3.1227349576976215e-02
    3.6087485767331934e+01 -5.2815983043370075e-02
    2.0724405317925491e+01 -8.2198667210374332e-02
    1.3548565786360175e+01 -1.1305378173520118e-01
    9.9803521939960245e+00 -1.4574015954957575e-01
    7.9066953284132406e+00 -1.7779268503559170e-01
    6.7230445338271716e+00 -2.0708747194725372e-01
    5.9524867568350892e+00 -2.4679016135798679e-01
    5.0953546582770297e+00 -2.9910830706101660e-01
    4.4528780068942719e+00 -3.2392372346135750e-01
    4.5797359493560892e+00 -3.0534179071638951e-01
    5.7725951071386978e+00 -2.5198913248563026e-01
    8.6389837026326060e+00 -1.7855034617066332e-01
    1.4644196152434498e+01 -1.1490605460963992e-01
    2.9466778140209925e+01 -6.6168517743877178e-02
    5.9279788049956693e+01 -3.3552108945887005e-02
    1.0977461858035844e+02 -1.4999130485624476e-02
    1.9048030148041065e+02 -1.1354528917097855e-02
    2.1535546437099692e+03 -8.9310855466782392e-03
    1.0202051598927608e+04 -4.3002897632867043e-03
    1.4267530342921580e+04 -4.3002897632867043e-03 1. 0.
    4.3938041640782058e+02 -8.7991922477016708e-03
    5.9367560793416283e+02 -9.2979532015275042e-03
    5.0704436485025673e+02 -1.6430428262920665e-02
    2.6171897380757088e+02 -1.5862625123507196e-02
    1.0468975798838714e+02 -1.9366979258521409e-02
    5.6178598033741558e+01 -3.6299479619140332e-02
    2.9811337656369620e+01 -6.4675249933008438e-02
    1.6216161298662662e+01 -1.1123372818500059e-01
    9.8624357414731030e+00 -1.6828458890440598e-01
    6.6723846001988569e+00 -2.2764051700190940e-01
    5.0679155490028931e+00 -2.9069199768958875e-01
    4.1411390287875083e+00 -3.5553573123043286e-01
    3.5079530855118679e+00 -4.4514162413215885e-01
    3.0192096427672741e+00 -5.5293039756860551e-01
    2.7889195493793890e+00 -6.1664574574962627e-01
    2.8874206133520497e+00 -5.8008108416296500e-01
    3.3305278862495684e+00 -4.8301415379018064e-01
    4.2157812152406331e+00 -3.7812813402927353e-01
    5.6766237667073964e+00 -2.8087652099013544e-01
    7.9844371426502700e+00 -1.9964713558858388e-01
    1.1970556266030581e+01 -1.3680675067554848e-01
    1.8470743553446496e+01 -9.0655794455567915e-02
    3.1699394419325355e+01 -5.8018366688638433e-02
    5.7396104565256138e+01 -3.4577229627415461e-02
    1.1901625917720169e+02 -2.1144771303644869e-02
    2.1367834658707852e+02 -1.1232356145865208e-02
    7.7367814906090393e+02 -4.9057486148924899e-03
    6.4067942505785086e+03 -5.2704132890949492e-03
    3.1876465737459364e+02 -1.0111192662632105e-02
    4.0084135810511498e+02 -1.2961740265536446e-02
    2.3503196165313486e+02 -1.6712275941425742e-02
    1.4534410025460011e+02 -2.0595680436055867e-02
    6.6518215959933102e+01 -3.5607512825761613e-02
    3.0369047838037392e+01 -6.5970602196833650e-02
    1.5858989392853482e+01 -1.1630483815012213e-01
    8.8856839574215485e+00 -1.8658154808366526e-01
    5.7445209740363765e+00 -2.6914173319201085e-01
    4.2235514002025809e+00 -3.6187075808248914e-01
    3.4098185655195996e+00 -4.5801517027783079e-01
    2.9563120713347653e+00 -5.5923495610607710e-01
    2.6767101329038074e+00 -7.0129859664906424e-01
    2.4415294401805236e+00 -8.7431492263166488e-01
    2.3023501030004723e+00 -9.5444067567279522e-01
    2.3816869072376838e+00 -9.0279698060909608e-01
    2.6076761175323515e+00 -7.5416157382927940e-01
    2.9963284312859249e+00 -6.0435928807683870e-01
    3.6395696022267296e+00 -4.6989185154731000e-01
    4.6332120834395125e+00 -3.5223402697737255e-01
    6.1592501989691844e+00 -2.5747909254310436e-01
    8.8466558396829118e+00 -1.8341143922218528e-01
    1.3931799260993209e+01 -1.2453134925560479e-01
    2.3480326038879447e+01 -8.0098350223085160e-02
    4.1190258484534056e+01 -4.8493926867043700e-02
    9.8199120005124271e+01 -2.8248349573114746e-02
    2.9258450247489816e+02 -1.1232789367533086e-02
    3.7142301646464745e+02 -4.7203483512218937e-03
    3.1711147498135057e+02 -1.4397161718230668e-02
    3.0266092082718438e+02 -1.7279592319399666e-02
    2.7865619052858574e+02 -2.2685619038712718e-02
    9.5187747366102485e+01 -3.1557661747130289e-02
    4.0284719603248710e+01 -5.3801353174134064e-02
    1.8241253877877497e+01 -9.9102467948202919e-02
    9.8866483079119760e+00 -1.7125327715894362e-01
    6.0359565104510144e+00 -2.6413357103979362e-01
    4.2132643050123564e+00 -3.7818581852239808e-01
    3.2652752275953687e+00 -5.0435869890330676e-01
    2.7699086118178848e+00 -6.3079346363670874e-01
    2.5376512442135359e+00 -7.5470602450232316e-01
    2.4528865265893813e+00 -9.2600568368997072e-01
    2.3759118825024217e+00 -1.1178008773769315e+00
    2.2920510022607732e+00 -1.1826328024219288e+00
    2.3443660131522681e+00 -1.1472279868814386e+00
    2.3891316811892542e+00 -9.9093014765478404e-01
    2.4898932800656923e+00 -8.2917410447376105e-01
    2.8130523426909693e+00 -6.7002700777113799e-01
    3.4379602277610477e+00 -5.0320545860549781e-01
    4.4182280547401618e+00 -3.6171253806323078e-01
    6.0570690298066339e+00 -2.5911732677463423e-01
    8.9666896059576189e+00 -1.7866384561364074e-01
    1.4550822508447377e+01 -1.1785498879997680e-01
    2.5860108494757782e+01 -7.0277209082846126e-02
    5.2186151496851799e+01 -4.0187877256957327e-02
    1.4398564205527268e+02 -1.9018041491977253e-02
    3.9236383707520326e+02 -9.3665475236405973e-03
    2.4631799429623550e+02 -1.0553974036686691e-02
    2.1415993785718152e+02 -1.4959269638631634e-02
    1.3312892001205688e+02 -2.0573862263035581e-02
    5.5102574804306329e+01 -4.1125106255508831e-02
    2.4310154073941753e+01 -7.9402784749356664e-02
    1.2386231300672510e+01 -1.4196381230571728e-01
    7.1859243984070416e+00 -2.3191120017235084e-01
    4.6822635760696540e+00 -3.4733158617585708e-01
    3.4531236248225441e+00 -4.8686148450981070e-01
    2.8277225753903257e+00 -6.4386912807288521e-01
    2.5392970751070569e+00 -8.0139476439255464e-01
    2.4373041498880834e+00 -9.4767516770191518e-01
    2.4449548294537529e+00 -1.1070867498045791e+00
    2.4135220243458688e+00 -1.2300674320027958e+00
    2.3345618417971195e+00 -1.2190417945001071e+00
    2.4030261659043028e+00 -1.1899875652559824e+00
    2.4067617437766962e+00 -1.1066318514719422e+00
    2.3810424532437771e+00 -1.0080207539191206e+00
    2.5138571203822169e+00 -8.6637910373275206e-01
    2.9028400373389553e+00 -6.6166989963319756e-01
    3.6732436450480974e+00 -4.6691418194506085e-01
    4.9983307980677623e+00 -3.2258429176342091e-01
    7.3330035029591922e+00 -2.1829949510474755e-01
    1.1818090547547092e+01 -1.4361360730918751e-01
    2.0812004934961415e+01 -8.6394792592429423e-02
    4.2113583232818023e+01 -4.9871483150622134e-02
    1.0540273420103892e+02 -2.3144882452811322e-02
    2.2769122279555995e+02 -1.0607777539577340e-02
    3.1416455452086410e+02 -8.9037481283950025e-03
    2.7089802161834712e+02 -1.3626295378851277e-02
    9.4779812592556794e+01 -2.9565778082179046e-02
    3.3321207475595237e+01 -5.8417259617236414e-02
    1.6600783828957606e+01 -1.0587147239909700e-01
    9.2832216545680453e+00 -1.7923571655858042e-01
    5.7123358632707264e+00 -2.7725628768060212e-01
    3.9806721699243450e+00 -4.0579098856773937e-01
    3.0827286807158596e+00 -5.7013695808416887e-01
    2.6267100617812016e+00 -7.5903242831311513e-01
    2.4378371429524499e+00 -9.3924714219050121e-01
    2.3856621356975607e+00 -1.0513354040682761e+00
    2.4036343872014858e+00 -1.0973412896051269e+00
    2.3870274754734400e+00 -1.1001099290759127e+00
    2.3297668073432090e+00 -1.0323819654800390e+00
    2.4179396012771304e+00 -1.0209595392363360e+00
    2.4325285186885903e+00 -1.0283700356239804e+00
    2.3549641473026495e+00 -1.0245013462846426e+00
    2.4058160179748480e+00 -9.4788071084371006e-01
    2.6561949968885101e+00 -7.5599758736792466e-01
    3.2622561261813114e+00 -5.4212726528805355e-01
    4.4295592474392729e+00 -3.6953666732316404e-01
    6.5722843500416621e+00 -2.4581712021609425e-01
    1.0675603848552891e+01 -1.5687255632426594e-01
    1.8860699178725746e+01 -9.4941608856432380e-02
    3.7921566429091875e+01 -5.1913994788880986e-02
    9.0609985106382652e+01 -2.3942424922188628e-02
    1.5274320383819423e+02 -1.1661654203502250e-02
    3.5470925943751826e+02 -7.3438850525508843e-03
    2.3960623826582935e+02 -1.2629507348635455e-02
    7.3855252547217148e+01 -3.3893843652783411e-02
    2.4569935801875435e+01 -7.2716529534586127e-02
    1.2905473118873598e+01 -1.2245836501511632e-01
    7.8508893017124590e+00 -1.9768074401427885e-01
    5.1354204242208361e+00 -3.0197003907340830e-01
    3.6865952533206672e+00 -4.4247068726044125e-01
    2.9063513601547042e+00 -6.2329390758677128e-01
    2.5225909587575197e+00 -8.2482687216744133e-01
    2.3913289963004671e+00 -9.8164580288778225e-01
    2.3775237030610428e+00 -1.0051999011578572e+00
    2.4586573447851889e+00 -9.5378335436561790e-01
    2.4863898254613104e+00 -8.9930645207866422e-01
    2.4308525897569706e+00 -8.3366780808459351e-01
    2.5149370988278905e+00 -8.6138613533744512e-01
    2.5117933775999051e+00 -9.2637834685015397e-01
    2.3882047151983259e+00 -9.7369924890138271e-01
    2.3982108059410177e+00 -9.3959254943247184e-01
    2.5866156519371186e+00 -7.7367433602871449e-01
    3.1010640338371926e+00 -5.6732431630047464e-01
    4.1703145005009272e+00 -3.9012550949924335e-01
    6.2225065021697628e+00 -2.5864563638422988e-01
    1.0155278749780328e+01 -1.6130946300675775e-01
    1.8107253552590844e+01 -9.7946921645599178e-02
    3.8986069706329424e+01 -5.4106884385056002e-02
    9.8695666734482089e+01 -2.5881011583533668e-02
    1.9289572892342181e+02 -9.9309309873395826e-03
    7.3947529365785454e+02 -6.8674082518299087e-03
    1.8169113910924082e+02 -1.3056513959302326e-02
    6.3842773152538328e+01 -3.9263447931903561e-02
    2.1700799375233181e+01 -7.9227964547108010e-02
    1.1935329122938560e+01 -1.2556856867456009e-01
    7.6623497041407669e+00 -2.0218822493874067e-01
    5.0447836432681088e+00 -3.1136065476962049e-01
    3.5870042738815768e+00 -4.6106431288784688e-01
    2.8288043540093044e+00 -6.4877348226317078e-01
    2.4896717555514178e+00 -8.3690607380616389e-01
    2.4035408542306098e+00 -9.3774946052266150e-01
    2.4632368182316715e+00 -8.9560783189335147e-01
    2.6538373009438856e+00 -8.1007368086595799e-01
    2.6943071716762539e+00 -7.5655791785472615e-01
    2.5537296785946264e+00 -7.2331510804872079e-01
    2.5905199394632312e+00 -7.9688235016578868e-01
    2.5735467195455994e+00 -8.9254612613713924e-01
    2.4266211034643770e+00 -9.4398094733844662e-01
    2.4236359462733299e+00 -9.1220006652893237e-01
    2.5965942878677133e+00 -7.5478355794433238e-01
    3.1098290471188772e+00 -5.5756687350221679e-01
    4.1769017667664707e+00 -3.8419669661364858e-01
    6.2043829746141945e+00 -2.5402491611828548e-01
    1.0063927087408349e+01 -1.6005543400067637e-01
    1.8684386607293682e+01 -9.5670716016055021e-02
    3.9192731225628798e+01 -5.2381875213799958e-02
    1.0184090656204080e+02 -2.5996105807025043e-02
    1.8981922656122811e+02 -8.6093694592689583e-03
    8.1057369109571846e+02 -8.7620984039592942e-03
    1.8459576143121441e+02 -1.6849076001393126e-02
    5.5308254265939937e+01 -3.9552565170980727e-02
    2.2260940702767133e+01 -7.5062288903657876e-02
    1.2726404585788996e+01 -1.2332860824284621e-01
    7.8461460722015035e+00 -2.0131430838231665e-01
    5.0032803767003644e+00 -3.1920566235212333e-01
    3.5115313145974967e+00 -4.7439962057597296e-01
    2.7798319053367342e+00 -6.5746591038284130e-01
    2.4973108810460460e+00 -8.1883772772180474e-01
    2.4607905837906485e+00 -8.7883396347361109e-01
    2.5680980986743096e+00 -8.1620632713229280e-01
    2.7696060361842729e+00 -7.4046345529719404e-01
    2.7224315447068816e+00 -7.1862355187570770e-01
    2.5171393006848324e+00 -7.2664874590345718e-01
    2.5356537958260614e+00 -8.3267972716246730e-01
    2.5353185205433268e+00 -9.3616648408467829e-01
    2.4276307355908782e+00 -9.6517048721942800e-01
    2.4353153000632770e+00 -9.0218333116831229e-01
    2.6305560754778763e+00 -7.3174313372929167e-01
    3.1940690279536610e+00 -5.3746729730877374e-01
    4.3076829020343403e+00 -3.6915579283250699e-01
    6.3389522355810817e+00 -2.4691339387820441e-01
    1.0158635778315492e+01 -1.5791046738645692e-01
    1.7662712339254973e+01 -9.7777957003450988e-02
    3.9051988421155450e+01 -5.5309303058503505e-02
    1.0908793797899457e+02 -2.5585467166718834e-02
    3.3475994911196887e+02 -1.1530436664609829e-02
    9.2553031592057528e+02 -6.0804554780513123e-03
    1.7671062681681781e+02 -1.4274021791508568e-02
    5.9456843441402640e+01 -3.4195326924246851e-02
    2.6318408602526265e+01 -6.7123976819751602e-02
    1.3779969341091025e+01 -1.1997119274607071e-01
    7.8463480533477643e+00 -2.0548655103441538e-01
    4.8524623366131845e+00 -3.2764069904227122e-01
    3.4163460320904684e+00 -4.8340991905292213e-01
    2.7640701035822000e+00 -6.5461818558283125e-01
    2.5192717851760720e+00 -7.9708940384048721e-01
    2.4825695738135929e+00 -8.3982297642322812e-01
    2.5577946326739189e+00 -7.9305931111589678e-01
    2.6570989775501532e+00 -7.5503746591799692e-01
    2.5451393593872615e+00 -7.7981632552669011e-01
    2.3795858708395832e+00 -8.3157262924367303e-01
    2.4325853401323019e+00 -9.6543491775042756e-01
    2.4592885972923204e+00 -1.0534678275390339e+00
    2.3943551985223142e+00 -1.0351206287545669e+00
    2.4260726318361607e+00 -9.1691133750916265e-01
    2.6543794150728233e+00 -7.2052726565599823e-01
    3.2524408995536866e+00 -5.2366681821588068e-01
    4.3767566862526968e+00 -3.6169697857333039e-01
    6.3212548336185677e+00 -2.4466578280851678e-01
    9.5494273962865570e+00 -1.6202912573865083e-01
    1.5683984781068743e+01 -1.0452788161188051e-01
    3.2409625750732360e+01 -6.0857352007479659e-02
    8.4853482900063241e+01 -2.7822518347152225e-02
    2.3456107260258543e+02 -9.3097610999466514e-03
    2.1178366336002700e+03 -4.3002897632867043e-03
    1.9947522018530461e+02 -1.0654359922355444e-02
    7.0092065644157685e+01 -2.7095315987710880e-02
    2.9465412325963293e+01 -6.2166934810155908e-02
    1.3599963982031507e+01 -1.2275919679796639e-01
    7.4220518847434658e+00 -2.1059438833176147e-01
    4.6582009623716356e+00 -3.3225374311259936e-01
    3.3502397786075853e+00 -4.8028833003310478e-01
    2.7460517152923116e+00 -6.3969809231554531e-01
    2.5148718898010678e+00 -7.6856357419193166e-01
    2.4593655787332991e+00 -8.1960775360244609e-01
    2.4782148037628917e+00 -8.1138662807677764e-01
    2.4950465676762090e+00 -8.2980022573742562e-01
    2.3866305540563642e+00 -9.0813674713713222e-01
    2.2941414161314655e+00 -1.0018682959273091e+00
    2.3898540103685075e+00 -1.1490003004711054e+00
    2.4137956950559416e+00 -1.1929361856263372e+00
    2.3519165720163180e+00 -1.1084103905873794e+00
    2.3939191462109584e+00 -9.3601794293789764e-01
    2.6429141850650084e+00 -7.1684787817270235e-01
    3.2355438768059384e+00 -5.1571241137213830e-01
    4.2648349316069218e+00 -3.6176967584363734e-01
    5.9076051461112797e+00 -2.5150840789117962e-01
    8.4716249798637442e+00 -1.7465473221900299e-01
    1.3228834033663173e+01 -1.1779556064645902e-01
    2.7237243527683230e+01 -7.0530390769910592e-02
    7.4278705140246316e+01 -3.4295558307517966e-02
    1.6056223170083831e+02 -1.0169307492372947e-02
    5.2477367943730349e+02 -4.3002897632867043e-03
    2.3440952195269452e+02 -8.4144877673385382e-03
    9.0274251159202933e+01 -1.7394128971003821e-02
    2.8580386243961787e+01 -5.1128950012356074e-02
    1.2358358914358318e+01 -1.1000754276427405e-01
    6.8290096694859903e+00 -1.9927072800056062e-01
    4.3365675923368148e+00 -3.1376133209839535e-01
    3.2001599185762442e+00 -4.5080609529340127e-01
    2.6552787752987279e+00 -5.9495782313692769e-01
    2.4313034344491986e+00 -7.1615383408392030e-01
    2.3730437554595114e+00 -7.8515152108657871e-01
    2.3658981918229811e+00 -8.1382121256857787e-01
    2.3562690834960605e+00 -8.8332493351226538e-01
    2.2819981591891003e+00 -1.0262450527976992e+00
    2.2397585820765826e+00 -1.1420383082673768e+00
    2.3238048855524291e+00 -1.2706520686318037e+00
    2.3130101898875517e+00 -1.2379524745329644e+00
    2.2557190309713357e+00 -1.1099336066905527e+00
    2.2980286805868197e+00 -9.1223721925423096e-01
    2.5309605915949311e+00 -6.8979183785887055e-01
    3.0382490727853178e+00 -5.0161300181517854e-01
    3.8901930557416713e+00 -3.6094386971034942e-01
    5.1813323139522094e+00 -2.5938308663210341e-01
    7.2503227250401467e+00 -1.8349585847960437e-01
    1.1303311860587721e+01 -1.2048797073346544e-01
    2.2960915653549414e+01 -6.4353874875801187e-02
    6.7697329287216277e+01 -2.4831193766157434e-02
    7.6283731184298495e+02 -7.3575090171361830e-03
    1.6354654977306234e+03 -4.8997068456579952e-03
    3.1579043587761481e+02 -9.1952926018517515e-03
    7.8003685717608377e+01 -3.3659778198525191e-02
    2.6305382945539364e+01 -6.8183344793635164e-02
    1.2761473253952946e+01 -1.2910604380032734e-01
    7.0006673534852730e+00 -2.2308327740411074e-01
    4.4950506682389992e+00 -3.3408810260875987e-01
    3.3776875174160752e+00 -4.5758426648457429e-01
    2.8172271105480968e+00 -5.8662790566880285e-01
    2.5559465782353774e+00 -6.9811743506476220e-01
    2.4618773518284218e+00 -7.7832769537439384e-01
    2.4284082227798254e+00 -8.4086086614279842e-01
    2.4122870051306888e+00 -9.5114222476349264e-01
    2.3462782481252997e+00 -1.1032459646491237e+00
    2.3219281007081181e+00 -1.2242024961613467e+00
    2.4221686682948569e+00 -1.3355403875913145e+00
    2.4070543418136099e+00 -1.2723229304646622e+00
    2.3525550843155627e+00 -1.1141735627575178e+00
    2.4267067149415480e+00 -9.2159096578412436e-01
    2.6473308044067103e+00 -7.1983168276657183e-01
    3.0711322828702237e+00 -5.4669816957738404e-01
    3.7689046631929592e+00 -4.0652468245757339e-01
    4.9137150754654249e+00 -3.0066745858553290e-01
    6.9552838250987197e+00 -2.1314061185962246e-01
    1.1059879392345080e+01 -1.4185056766716164e-01
    2.1441319521092957e+01 -8.1820565761752742e-02
    5.7376479168481019e+01 -3.6968162530595282e-02
    2.6495790228363882e+02 -1.2189058529466317e-02
    2.5165668738068712e+03 -5.3836613027723815e-03
    4.9961625799763925e+02 -1.0214959399559706e-02
    8.2757564970750096e+01 -3.1655681748504451e-02
    2.9705793587098920e+01 -6.7152771385264501e-02
    1.3444398505251467e+01 -1.3062970646577166e-01
    7.1780625802104154e+00 -2.2299041257903784e-01
    4.6461051817181769e+00 -3.2811121484486805e-01
    3.5146711144461569e+00 -4.4049934209207309e-01
    2.9449879356264757e+00 -5.5579720877134553e-01
    2.6594933701232675e+00 -6.5551905330076388e-01
    2.5327811128789821e+00 -7.2695599919422316e-01
    2.4855177673885631e+00 -7.8940734724521999e-01
    2.4543562231552043e+00 -8.9530162267179403e-01
    2.3641230559928292e+00 -1.0265130832215903e+00
    2.3283725612417072e+00 -1.1393364882717905e+00
    2.4067158666872124e+00 -1.2506136447026974e+00
    2.3948371092527303e+00 -1.1916769102555897e+00
    2.4031157609903406e+00 -1.0591562968773172e+00
    2.5081397827201943e+00 -8.9217619974396878e-01
    2.6896653180342196e+00 -7.1697570899298413e-01
    3.0234596664034603e+00 -5.6280839948548544e-01
    3.6625852513067101e+00 -4.2808175067024928e-01
    4.7829172540615241e+00 -3.1458181784811556e-01
    6.8219534845194350e+00 -2.2157394152092141e-01
    1.0614684542025303e+01 -1.4753250539010432e-01
    2.0785912578165419e+01 -8.9812894261499979e-02
    6.2256878659402524e+01 -4.1452683010994126e-02
    4.1549769574750042e+02 -1.3407424568436833e-02
    9.5002665058762307e+02 -4.7687743266538263e-03
    5.1506269131600743e+02 -6.7594428907566811e-03
    1.2448486928558695e+02 -2.5853693510616550e-02
    3.6521662239916317e+01 -5.9034847110481244e-02
    1.4940688609056636e+01 -1.2415035975015790e-01
    7.6234400943668614e+00 -2.1435059153157562e-01
    4.8655293022789472e+00 -3.1507418590503761e-01
    3.6830063224020595e+00 -4.1972401654862979e-01
    3.0828337773265382e+00 -5.2062143141135597e-01
    2.7805197502368695e+00 -6.0582219221219447e-01
    2.6407003568011738e+00 -6.6331370346610685e-01
    2.5866478901069856e+00 -7.0742942022372124e-01
    2.5453824264226625e+00 -7.9008233041304021e-01
    2.4336894168091150e+00 -9.0194254814514974e-01
    2.3594466484520278e+00 -1.0252877326606489e+00
    2.3893206722595819e+00 -1.1490891193341064e+00
    2.4021355855329558e+00 -1.1227932425660363e+00
    2.4658748498462062e+00 -1.0166018810864401e+00
    2.5562868937313117e+00 -8.6872342972484085e-01
    2.6706265798931996e+00 -7.1314386479359693e-01
    2.9700792074553615e+00 -5.7064536153011014e-01
    3.6572110038563399e+00 -4.3396684751244785e-01
    4.9020604344544809e+00 -3.1352626815623769e-01
    7.0609439479009959e+00 -2.1838547361815749e-01
    1.0891778370970878e+01 -1.4791906886249870e-01
    2.0238632173368337e+01 -9.2787237765647526e-02
    5.4503802673173446e+01 -4.4571328579661007e-02
    3.0586435589110243e+02 -1.5481465950094381e-02
    1.9643702823496399e+03 -4.3002897632867043e-03
    8.8282095180390081e+02 -7.1703091243356777e-03
    1.4349187894827222e+02 -1.9670172098370728e-02
    4.0643582345170152e+01 -5.2797621133807399e-02
    1.6124704020499316e+01 -1.1501945320227948e-01
    8.0402804026163572e+00 -2.0489384392623819e-01
    5.0022588906023442e+00 -3.0552531117418347e-01
    3.7775975245106705e+00 -4.0611358644088141e-01
    3.1749905497626680e+00 -5.0182493543844719e-01
    2.8530835715788707e+00 -5.7991024304258620e-01
    2.6948124427915645e+00 -6.2973571122625838e-01
    2.6389302992976713e+00 -6.5727934820704681e-01
    2.6476410102212067e+00 -7.2133975706988329e-01
    2.5210781468484553e+00 -8.3809140939544857e-01
    2.3744965864610688e+00 -9.7685124251907030e-01
    2.3881342389410598e+00 -1.1211298390485069e+00
    2.4503378001917246e+00 -1.1250464852181661e+00
    2.5037675165155990e+00 -1.0169089836567626e+00
    2.5225672248803903e+00 -8.6424797029172540e-01
    2.6162009401032473e+00 -7.1435529878929793e-01
    2.9689880473961026e+00 -5.7036614484431503e-01
    3.7389490345248571e+00 -4.2580542707999647e-01
    5.0760317692050201e+00 -3.0239569900958463e-01
    7.1791782543344844e+00 -2.1003036292462984e-01
    1.0888914856281835e+01 -1.4464564647821584e-01
    2.0369354396440187e+01 -9.1621453301858363e-02
    6.1192559280065311e+01 -4.5846821225395018e-02
    2.0959004621872234e+02 -1.5225698860403317e-02
    4.0374076575534898e+04 -4.3002897632867052e-03
    5.8227112730768511e+02 -1.1303178337224041e-02
    1.4716706292217830e+02 -1.7589944412047982e-02
    5.0353703018896979e+01 -4.7288522998374216e-02
    1.7414786385728497e+01 -1.0503061957979656e-01
    8.4810363465706793e+00 -1.9330457491533518e-01
    5.1611014018905106e+00 -2.9821232773799489e-01
    3.8023159542113398e+00 -4.0211021738429453e-01
    3.1713782491182685e+00 -5.0219245010871172e-01
    2.8310246938942289e+00 -5.8468555657140453e-01
    2.6456954695257209e+00 -6.3814358365758728e-01
    2.5827160166151857e+00 -6.6376340604629069e-01
    2.6231949873523090e+00 -7.3162650972709475e-01
    2.5034047560555153e+00 -8.7134665326927196e-01
    2.3393966330108533e+00 -1.0283126135216913e+00
    2.4019785879208841e+00 -1.1819379560153020e+00
    2.5029855618414536e+00 -1.1730473429392509e+00
    2.4740472662548960e+00 -1.0181229139764565e+00
    2.4723952103215114e+00 -8.5736918229810966e-01
    2.6375607163700407e+00 -7.0312046557869656e-01
    3.0950481886708130e+00 -5.4385673972107373e-01
    3.9992089972304168e+00 -3.9508645839348028e-01
    5.4388012311952378e+00 -2.7726900306084618e-01
    7.5185205102102302e+00 -1.9610881502899413e-01
    1.1373133139947509e+01 -1.3876726354678620e-01
    2.1329958110678845e+01 -8.8610707542596923e-02
    6.1986297009146902e+01 -4.5140586331106881e-02
    1.8436025741470831e+02 -1.3944786158057609e-02
    2.1084239468598540e+05 -4.3002897632867052e-03
    5.6569310838812453e+02 -6.1201286628525834e-03
    2.0955431927027058e+02 -1.1625804679110211e-02
    6.4672824966119236e+01 -4.0930006524250648e-02
    2.0227589532471853e+01 -9.5453940114691355e-02
    9.4225546039327632e+00 -1.7804935709841563e-01
    5.5498572005839080e+00 -2.8033093622614136e-01
    3.9079367080286471e+00 -3.8937480139487823e-01
    3.1733004931613511e+00 -4.9545705138053625e-01
    2.8118934254565753e+00 -5.9424002482642735e-01
    2.5968957306467724e+00 -6.6814940574671511e-01
    2.5105911994406140e+00 -7.1682368845313771e-01
    2.5257688374224849e+00 -8.1782820379831245e-01
    2.4262543828713108e+00 -9.9543367309291242e-01
    2.3263517978860659e+00 -1.1718177228041211e+00
    2.4535533240288450e+00 -1.3166206427480420e+00
    2.5217594974195401e+00 -1.2150188577700345e+00
    2.4412833481237262e+00 -9.9010561444275114e-01
    2.4913913389588447e+00 -8.0961847287119793e-01
    2.7947158738829923e+00 -6.4026383303435508e-01
    3.4523448777587871e+00 -4.7539675696392947e-01
    4.6064098038114603e+00 -3.3855406869159310e-01
    6.2339752569864011e+00 -2.3913672151371193e-01
    8.4982627940187729e+00 -1.7521428935529273e-01
    1.2857519232262844e+01 -1.2581381218610482e-01
    2.5095966937071477e+01 -7.9840136714144416e-02
    5.9703032415174405e+01 -3.9847227770452825e-02
    1.8075510889476101e+02 -1.5409731924709080e-02
    4.4599854232183143e+03 -5.3669210158850773e-03
    9.2403148430855686e+02 -8.2169948454154755e-03
    1.6691128366709097e+02 -1.0989398836977133e-02
    6.6595055122192733e+01 -3.4720503474883195e-02
    2.4332681067361936e+01 -7.9828117827392880e-02
    1.1291831729157510e+01 -1.5025826749565532e-01
    6.4057598938924833e+00 -2.4652851068025583e-01
    4.2979111625380533e+00 -3.5315211537525748e-01
    3.3358387329965766e+00 -4.6210093882578623e-01
    2.8743879693135721e+00 -5.6675853631592199e-01
    2.6334927660037422e+00 -6.6573427026926002e-01
    2.5172491626140148e+00 -7.6410212188839521e-01
    2.4952155727056256e+00 -9.3142840178956443e-01
    2.4248315222955803e+00 -1.1660325650206358e+00
    2.3908767140472968e+00 -1.3587657242109910e+00
    2.5246574635231709e+00 -1.4228481544457998e+00
    2.5037163491146344e+00 -1.1659292215636894e+00
    2.4597075968536539e+00 -8.8536995065341761e-01
    2.6562515875846411e+00 -6.9654885692352309e-01
    3.2098347734548232e+00 -5.2928805055636907e-01
    4.2689254145850306e+00 -3.7892908084981164e-01
    5.8654532836045208e+00 -2.6514786389523826e-01
    7.8920241296193012e+00 -1.9000014507350027e-01
    1.0566364858580497e+01 -1.4148542622534363e-01
    1.6072161569002624e+01 -1.0309620491699793e-01
    2.9936295906821911e+01 -6.7511024372280098e-02
    7.2645020780306524e+01 -3.7287696754559667e-02
    1.8134158904601057e+02 -1.6232326616160815e-02
    1.6855633960334198e+03 -4.7136520575317186e-03
    5.1453428051903529e+02 -9.8926403350663734e-03
    1.5169732987875281e+02 -1.3976888982316618e-02
    6.8910893339905797e+01 -2.7001798128273420e-02
    3.1146027484000900e+01 -6.1256769593828100e-02
    1.4996147804171308e+01 -1.1668357175485540e-01
    8.3136284587758826e+00 -1.9573468732768579e-01
    5.2949425068368363e+00 -2.9098333161045725e-01
    3.8539357772906833e+00 -3.9359904183840388e-01
    3.1345374983528127e+00 -4.9421984273980046e-01
    2.7617129530295683e+00 -5.9826438792984127e-01
    2.5551867975150167e+00 -7.2153531506080226e-01
    2.4603639211649044e+00 -9.2327810758002982e-01
    2.3928142324672663e+00 -1.1919610270166157e+00
    2.3726737465103342e+00 -1.3565721826944450e+00
    2.4428221741998413e+00 -1.2919437156454139e+00
    2.4762056857697736e+00 -9.8831221581540740e-01
    2.6471955654988029e+00 -7.2546825225276723e-01
    3.1707411830802816e+00 -5.4597480355357431e-01
    4.2835043249300124e+00 -3.9398838903109551e-01
    6.1449042514762535e+00 -2.6834229405619869e-01
    8.4638476131218212e+00 -1.8622252356056879e-01
    1.1106100270042386e+01 -1.3774747764410755e-01
    1.5009557579512910e+01 -1.0478743118800203e-01
    2.3125249981374349e+01 -7.8262606729320144e-02
    4.3550761994965363e+01 -4.9861652522586640e-02
    9.2755166313121592e+01 -2.7173981078038346e-02
    2.3056755322525709e+02 -1.5873884370075517e-02
    1.7837561748010908e+03 -4.6486899416560293e-03
    3.4444108483017015e+02 -9.0124684776749110e-03
    1.5558433108390540e+02 -1.0568717861418130e-02
    1.0654847189998144e+02 -2.0795708400952944e-02
    5.1497774334707358e+01 -4.3148733525449151e-02
    2.4197745440195874e+01 -7.8387953754757572e-02
    1.2882409607805554e+01 -1.3396586337856967e-01
    7.7752535285455924e+00 -2.0477800238463154e-01
    5.3107440196440390e+00 -2.8954682153908007e-01
    4.0023614064590260e+00 -3.7961339367501784e-01
    3.2721082328268030e+00 -4.8590030559596281e-01
    2.7827964810614487e+00 -6.2211766462019269e-01
    2.4837099663495916e+00 -8.0692034869127993e-01
    2.3534512518433557e+00 -1.0353816181300250e+00
    2.3397077782698203e+00 -1.1574902896488888e+00
    2.4477332313049294e+00 -1.0275628613668781e+00
    2.7328258031692418e+00 -7.5815388539709749e-01
    3.3373362992014965e+00 -5.3288660298708934e-01
    4.5976527239913194e+00 -3.7579604217723311e-01
    6.9881705613046474e+00 -2.5072111228220295e-01
    1.0693717152386011e+01 -1.6225915828836288e-01
    1.4678761416386479e+01 -1.1109316956348028e-01
    1.9093573874561596e+01 -8.2183335359584719e-02
    2.6979066096494090e+01 -6.2896001242325209e-02
    4.3315592512308598e+01 -4.4915987583329264e-02
    8.3240822617048991e+01 -2.9203535442709299e-02
    1.8554733696318499e+02 -1.9471044119296028e-02
    4.0140381916021073e+02 -1.2653360453634112e-02
    8.7607074487417867e+03 -6.0156017206487522e-03
    5.7815264319365360e+02 -5.6351981379415845e-03
    2.1783244504832024e+02 -6.2580108327074738e-03
    1.6362339122841547e+02 -1.4559930650640202e-02
    7.2814211202327044e+01 -2.4936821384153113e-02
    4.0044254792171458e+01 -4.0955881142014219e-02
    2.4754327428797399e+01 -7.2862214424151264e-02
    1.4717755143673344e+01 -1.1653256528214501e-01
    9.3806173819608194e+00 -1.6926180771039961e-01
    6.5281663135653698e+00 -2.3675307049623837e-01
    4.7508304710879345e+00 -3.2948399316357840e-01
    3.5748472435640073e+00 -4.5328891385197778e-01
    2.8793472343976823e+00 -5.9168870411572283e-01
    2.5746079564539324e+00 -7.0865061200309842e-01
    2.5850593101637602e+00 -7.4500959553692003e-01
    2.9098102395349463e+00 -6.4708172901634564e-01
    3.7523109026950205e+00 -4.8045473505976488e-01
    5.4323392699978497e+00 -3.2669284850459346e-01
    8.6188804775073962e+00 -2.1154688819531081e-01
    1.4579812372437367e+01 -1.2947707100646438e-01
    2.3721236288996803e+01 -7.5473996822383593e-02
    3.3948648049215869e+01 -4.8706305370802151e-02
    4.7821251551208206e+01 -3.4687689358698905e-02
    6.4981745210271328e+01 -2.6919659860832480e-02
    1.3474830465939394e+02 -2.1069637554849932e-02
    1.6684308113801910e+02 -1.5360269050021406e-02
    2.8949815354309084e+02 -8.4342976008863289e-03
    9.2185740473502312e+02 -6.8731670037447462e-03
    1.2830166172793386e+03 -4.3002897632867043e-03 1. 0.
    2.4902646279310051e+02 -4.3002897632867035e-03
    2.7439489595005972e+02 -5.6785727026072491e-03
    1.3637148672100159e+02 -1.2343540834779997e-02
    9.1226857237654684e+01 -1.7652930345667367e-02
    6.2160861481935171e+01 -2.6465692869105894e-02
    4.0319225303182364e+01 -4.5722250447565185e-02
    2.2503028683641610e+01 -7.3841445336178382e-02
    1.3257523771251979e+01 -1.2108335140693732e-01
    8.0074372711522592e+00 -1.9875065961792482e-01
    5.1640960124703890e+00 -2.9803877904379611e-01
    3.8107483204408257e+00 -3.9154686073519795e-01
    3.3634260543978614e+00 -4.4825973588993040e-01
    3.6376877669523391e+00 -4.3331302214855327e-01
    4.8518013856486055e+00 -3.4516344789393300e-01
    7.4841818322191047e+00 -2.3160136282561614e-01
    1.2460328769992104e+01 -1.4172129847210818e-01
    2.1366146428409341e+01 -8.4549437114373557e-02
    3.8853190861716620e+01 -5.1065105023774239e-02
    5.9643671523671948e+01 -2.9686244548792332e-02
    9.3965723293696755e+01 -2.2309571084742540e-02
    1.6313392950818749e+02 -1.5308629022647664e-02
    1.8642250145388817e+02 -1.1529198479687808e-02
    3.4611934290870170e+02 -1.0262747938682914e-02
    8.3703810951773983e+02 -7.0336737056957803e-03
    1.2999134279275208e+03 -4.5572410485373973e-03
    2.4661982951747891e+03 -4.5549421043252387e-03 1. 0. 1. 0. 1. 0. 1.
    0. 1. 0. 1. 0. 2.2334765246727288e+03 -8.8829201751003325e-03
    2.1364585111707837e+02 -1.8625755653865268e-02
    6.0512528280646777e+01 -3.2823649737383970e-02
    2.8326631283132574e+01 -7.1712028794872082e-02
    1.3601853660212946e+01 -1.3178978591072005e-01
    7.7652848615950969e+00 -1.9972247251969308e-01
    5.6107993264226668e+00 -2.5568081514485413e-01
    5.2730835530355193e+00 -2.7597489972694084e-01
    6.4952460423473779e+00 -2.4133816151286541e-01
    1.0554883363755122e+01 -1.7068940567179805e-01
    1.9291954350661328e+01 -9.9047886299389334e-02
    3.6118377041681512e+01 -5.3942122078265368e-02
    6.8651054991122749e+01 -2.7406852572617296e-02
    1.1155482008047646e+02 -1.6297830280850752e-02
    2.0196087173867178e+02 -1.0443403896835341e-02
    5.1101737994007982e+02 -6.4388411884854866e-03
    1.1575315167565695e+03 -7.1508214714075631e-03
    5.7184830923764684e+02 -8.7643049067046026e-03
    4.7233165974850351e+02 -6.6450158911785908e-03
    7.1744796018898660e+02 -5.5100967949052960e-03
    9.0688121739456756e+02 -5.0618825378557974e-03
    3.4274725061369390e+03 -4.6992288223498494e-03 1. 0. 1. 0. 1. 0. 1.
    0. 1. 0. 1. 0. 4.3422921887050443e+03 -4.3002897632867043e-03
    3.3773714139634615e+02 -7.4731525543707683e-03
    1.3200993501750531e+02 -1.4604404425159303e-02
    7.1199273423071332e+01 -3.3928494303533473e-02
    3.2102351758389347e+01 -5.7921296500612368e-02
    1.9579031260972084e+01 -7.8350898676241038e-02
    1.7153340756898373e+01 -8.6911951466793730e-02
    2.0366816650388412e+01 -7.6917091902681034e-02
    3.1285428322581549e+01 -5.6158362643863216e-02
    6.4668589890797321e+01 -3.5782338224504974e-02
    1.0874951864726809e+02 -1.7363465722970726e-02
    3.1620531785957456e+02 -1.0403350112768101e-02
    1.4695847184750558e+03 -4.8290299104314233e-03
    1.0720800309011015e+03 -4.3002897632867043e-03
    3.2282778213613733e+02 -4.3002897632867043e-03
    4.2738324832114058e+03 -4.3002897632867043e-03
    4.7439538178441976e+05 -4.3002897632867043e-03 1. 0. 1. 0. 1. 0. 1.
    0. 1. 0.</input_scale>
  <output_scale>
    5.2631578947368418e-01 4.9999999999999994e-01 5.2631578947368418e-01
    4.9999999999999994e-01 5.2631578947368418e-01 4.9999999999999994e-01
    5.2631578947368418e-01 4.9999999999999994e-01 5.2631578947368418e-01
    4.9999999999999994e-01 5.2631578947368418e-01 4.9999999999999994e-01
    5.2631578947368418e-01 4.9999999999999994e-01 5.2631578947368418e-01
    4.9999999999999994e-01 5.2631578947368418e-01 4.9999999999999994e-01</output_scale>
  <inv_output_scale>
    1.8999999999999999e+00 -9.4999999999999996e-01
    1.8999999999999999e+00 -9.4999999999999996e-01
    1.8999999999999999e+00 -9.4999999999999996e-01
    1.8999999999999999e+00 -9.4999999999999996e-01
    1.8999999999999999e+00 -9.4999999999999996e-01
    1.8999999999999999e+00 -9.4999999999999996e-01
    1.8999999999999999e+00 -9.4999999999999996e-01
    1.8999999999999999e+00 -9.4999999999999996e-01
    1.8999999999999999e+00 -9.4999999999999996e-01</inv_output_scale>
  <weights>
    <_>
      -2.4205505044311306e-03 1.4350020023881954e-03
      6.4644512343053386e-04 4.8633238430626955e-04
      3.7031664159510754e-04 -1.6347347408353825e-03
      -1.2924630049669246e-03 1.7709373011530339e-03
      7.3201703133273985e-04 8.4176117600069699e-04
      -2.2103004689572893e-03 2.5701767177842448e-03
      -4.6055566270852285e-04 -1.2959532608692174e-03
      1.2146696274049592e-03 1.3501453984548978e-03
      1.2006486140541952e-03 -7.9047858364686484e-04
      5.2702745043081700e-04 1.4969797402949717e-03
      1.8790840525207588e-03 -8.0425485038962896e-05
      -2.1396785201270195e-03 3.8027502702400604e-04
      5.4070604485474824e-04 1.9483366631563347e-03
      -1.1016644708152256e-03 1.9584281285844650e-03
      1.8217483075673349e-03 3.5326222553837576e-04
      -2.4665188888353635e-04 -1.5093692338370161e-03
      2.4117844440002967e-03 -1.0806241320293882e-03
      -5.1099068755931939e-04 1.1185571773340256e-03
      2.2493344026269821e-03 -5.7268389394363574e-04
      1.0421095318872201e-03 -4.2355703764858566e-04
      -6.8650041093578490e-04 -5.9625754962180889e-04
      -2.3240753129875041e-03 2.4844909353482392e-03
      -4.5812788503573639e-04 -1.3234199368159457e-03
      -1.3117890958410138e-03 -1.2971892833947409e-03
      1.9286432407072259e-03 2.4776955337968321e-03
      4.4171985651576075e-04 -6.4402036669152440e-04
      -1.9063480179137810e-04 -6.2389818836504937e-05
      -1.3084339282737141e-03 1.2973360679489304e-03
      2.4794315242453327e-03 -1.6896887634146917e-04
      2.3502187914656945e-03 -1.0219549636833831e-03
      1.7979035016160393e-03 -2.3143435270049804e-03
      -6.7635147751573383e-04 1.7444478761288152e-03
      4.0994780195165913e-04 -1.1371349919335483e-03
      -2.1511456119164040e-03 2.5932848588354198e-03
      -1.2192245718567042e-03 6.2259539968795351e-04
      -2.4739335763265301e-03 -5.5506389869876402e-04
      9.3319818898351112e-04 2.1824289240875705e-03
      -2.4770198212941850e-03 1.8768121412062618e-03
      -1.7568050742993696e-03 1.5740954205610831e-03
      7.9169482570736721e-05 -1.6393361948915856e-03
      5.1696284291902759e-04 -1.1462587045603955e-03
      1.3271121066285687e-03 2.0349253709197814e-03
      -2.0789439996259971e-04 -2.6278472881858567e-03
      -6.2137547830144280e-04 -5.6314481290179158e-04
      -5.8884356465172384e-04 1.1347947913265721e-03
      1.8158400495619021e-03 1.2053427000363397e-03
      -3.3871773124435558e-04 1.5782343508407672e-03
      2.3643370250245712e-03 1.4576160908754509e-03
      1.2876331728093708e-03 -2.2223573664666742e-03
      -1.2420822153991372e-03 1.1362399353808165e-03
      1.7100964781361510e-03 -5.0338429278175907e-04
      -3.0546605958209138e-04 4.3034523465551626e-04
      -6.4746045629228421e-04 -1.6978176696383109e-03
      -8.7716089684717268e-04 1.3099967938766299e-03
      2.5309688048468135e-03 2.2139388332729913e-03
      1.2271952495767199e-03 -1.3760202161781077e-03
      2.2781054343213652e-03 1.1187243823972766e-03
      -5.9168778960385607e-04 9.0443563466739970e-05
      1.1737100848109752e-03 1.6946094836335348e-03
      1.4360221092004171e-03 1.5096901934200362e-03
      1.2055304274241829e-03 -2.3970962661184411e-03
      1.1189925039224962e-05 2.4339091520092721e-03
      6.8246957020225065e-04 -1.9466637872566574e-03
      1.9128338834277757e-03 1.1872493140987470e-03
      -1.6671804626521374e-03 -9.2280886061430151e-04
      -9.0378716211687784e-04 1.5028303414525847e-05
      1.5830882291244469e-03 -2.0735257460117373e-03
      -1.3935019467597616e-03 4.7332415432493305e-04
      2.0341573810042654e-03 1.5534700032835617e-04
      1.6897684656261920e-04 2.0980553297524130e-03
      -1.2725018011645519e-03 1.5074175020667179e-03
      -1.1927308437742850e-03 6.3270803180099072e-04
      1.2009875370347725e-03 -1.4028178347273699e-03
      -1.8407066614731700e-03 9.7811846455308940e-04
      -2.5555596028841446e-04 1.1701808567341359e-03
      7.0336764253263877e-06 -1.0000431699142614e-03
      -2.2141343502134940e-03 -1.6687057698110078e-03
      1.1007261996600771e-03 -1.6939208097205450e-03
      3.5574447253273496e-04 -2.6434521257609127e-03
      7.4932379401512360e-04 -1.0962931057807044e-03
      -1.2804791524286005e-03 6.7518982672510366e-05
      2.2473935682637883e-03 2.5395760880831206e-03
      2.0356583424529263e-03 -1.6138746992204096e-03
      -1.3125068490776859e-03 -2.4967956905256933e-04
      9.9626523151477467e-04 -2.2087560357629665e-03
      -1.1333992639877570e-03 -2.4273224828371152e-04
      7.7630524580477305e-04 -1.1719426692489087e-03
      -2.1526167959436096e-03 6.9756280721370938e-04
      -1.7932330600998283e-03 2.2032823546913132e-03
      1.6967791950376206e-03 -4.6670675607554966e-04
      1.9657832172314212e-03 4.7572160320977859e-04
      2.4196172310331802e-05 -1.8023716354937927e-03
      -5.5313062079023116e-04 -7.7810070075995657e-04
      7.8924255296625189e-04 -1.8539894772010110e-03
      5.8732082178827036e-04 -1.4364542198512952e-05
      -3.7005197919411911e-04 -1.3051920236366695e-04
      5.1243703799553502e-04 -4.5621173344591185e-04
      -2.0872351248095214e-03 1.5649932360349626e-03
      3.6981424496011366e-04 7.2743027414240555e-04
      2.5460278507528199e-03 2.5365933194760764e-03
      2.5158350421405724e-03 -2.3615546120955722e-03
      -1.2583764613015537e-03 -1.6633140146560046e-03
      -1.8493254841341802e-03 1.9246471609057961e-03
      -1.5308133917483928e-03 8.5661101783838774e-04
      1.1633602907073620e-03 1.1636892052986831e-03
      2.3952945647002172e-03 -2.2650504756487467e-03
      2.5287807167435040e-03 -1.3288081774388873e-03
      -7.6078269073251144e-04 -2.3974205932407581e-03
      -6.1567097556772905e-04 -2.4550451659969101e-03
      -2.0194665297914079e-03 -4.5393484599494074e-04
      2.0670526686705610e-03 -1.4286995200401475e-03
      1.5193755833401176e-03 1.6001437509212948e-03
      6.6061854525575404e-04 7.5144454020521138e-04
      -1.5832582881968548e-03 -8.5068829274626879e-04
      2.3305822256111386e-03 -1.2878606820544622e-03
      4.1478542558612589e-04 -1.2017254463562359e-03
      -4.4069246579095638e-04 -1.5635863704909340e-03
      -2.0983871093812170e-05 1.0026498544624348e-03
      1.1317690796402345e-04 -5.1452835386936024e-04
      2.1118045128503617e-03 1.0621802801247557e-03
      -2.4637757559718390e-03 -1.7327611006138013e-03
      -3.2378306990859938e-04 1.6180144935055938e-04
      -1.2961637534946498e-03 -1.5411780484630919e-03
      -2.1537375971565132e-03 1.2317466357031616e-04
      1.5599706515948475e-03 1.1229033724529732e-03
      1.5818133332635399e-03 -1.9540008608226636e-03
      -2.2558202760087150e-03 1.9116751418444991e-03
      8.3133094378275629e-04 -2.2891370683491056e-03
      2.4031849968570462e-03 -1.3613195690988339e-04
      2.4622165196933540e-03 2.2469265872351483e-03
      2.4494425977865169e-03 -2.9295322001577306e-04
      1.6263391547587558e-03 -1.6648528357311662e-03
      1.8727763036764215e-03 1.8520790954860086e-03
      6.4534836527017534e-04 -1.7195487636912942e-03
      -4.6828258247767459e-04 -6.0614827423209833e-04
      4.4961056154226053e-04 -2.0485627850883813e-03
      2.2165655611570000e-03 -1.6492413479823576e-03
      1.4803770786422232e-04 -3.0716332438940645e-04
      1.2275297819493301e-03 -7.9261346353845356e-04
      -8.7650038045191661e-04 1.7467783934365863e-03
      2.1873663002375428e-03 1.7071729699708561e-03
      1.9790759716433563e-05 -1.6041026222094910e-03
      1.5395465515133505e-03 -2.2511662081614524e-05
      1.5536478704625903e-03 1.4058071744813795e-03
      1.2250369605975531e-04 5.7198692410962270e-05
      -2.0377801436181173e-03 -4.7540037857234395e-04
      2.5022676434635475e-03 3.3698534705258685e-04
      -4.5652052671102329e-04 -6.4871204061360674e-04
      -1.4368690111675427e-03 -1.8460580862454084e-03
      1.6788573759091647e-03 -2.3169259312089808e-05
      1.0241894484573474e-03 -5.2059452859064444e-04
      1.9369844312283346e-03 1.3613665550706595e-03
      -1.4609165515413313e-03 1.6353555721958823e-03
      -1.7484303080780345e-03 -9.8769956475628002e-04
      1.9895852174061689e-03 1.3500322622759259e-03
      -4.2483851452518773e-04 1.1806367047931671e-03
      -2.1505342640950440e-03 -1.4969507753817850e-03
      -1.0560767198640789e-03 -9.2839625224441541e-04
      -5.2891810164221848e-04 3.8078254351640633e-04
      -1.8593186183068571e-03 1.4254308029464551e-03
      -2.2164555538606943e-03 5.4420167816968225e-05
      -1.8052510358768502e-03 1.9240928100986337e-03
      -2.1490698847570181e-03 -2.4642684111729599e-04
      -8.7907366447753643e-04 4.6436471972906442e-04
      -1.1994013800273768e-06 -2.1401963432074326e-03
      -6.8970606255694563e-04 3.8017699352059709e-04
      -2.0592862362326545e-03 -2.5428084608797009e-03
      1.4869682197062102e-03 -1.3405091543033452e-03
      1.6968982477163824e-03 1.7704015934604858e-03
      6.4125698621222971e-04 -1.9799294755912370e-03
      -2.4456948771803062e-03 4.5459415416279625e-04
      1.2540231720655629e-03 -9.8573991260705852e-04
      -5.0831974461482338e-04 1.4804685750113480e-03
      1.4618755857651791e-03 5.2373276336358714e-04
      1.0008846415550832e-03 1.0255819283968911e-03
      5.8217573122884699e-04 -1.4314002514243861e-03
      2.4823145945763680e-03 1.3654473545955429e-03
      2.1318104993299112e-03 -2.0792807229852582e-03
      1.4158614666938980e-03 -1.4027274169071838e-03
      -2.2045368648913638e-03 1.4152284822082494e-03
      2.0776017304350481e-03 1.8025744156330470e-03
      9.9866222355474610e-04 -2.3696410317319218e-03
      -2.2997048297506593e-03 -4.1220031205319632e-04
      1.3155909968711251e-03 -1.8512591218222370e-03
      7.2309700106338855e-04 -6.7249481941697139e-04
      -9.3880677162632526e-04 5.4085995938004511e-06
      -1.2568627966251663e-03 2.3540797354095421e-03
      1.9258483297359360e-04 2.0414061453407719e-03
      -5.5441016609146411e-05 1.6725815764287602e-03
      -1.5141144667079403e-03 -8.0722320790434969e-04
      4.8796252411046546e-04 1.2086175359074178e-03
      1.2514949110977113e-03 3.7731660468528301e-04
      -2.4826689300271616e-03 1.2886341754009213e-03
      -5.3360375401134501e-04 -1.5712886999594831e-04
      1.1766592042732685e-04 6.8167344273453484e-04
      1.3105015618259488e-03 2.4140224040915858e-03
      2.0326166271387794e-03 3.8221501712223244e-04
      1.8753598136256482e-03 1.5706139240755106e-03
      1.4080165751850481e-04 5.4730393808934119e-04
      1.1817469450253414e-03 -7.6467872788588717e-04
      -1.6444973995184962e-03 -4.3799719571041755e-05
      -1.9234802182087976e-03 1.9955441270866278e-03
      7.8379081026646918e-04 -6.4226866380196466e-04
      -2.2320138745057973e-03 1.1573243959949113e-03
      -1.6460949203925604e-03 -2.0755162909711173e-03
      -1.2109553474629624e-03 -9.6223127535712103e-04
      -2.4556823726113244e-03 -2.0884822605287236e-03
      8.3647399913376011e-04 -1.1715070707087234e-03
      2.4278281631352622e-04 1.1581771796937818e-03
      -4.0330837013380296e-04 1.5824098313722316e-03
      -1.7101300713433915e-03 9.8356730709377085e-04
      1.6734374921022789e-03 -2.1473635452652425e-03
      -1.1191184655680651e-03 -2.3292075670681387e-04
      -3.0185425824921211e-04 -2.4501754057127340e-03
      1.5519678781633105e-03 1.7895093487173177e-03
      2.2824508221209179e-03 -6.9918115323958703e-04
      2.0545364196580111e-03 -2.3435375089882133e-03
      -1.8624521674573851e-03 -7.1530963808762377e-04
      1.1792094761575835e-03 1.1042226654290843e-04
      -2.2926958353979734e-03 1.0962807321928641e-03
      1.6831733648141063e-03 1.6013711343898489e-03
      -1.9381831863357066e-03 -2.3382058752455916e-03
      -3.0810437302436147e-04 -1.8981676633092390e-03
      -2.3042132699242283e-04 -2.0610169473894739e-03
      2.5842750669696794e-03 1.4309275739700636e-03
      1.5143113665246092e-03 9.0615531771475757e-04
      -1.3587519638244719e-03 2.4651313105914078e-03
      1.5240451687102117e-03 -2.4282771561775010e-03
      1.6318612250107445e-03 3.3842549473152072e-04
      3.0722036925785284e-04 -7.3227304338553559e-04
      2.0044199844071438e-03 -2.0345171809719943e-03
      2.3343011015022606e-03 1.1342255738478880e-03
      4.9593631029242922e-04 8.5410644862180007e-04
      -1.6293632787721685e-03 -1.3219935808418687e-04
      -5.1521000701130115e-04 -1.9641604846128214e-04
      1.4276188815836748e-03 2.3182068196054752e-03
      -2.0848562959408495e-03 -1.1070846748979814e-03
      1.7618235901167869e-03 -2.5618360897068618e-03
      2.2319216860293978e-03 -1.4248873289222749e-03
      2.5075396377822925e-04 1.0416372922339577e-03
      1.9480833401877196e-03 4.9223404527388710e-04
      -2.5238726703305072e-03 -1.3079980521101626e-03
      -2.4689822304553876e-03 2.2754617926418891e-03
      -1.0526081234787173e-03 -3.6487051617187715e-04
      7.4661993505201955e-04 8.8176955885737565e-05
      1.4204778018725263e-04 2.2194126952998438e-03
      -1.1465519056710516e-03 3.3471743796456343e-04
      -1.3690072539198063e-04 -1.5037947783071259e-03
      -1.2131881101341631e-03 -6.5869390660468262e-04
      2.5136147601643034e-03 6.3911516776470122e-04
      -6.0170081568829549e-04 -1.5975527086024247e-03
      -1.5081125850617896e-03 -1.2483711438428058e-03
      1.6958192197941697e-03 -1.6874047182942665e-03
      2.0406328032924535e-03 5.4109352823225913e-04
      2.3572418043326508e-03 -6.6461234673784175e-04
      -2.2344712809501104e-03 1.7370420343524328e-03
      -2.4953692649923817e-03 -2.1902626961608791e-03
      -1.9654842893343217e-03 1.1293036224160132e-03
      -8.5480809002626572e-04 7.9639741538591817e-04
      -1.9809337215259256e-03 -2.4630292053501096e-03
      1.2599241735902565e-03 8.3371238203419936e-06
      2.1592955624610472e-03 2.1999471951598660e-03
      1.1908400715213755e-03 -1.1157910434807460e-03
      -2.4904038560582875e-04 1.9828792170721488e-03
      -1.3476219811589117e-03 1.6144009070914120e-03
      4.8018778456202432e-04 2.3727915737910585e-03
      -2.1034541822378084e-03 -2.1415394661600902e-03
      -2.0942570282149673e-04 -1.2922274163676011e-04
      -9.7633837759629482e-04 1.0675545593480118e-03
      2.4247779846677266e-03 1.6104579019445920e-03
      1.0372634287889719e-03 -1.3263478651929445e-03
      4.8783615052579307e-04 -2.3871620269005785e-03
      2.1658669210854781e-03 4.0543591949549873e-04
      -1.4967398316167893e-03 9.9766840101011352e-04
      9.5842339174919401e-05 -1.4131016345175651e-04
      -1.8496277487055810e-03 -3.8688260955722497e-04
      -7.2722988927389869e-04 5.3577705431732210e-04
      6.4167778067824753e-04 1.3213568390607301e-03
      -2.8343058822535193e-04 -2.2457459230124043e-03
      1.0844417227544923e-03 9.4519626124856611e-04
      -1.3476482375602335e-03 1.3548378242118010e-03
      -1.7252890213117569e-03 -9.4683011213765925e-04
      1.6393767554926939e-03 -1.6294771394427603e-03
      2.5219725353717230e-03 1.6091874831158180e-03
      1.7540571965168929e-03 -1.3138946119233877e-03
      -1.3818338026690637e-03 1.2919432192977096e-03
      5.2065326746362215e-04 -1.4259099601866515e-03
      1.4388457219316941e-03 2.1229797614214863e-03
      2.3265137146770715e-03 -9.4943249687301544e-04
      -2.2401223218766913e-03 -1.0299216535163650e-03
      -2.3407606355034072e-03 -1.5261092614926182e-03
      -2.3265652824038833e-03 4.7096330133939405e-04
      -2.2141228230922556e-03 -1.0368395841838908e-03
      -2.3902130000099330e-03 -6.7511542148368335e-04
      -1.2864807580300723e-03 -7.2476447770544576e-04
      -2.1492792608209695e-03 -1.8627811264475247e-04
      -2.3201687831470703e-03 1.1290287380168712e-03
      -1.8669768818578415e-03 2.2362722195235735e-03
      8.0332181871714059e-04 -2.6364440904096234e-04
      -1.0969783726154777e-03 -1.2612401614405214e-03
      -2.3146101162683252e-03 1.8099731669868398e-03
      2.3059498799041142e-04 -1.4460718159596216e-03
      -4.4575466122235706e-04 -9.1976276145972413e-04
      -3.3430557980620768e-04 1.3008530129872023e-03
      -6.2276622778126517e-04 9.5453722034921510e-04
      -2.1125038787852216e-03 -2.0708700987723499e-03
      1.3896253439127217e-03 -1.6220540185531104e-03
      -6.1094991801359757e-05 -2.4033101651940400e-03
      2.0200620487014565e-03 1.3401661262286558e-03
      1.7378402962274001e-03 1.2622001108558072e-03
      2.1219500594079161e-03 6.8735298374746794e-04
      -9.4233822913175277e-04 -1.5570917301707494e-03
      9.4202241748686814e-04 -8.2246624124944297e-05
      -2.0779578190614528e-03 -2.3425124091877416e-03
      2.4800072015925679e-03 -3.7517521843828574e-04
      1.5333096958438271e-03 -2.0463205170469185e-04
      -9.6729401694072340e-04 1.0278042168776680e-03
      -2.1471447447724110e-03 2.2219113751527934e-03
      -7.6046705465305554e-04 -1.4477190878338095e-03
      2.2969418109218096e-03 -1.0498357161568637e-03
      -5.1763748840552293e-03 -1.6580061874090408e-02
      -2.8922788551511208e-03 -8.3971230041749948e-03
      -1.8022881913862334e-03 -1.7369815821606034e-03
      -5.9597889054733002e-03 1.8155378029762841e-02
      8.4629944481142989e-03 6.1823530440907326e-03
      1.0695073101348086e-02 -3.4968920283357037e-03
      1.6849975480315966e-03 4.3791371672461665e-03
      1.0592830130970665e-03 7.7382350417245765e-03
      1.7018932787257700e-04 -6.8443276591130427e-03
      3.9865193240146875e-03 1.3413291404172233e-02
      1.5952806061682358e-03 1.6857707870050882e-02
      3.1598015284146795e-03 1.1712144691531454e-03
      8.8662103974843452e-03 8.6976241692610903e-04
      -9.9177516569053555e-03 9.8998197343202338e-03
      -3.2761361758676676e-04 -6.2744000597534499e-03
      -3.5350989508102417e-03 -4.9537249851615691e-03
      1.2936048008732411e-02 1.1435669267153011e-02
      -1.3168302747166525e-02 4.7220118138156840e-03
      1.4782792709529107e-02 1.1742345275631489e-02
      -2.1072417593294639e-02 -2.5256154268197789e-03
      -1.8946772611992957e-02 -5.1991406827306495e-03
      -7.5736382554660838e-03 -8.7571267901602121e-03
      5.1540798725258396e-03 -2.5328884184168793e-03
      4.3490218396131496e-03 -7.8829785627638448e-03
      3.4415192146893029e-03 1.1244887478398257e-02
      9.5629919243378405e-03 6.8507148399204261e-04
      -2.9253447098160192e-03 -8.3736516745677222e-03
      4.9282194539709678e-03 -4.4110693294107028e-03
      5.2892195408456022e-03 -9.4160440493955399e-03
      7.8087155594093469e-03 3.5778140204195284e-03
      -1.2631934271199678e-02 -4.4016030013422002e-03
      -5.4766513051699509e-03 -5.5182894791723129e-03
      4.0851739504994993e-05 -6.1087011760512441e-03
      -1.1809311194745637e-02 8.8564834045165818e-03
      1.4380465867631410e-02 -1.9889965418767885e-03
      2.0478998439696999e-02 -5.0037298094878164e-03
      -1.2191741112215491e-03 8.8157937934112158e-03
      -1.2218059578404737e-03 -1.8069133418656437e-02
      2.1291987131387457e-03 -1.7083975108757835e-03
      -5.1590625914966545e-03 -9.7713247756694397e-05
      -1.8063562231770568e-03 -1.4255366877236724e-02
      -4.3678146551960140e-03 -9.2025099687938084e-03
      -4.8786962417411760e-04 -3.2261298508783011e-04
      -3.7457303097498860e-03 1.7634095585541115e-02
      8.1484065988492050e-03 5.0712063909951980e-03
      1.2411725512206359e-02 -4.4400457468694527e-03
      3.7575218681246869e-03 5.6630603263363131e-03
      2.3126220233707362e-03 6.2927190106722725e-03
      2.4464340650685599e-03 -6.7931325353609434e-03
      6.2170291638421402e-03 1.4606562442735985e-02
      4.9137420187988553e-03 1.5975315906185738e-02
      3.0117273712853467e-03 1.5137187498908667e-03
      7.9996036073186044e-03 5.4598855661584823e-03
      -7.9195268324141442e-03 8.4199178117843054e-03
      1.0151010306021157e-03 -9.2482468423490082e-03
      -4.7312739519437203e-03 -3.4139810414034293e-03
      1.1487351856822819e-02 1.4236248425089689e-02
      -1.3635200226278921e-02 5.2501066467653618e-03
      1.7491617083832848e-02 8.4928927786471851e-03
      -1.7659947304843215e-02 1.0191618900286541e-03
      -1.9406112215091996e-02 -1.7384235676593744e-03
      -5.7828260421458931e-03 -1.1168367678723787e-02
      6.1059301458393023e-03 -2.0105653229224867e-03
      5.2379190404460412e-03 -9.8276522342390215e-03
      4.2217175718391340e-03 7.8900186673861589e-03
      1.0712277533361207e-02 4.7366026376935715e-04
      -5.3790261880772858e-03 -9.3550902938744056e-03
      5.2291198613928086e-03 -5.4876918068129464e-04
      5.0868011287424110e-03 -1.2643635666522249e-02
      9.5481194311620547e-03 7.1310133020624725e-03
      -1.1695642925122356e-02 -6.6814461172922035e-03
      -5.2705985310510760e-03 -7.2911990404123965e-03
      -3.8861063359043346e-03 -5.3654625531070962e-03
      -1.0673797057283668e-02 9.2902234647646732e-03
      1.1765373924285404e-02 -3.3088542347009683e-03
      2.2330166064454010e-02 -2.4836449836099202e-03
      -1.8311443753067688e-03 8.9522900140732251e-03
      -1.4174800183001798e-03 -1.9547774338297810e-02
      2.3246615281906627e-03 -4.3500479791482652e-03
      -2.6803858044930811e-03 -3.5854914153404535e-03
      -1.6500954420155566e-03 -1.3874746660550051e-02
      -2.6287151197947056e-03 -8.4408542647091914e-03
      -2.0978753980324806e-03 -3.6474269722307005e-03
      -6.5772460060967283e-03 1.4903392828939186e-02
      7.8930226024180802e-03 4.7052822870734048e-03
      8.5782544987206624e-03 -1.1922693551979920e-03
      4.7480989148804527e-03 1.3810187565101789e-03
      1.2552349329575320e-05 8.2570750644643722e-03
      1.3575821462884123e-03 -5.4380485909375099e-03
      3.9287651361247875e-03 1.0720550971940317e-02
      3.7438034719686057e-03 1.3283316050097331e-02
      5.4235909260634896e-03 -9.4555185904278004e-04
      7.8148639813718449e-03 3.1894751933979558e-03
      -1.1827645719976326e-02 1.0667421069061621e-02
      7.5113515400190617e-04 -6.0023914690330374e-03
      -2.5019158154158672e-03 -6.7729730922794400e-03
      1.0424031012941056e-02 1.3332976679694637e-02
      -1.3354373120949390e-02 7.3732769774310257e-03
      1.2850134804665831e-02 9.2703118730745309e-03
      -2.1175490469632817e-02 -1.8320551928191096e-03
      -2.1144869854152704e-02 -4.1387559532172109e-03
      -5.2317237617175152e-03 -1.1123276456620507e-02
      5.1716615667009866e-03 -1.0093490195586096e-03
      8.2440509853143763e-03 -9.6533058457292497e-03
      5.6136455507316127e-03 8.5420808425189579e-03
      9.1812251138969295e-03 -1.4385754817824055e-03
      -6.8271313690017451e-03 -7.3106571209063118e-03
      5.3229236922497439e-03 -2.4098424597396259e-03
      3.8458365376726872e-03 -1.3765432449228480e-02
      5.6061401507116514e-03 6.9693158445445422e-03
      -1.1256848772819419e-02 -5.3688883887384386e-03
      -5.6299012451765454e-03 -6.6391799490769813e-03
      -1.6884093800206904e-03 -4.9946483704787943e-03
      -1.0422623138747813e-02 1.3300317383498694e-02
      1.3310733571119112e-02 -1.4487208968112948e-03
      2.0167971433682756e-02 -7.7539601120601520e-04
      -9.9010656775520953e-04 9.1913700619690956e-03
      -2.8703365326833465e-03 -1.7482026962230987e-02
      3.6447775067377248e-03 -1.5416506301177365e-03
      -6.4117969004385839e-03 -2.4146093734805779e-03
      -3.3737361304616810e-03 -1.5694894346446220e-02
      -5.2790813906330733e-03 -7.9934301508395467e-03
      -2.4482448745496862e-03 -3.2704957334972668e-03
      -7.1610384815402736e-03 1.9392733777670829e-02
      8.0511555447711804e-03 4.0014566942395691e-03
      1.0815511576354957e-02 -4.0936383836493685e-03
      3.6505270335010207e-03 3.7766887651183934e-03
      1.9744234674226105e-03 8.0017361897219263e-03
      1.3487091571258956e-03 -4.1497939937567355e-03
      5.0083963135026787e-03 1.4778917688916563e-02
      4.9150905746690801e-03 1.6946392863119674e-02
      6.2184051525289450e-03 6.0625357874761207e-04
      8.5835986068840044e-03 1.2418214096538540e-03
      -1.2188656222320307e-02 9.3595659433947237e-03
      1.6922738723877879e-03 -7.7556963871948416e-03
      -3.6127854183325859e-03 -7.6699872572649772e-03
      1.4152038755330975e-02 1.5200456978999365e-02
      -1.3784603181042779e-02 8.2620011278708994e-03
      1.2813101691422883e-02 8.2324537306075560e-03
      -2.1836166204570538e-02 4.2209044434192542e-04
      -1.8552535020522037e-02 -5.4425354457884965e-03
      -7.5604733863623473e-03 -9.8432298721348906e-03
      5.5372629000001476e-03 -2.6951703311259875e-03
      7.0505072560899697e-03 -7.3593229988928891e-03
      2.1636037765940031e-03 8.0217044859128700e-03
      8.4839712433026522e-03 -2.8261323174957171e-03
      -5.0956423679792999e-03 -5.1480983292638846e-03
      3.8390278648280300e-03 1.6456797210099696e-04
      4.3323754733564784e-03 -9.4997909180006192e-03
      7.2567853145765375e-03 4.9045345388047581e-03
      -9.7396152413580760e-03 -6.7983872465859551e-03
      -9.4227518299071552e-03 -6.4070610390977627e-03
      -1.8748294559241957e-03 -8.2034716281217130e-03
      -1.3548139498462576e-02 9.3726056567452459e-03
      1.0369946638058080e-02 -3.0409256121480461e-03
      2.2615620202608953e-02 -5.7570349723213747e-03
      -4.2683126167971531e-03 1.2037575186678912e-02
      -2.2510476957603165e-03 -1.7804902224212105e-02
      3.0407299632479309e-03 -5.9816859282764197e-03
      -2.0715937905002647e-03 -9.7425232185651778e-05
      -5.4249742899096683e-03 -1.7500545105020724e-02
      -5.0753106660191430e-03 -7.9165502426960192e-03
      -3.3103875474027916e-03 -4.8337238612251399e-04
      -6.1833571690478378e-03 1.9089435671831387e-02
      8.0412941832773231e-03 4.1322022998622754e-03
      1.0206018693611152e-02 -1.8390887839620387e-03
      1.2723916952475810e-03 4.5416519156967778e-03
      -6.8064603819760331e-04 7.0541002801488301e-03
      3.6829282020599055e-03 -6.8591107517948467e-03
      6.8741475352036008e-03 1.0696752040486529e-02
      4.4595296409240762e-03 1.5378010129435462e-02
      2.8645346907774354e-03 -5.2544645677542624e-04
      7.9138312483787044e-03 2.4654597612987863e-03
      -1.0006238648660369e-02 1.0810355783054185e-02
      2.2578257366000958e-03 -9.4369525108782618e-03
      -3.7632709076552227e-03 -7.2109945970928171e-03
      1.2247130129944600e-02 1.1399495164017250e-02
      -1.5859521319551161e-02 5.2920337344365001e-03
      1.2580905375569012e-02 1.2872433409111159e-02
      -2.0688402872002208e-02 -6.3997768632095245e-05
      -2.0342653325356327e-02 -3.1771372738120685e-03
      -8.9960470782539347e-03 -6.4583174948146223e-03
      7.0080054250915456e-03 -4.5982488937875259e-03
      6.6266858372786477e-03 -8.0502911196067891e-03
      4.1943502045388237e-03 1.1464222994525035e-02
      1.0735261050572263e-02 -2.3938838916734710e-03
      -6.8846491424019935e-03 -5.7209043274478203e-03
      3.9705182368445242e-03 -1.5274679393344789e-03
      7.4603479894083582e-03 -1.4206659970625009e-02
      7.9616805566776853e-03 4.7419679518249519e-03
      -1.0377350567201762e-02 -5.8729963199313012e-03
      -7.1162307236231556e-03 -9.8065788635470323e-03
      -4.3872150054638150e-03 -6.8606408821682008e-03
      -1.4190845790247845e-02 1.0819898665257163e-02
      1.4937526982884027e-02 -3.7010807915517315e-03
      2.2020038717469617e-02 -4.0455575665872146e-03
      -4.2864891358190323e-03 1.0614613485722455e-02
      -4.2888992285719536e-03 -1.7936739841566261e-02
      4.7925459058727237e-03 -4.0015519790789844e-03
      -2.2499681982623100e-03 -2.1649971145025941e-03
      -1.5492224255761247e-03 7.0034821644546238e-05
      -1.7575905650533306e-03 -1.3955618207883971e-03
      -2.4158287006353246e-03 -7.9009891507265972e-04
      1.9498814435534122e-03 1.2985831644835941e-03
      -2.4054687335014536e-03 2.2165943474402885e-03
      -1.3891500894396833e-03 1.3559683925886815e-03
      2.2013518536320577e-03 6.8136429760556330e-04
      -1.9453834900359551e-03 -1.0029452343067310e-03
      1.5739434032808535e-03 9.8355587241065684e-04
      -2.4530239158810849e-03 1.4142496924258593e-03
      4.4995950376675633e-04 1.5119488817913816e-03
      1.8796627376977077e-03 -7.3005498003465873e-04
      -2.5024999038385401e-03 -2.1546005375885995e-03
      -2.4687751391457890e-03 3.5616133900987353e-04
      -2.2217747371730554e-03 1.2166542653693391e-03
      3.7741490189208154e-04 8.5239821507323871e-04
      6.4711441140972981e-04 1.7296317881910293e-03
      9.9722878016396204e-04 -2.0980282385428583e-03
      -1.4014923590925559e-03 -1.3228081734773720e-03
      -2.3904234598502391e-03 -7.7946217987251041e-04
      2.2492507578801809e-03 2.0254984733364699e-04
      -2.1313963182419066e-03 5.8170334627368294e-04
      1.6404408646428516e-03 -1.9961738170406586e-03
      1.3571737433746012e-03 -6.1201349338752410e-04
      -8.1854986522521755e-04 -2.2105857557767413e-03
      -6.1118141094320985e-06 1.2631967823625257e-03
      -1.2802938993910222e-03 1.2691726212838133e-03
      -1.1731724701800213e-03 -1.9832346160225615e-03
      2.2440095339683501e-04 9.3721607194999701e-04
      -2.3697930921043318e-03 -2.0143640049977100e-03
      -1.6986369003300322e-03 2.1219462612830685e-03
      2.3618078691620816e-05 -1.0284744522251581e-03
      1.9578612319568790e-03 1.3053238120600923e-03
      -3.5369165357449769e-04 1.4943696029870738e-03
      1.9133473504181369e-03 -2.1955749064601227e-03
      7.9875814610183408e-04 2.4222092717799521e-03
      1.5819893478806355e-03 1.9211308311015607e-03
      -1.7470035080553775e-03 -8.3704328387911248e-04
      9.6829215606503702e-04 -1.4603417062884969e-03
      1.3796850696801964e-03 1.6993747350359683e-03
      -1.1749883799833816e-03 1.4993361810594443e-03
      9.7099206616333854e-04 -1.0710635351859356e-03
      -2.0358621088286443e-03 -9.4480331400153856e-04
      2.3344826171336121e-03 1.1807833845530226e-03
      -8.7761454646586060e-04 -1.2353315909023369e-04
      -8.0335361543655049e-04 4.5577445643688806e-04
      2.2180949941159682e-04 3.5022105571153484e-04
      1.9848487674135316e-03 -1.8387883160875911e-03
      -6.0637534695833016e-04 -9.0884991866162310e-04
      -1.8665454937010582e-03 5.7358990389163255e-04
      8.0909703840014130e-04 6.5933070316745934e-04
      -5.1897363988729196e-04 -9.4741204381995972e-04
      -1.2571615710279726e-03 -1.2138882889970318e-03
      -1.5418926208197472e-03 -1.0699220340385810e-03
      6.7595297667280216e-04 -3.9672694253009664e-04
      -6.1454605186656291e-04 3.5734698442924383e-04
      -1.2101541301683162e-03 -1.4835130180289135e-03
      2.3534868929401616e-03 -1.6976856257526927e-03
      1.0094420995380344e-03 1.9505111304965944e-04
      -4.4332313332659462e-05 1.8961613325118541e-03
      8.3857292905201836e-04 -2.4789631788720030e-03
      6.0186576002711312e-04 1.9878961684323179e-03
      5.0933095074148706e-04 2.5644088533023174e-04
      1.5898499037294846e-03 -8.0228044353265629e-04
      -2.1993694694199652e-03 -1.8787978654591457e-03
      -8.8317091063857894e-04 2.0158390148842182e-03
      1.7670915153813762e-03 -7.6900301032427430e-04
      -1.3267950822485669e-03 9.4482941908308389e-04
      -1.1486195656518455e-03 -2.2219924700944342e-03
      1.4092482511211546e-03 9.9855044972850681e-06
      -1.0721747125446996e-03 1.6645866224783417e-03
      -4.9863841668352214e-04 -1.4214526821695443e-03
      1.3887358044228115e-04 2.0645733808680468e-03
      -9.1143878255075909e-04 2.1450319790548827e-03
      -2.2482512496480129e-03 -1.7123216312213210e-03
      -1.3849697400611205e-03 -2.0542317228234726e-03
      -9.4012230610324707e-04 1.5713923560570164e-03
      -6.3850265226090077e-04 2.0588417154236206e-03
      1.5551729695337550e-03 -1.2078321736394238e-03
      -8.0375728830253776e-04 -1.3155294732831739e-03
      -1.7916834807598819e-03 5.2287364535285197e-04
      1.2239853777674507e-03 1.4165862708390912e-03
      2.1109657794234830e-03 1.6031154890147040e-04
      1.2056593675951928e-03 -9.8148672187268245e-04
      1.3791357619237627e-03 1.1813014091378441e-04
      1.3141900564285320e-03 1.0782415456816034e-03
      1.8989086266387187e-03 -2.4801489856253818e-03
      1.9202140573381778e-03 1.0542311393290241e-03
      1.3204812731180261e-03 2.4558970140953133e-03
      -2.2546744688787105e-03 1.4765874787338032e-03
      1.8534027541395538e-04 -6.0238549128641898e-04
      2.5294915317457096e-03 -1.1113053973244174e-03
      -1.2283959765385958e-04 1.6589138856342620e-03
      9.4011605614009600e-04 7.1512608994766917e-04
      -6.2288209155210190e-04 -1.6996532758902670e-03
      1.5081394203849978e-03 2.4283736835870365e-03
      -1.5737557268805187e-03 -1.3762074889144659e-03
      1.3560371120027370e-03 1.1416508887659817e-03
      1.7265272460525668e-04 -2.2392941021406477e-04
      1.3723690838741989e-04 -1.7808758227519836e-03
      2.4598041566532549e-03 1.7401196464328068e-03
      -2.3256723550779232e-03 -2.1750313231381989e-03
      -1.0881428099870265e-03 -1.3967310638904348e-03
      4.0571252470324729e-04 1.2826882309743576e-03
      -1.0602744257067664e-03 1.0464663100125450e-03
      -1.1199069769714297e-03 2.3793012283257358e-03
      7.3759180067113834e-04 -1.6843812189099342e-04
      1.0831731441969955e-03 1.7032241006596542e-03
      -1.7263090454296204e-03 2.4813183435127744e-03
      -1.1254853082155322e-03 -2.3498480570524468e-03
      7.3987401152873094e-04 2.0419998893691210e-03
      -1.5788391330548350e-03 1.6309481302743962e-03
      -2.5200908214880217e-03 2.2517537958314402e-03
      3.7075210672343750e-04 5.9731394273300291e-04
      8.5561614888315105e-04 2.0753179710796361e-03
      1.2623804887674694e-03 -1.5702281997539526e-03
      4.1574958875883790e-05 -1.2556280270141643e-03
      1.8130599637885875e-03 -3.7486540024763207e-04
      2.5343246402589792e-03 1.6268795017639097e-04
      -2.0746054570007326e-03 1.5917963338245894e-04
      -7.3544647045132470e-03 -6.1956724709659825e-03
      -2.9555987669739204e-03 2.8409614869273430e-03
      -4.5597543453655687e-03 -1.2514604140013928e-02
      -7.8164088413513189e-03 -7.5092186137914281e-03
      -6.3456817647842808e-03 -3.6573548828369752e-03
      -3.7312926330369629e-03 1.0741049796222299e-02
      6.7675896361941274e-04 -1.0859002242553435e-02
      4.8502653251989306e-03 -9.6028552031100275e-03
      -1.8965896949154023e-03 -3.2896926501410962e-03
      5.9591808477525770e-03 -5.8328728695966727e-03
      -6.3047173836740949e-04 1.4335922908728281e-02
      4.9506005617443102e-03 1.3956663481126791e-03
      -5.4851239515932761e-03 4.8605662087884395e-04
      -5.6158152509320257e-03 -2.5935755181088634e-03
      5.9300155639968608e-03 7.0478426599536676e-03
      -9.7903256131677760e-03 -1.5805735151653271e-02
      1.0919573744970001e-02 6.5440954970983475e-03
      3.7711970100337755e-03 1.8881844705073204e-03
      9.8357189326584338e-04 6.5220025306966388e-04
      1.4738417701665426e-03 -2.5899960461848895e-03
      2.4993714628410058e-03 1.4772639588835469e-02
      -9.5209472288448303e-03 -6.1006288393708223e-03
      6.2193464867973088e-03 -1.9550653193515233e-02
      2.5404942488019423e-02 -1.0678302144438998e-02
      -1.1698003487424287e-03 -1.0736191233777845e-02
      1.3124578767781475e-02 2.2884719046955700e-03
      -3.7919999634502127e-03 -2.2566752387509660e-04
      1.1589251246031456e-02 -8.7050727874355242e-03
      8.9867454750929641e-03 -1.8811735188265189e-03
      -2.0762327995631127e-03 1.9738855893978316e-03
      3.4079985910813889e-03 -1.1236735842428866e-02
      1.5760118520023415e-03 -1.3626808272057801e-02
      4.0719727434639823e-03 -4.7426566818668551e-03
      5.2604364314484927e-03 -4.8520202822616874e-03
      5.7819966660897608e-03 -9.1665946079297570e-03
      -1.9273705881433180e-03 7.7523137652708235e-03
      1.2350522343622246e-02 9.4451980062789011e-03
      -8.1384041089495093e-03 2.7837605589060856e-03
      -8.4903439551989139e-03 -6.9104137824483993e-03
      -4.2707726750923179e-03 9.2756098858541613e-04
      -6.0048486885722896e-03 -3.1544743921705361e-03
      -2.6890874081527114e-03 3.1498815341463623e-03
      -5.2566971636172728e-03 -1.6723011778897196e-02
      -8.9655949304241148e-03 -3.5365230607327909e-03
      -8.3868178211420358e-03 -4.0426709250939146e-03
      -4.4555608959463379e-03 1.3166480144853368e-02
      7.2750329342630810e-04 -8.7529626879199532e-03
      3.4772285239595387e-03 -8.7477565688666853e-03
      -9.1171335866561997e-04 3.0947594323878225e-04
      5.0554441944088147e-03 -2.2971121047906436e-03
      -3.9165772316904776e-03 1.4438028699875781e-02
      4.0353349791424900e-03 1.2845535191376603e-03
      -2.8586071733635626e-03 -2.3845770312138449e-04
      -9.3099817231514729e-03 -5.9779520051656473e-03
      7.9805201010222978e-03 5.9819082201783237e-03
      -5.2538466783162065e-03 -1.1309977144587841e-02
      8.5945046958429729e-03 4.9356619590321602e-03
      3.2772510949355786e-03 2.0413106002143844e-03
      2.3540363296508287e-03 5.6658643922089282e-03
      1.4238308814009479e-03 -5.2503672820274792e-03
      3.8605196562818429e-03 1.3961606211877427e-02
      -8.0931837696113715e-03 -3.1580933198271143e-03
      5.6103724596782171e-03 -2.1766785013263554e-02
      2.3985221842621387e-02 -9.3696480780523488e-03
      -8.1321788710181668e-04 -1.1778524669268374e-02
      1.5475158080364116e-02 1.0498914238749515e-03
      -4.7421589069591040e-03 1.7056473227150680e-03
      1.5600571031309471e-02 -6.6315136195021175e-03
      9.7834874187002069e-03 -5.0213057288525957e-04
      -1.0515660957488235e-03 1.5839688240422705e-03
      3.0555907512998955e-03 -1.2724233009966930e-02
      3.7218368529547637e-03 -1.0052057362001370e-02
      2.1903464253043652e-03 -6.9760347297359001e-03
      4.4263662461412100e-03 -3.2819811584117705e-03
      7.1951150217000508e-03 -8.6872258967969473e-03
      -1.1309265158271639e-03 7.5929045666947425e-03
      9.7998836786053409e-03 8.2270940389498181e-03
      -5.5923520471141252e-03 -1.0461419784446029e-03
      -6.8026445632098339e-03 -6.3385293761184800e-03
      -1.3446230120812788e-03 -1.0841727948958922e-03
      -1.1418663523841770e-03 -2.1339647616595503e-04
      1.2701827318840997e-03 2.4734774443696617e-03
      -1.8911428880156952e-03 2.4099490304432180e-03
      3.2248439323025722e-04 1.6721258845070407e-03
      7.2651704104675219e-05 5.5528402105477258e-04
      9.2241838286681154e-04 1.7547111551820601e-03
      -2.2266706500697299e-03 -1.6430416118774060e-03
      1.8033468382288123e-04 -2.0843847442644564e-04
      -9.1860680700187210e-04 -8.6621657482981054e-04
      -8.1895492432965339e-04 -2.2049529798704726e-03
      1.3352612924400760e-03 1.6325020633279231e-04
      -2.1770229739273995e-03 7.9891202548756045e-05
      -8.9293859437049197e-04 1.4952653041044913e-03
      8.3427153992725767e-04 1.8048090245484272e-03
      -1.1093135314631240e-03 2.2661017572407974e-03
      4.3245556051478019e-05 1.3295472811210040e-03
      -2.1025999124509821e-03 1.3876304967442748e-03
      -8.6437040254888707e-04 1.7546767166741284e-03
      -1.0196611202178757e-05 2.0805180527656121e-03
      -2.1240051155563427e-03 -3.3889322781723561e-04
      -1.4053008882247222e-03 -1.0435218573196759e-03
      -2.8128867928078720e-04 -1.2365144982238170e-03
      1.4608490312668320e-03 1.1721918355638073e-03
      -1.2737935530180628e-03 -3.2290518144118354e-04
      -1.6484498155832970e-03 -1.3144913423770244e-03
      1.5797121248415252e-03 -1.4503311266870185e-03
      5.2101370597676172e-04 -1.0419710774156651e-03
      1.1597451503213055e-03 -3.2361234055518283e-04
      1.4039471577146864e-04 2.4231037317322575e-03
      1.5250651063357318e-03 -2.1825908859228189e-03
      1.5280757139704379e-03 3.0895857881113007e-04
      4.4671431167336937e-04 -1.2095978185163077e-03
      1.2532654725769408e-03 -6.8651096035317598e-04
      -2.4272884849765130e-03 2.0177526800983065e-03
      1.1109269916011546e-03 -2.3316644181658281e-03
      -1.8437385686203536e-03 -1.0377288609433207e-03
      -7.9347525171873307e-04 -2.9633352243702536e-04
      2.4545276683399197e-05 -2.4814997153981486e-03
      -9.8593814293567047e-04 4.7108509374831482e-04
      -1.4109814433944890e-04 -7.4362863172909970e-05
      -8.2234402191242199e-04 9.3508217411096138e-04
      -1.4387910677909120e-03 -1.2009279951206134e-03
      -1.8911334307008200e-03 2.0295048130297708e-03
      9.1404616238633253e-04 1.3770455659699375e-03
      2.6179926835170675e-04 1.2516337206673928e-03
      -2.5572184268598773e-03 2.1316231274732147e-03
      -1.7691190938068861e-03 1.9249163083295308e-03
      -3.7769086036333431e-04 2.3876478479126348e-03
      -4.8083947152634650e-04 -1.0189572123142279e-03
      1.7052339082915119e-03 -4.5050015421954501e-04
      -6.6459658968212262e-04 -1.8413322417457757e-03
      1.2613944070667179e-03 1.2632941157503920e-03
      -1.4124936597683718e-03 -8.9613520698742562e-04
      6.0413164084492882e-04 -1.9650355648477170e-04
      1.0160829896719156e-03 -2.4070053431890530e-03
      -2.2609067757711310e-03 -2.0269498730159032e-03
      1.8859647255618035e-03 1.1267463584633795e-03
      -1.2858599667850638e-03 1.6713688677533758e-03
      3.4171742673265031e-04 -2.4029998431904323e-03
      -9.6049734375318785e-04 -4.2551140955347707e-04
      2.5046342990979512e-03 1.6783770778336414e-03
      7.8994315564491708e-04 1.6290273196520586e-03
      -2.0087882764055964e-03 -1.6401430563460352e-03
      1.2355150646093638e-03 4.1181915109193379e-04
      -2.9269735946615917e-04 1.1485697639086623e-03
      -2.0122025892170196e-03 -2.0728968631044220e-03
      -2.0750501169170626e-03 1.0093765158757000e-03
      -1.1585408728291031e-03 2.0012345201183995e-03
      2.0586124039562448e-03 2.9702260988817168e-05
      -4.5384694992691506e-04 2.0804423054707668e-03
      -2.2518118684319529e-03 -1.5908465223185165e-03
      9.1401783287513869e-04 -1.4087573613244853e-04
      2.5178635237086871e-03 -1.5199617303061285e-03
      -8.4216401526361400e-04 8.5963523004954981e-05
      2.3215966180070899e-03 1.9211069649259138e-03
      -1.7661973050589314e-03 1.5208499528707170e-04
      1.3820719134878265e-03 -8.0884932174858583e-04
      2.4041297531331512e-04 1.7342704435893697e-03
      2.3893009711151527e-03 2.3316486265283075e-03
      -2.5018547993937981e-03 -2.2786890425255855e-03
      1.5090325222826991e-03 -1.0333204742517255e-03
      -1.6503136715924442e-03 1.6689392836078175e-03
      -1.6068428522242240e-03 -2.4106649452935009e-03
      -1.2659648427497975e-03 2.0602601999719326e-03
      -1.9883357501018504e-03 2.0844527997869783e-04
      2.2036150030782064e-03 -8.8362695702547686e-04
      1.1331568693295968e-03 -1.2024805787642652e-03
      1.0833194799334566e-03 2.3382365655958935e-03
      5.1165398279661670e-04 2.3542631195958927e-04
      2.3471684311650824e-04 1.0413264733754625e-03
      -1.4899343009217678e-03 1.3227397469034699e-03
      6.0509600043753516e-04 9.6656919517429468e-06
      1.5921621588830086e-03 2.5547347639614116e-04
      -1.5550021444752222e-04 1.2054542845117944e-03
      -9.5831635969185363e-04 1.1488956588517223e-03
      2.4901501415812988e-03 1.9337027925947207e-04
      -6.2211053737503178e-04 -2.5236714721288082e-03
      -2.2322898162581911e-04 9.4709822541409186e-04
      9.7068561360191786e-04 -8.2865082951601274e-04
      -2.1667452359576053e-03 -1.5587387064370842e-03
      8.8465264090919658e-04 -1.0779697101927421e-03
      -7.2187597768393194e-04 -1.6054686257832599e-03
      2.0209090383750006e-03 1.8853689518509039e-04
      -1.0231516670711992e-03 1.7099728820990732e-04
      -2.0002840726444180e-03 6.4000171657261934e-04
      1.6399830076330049e-04 -5.4402086059057184e-05
      1.8729036417300723e-03 -2.6027525223577810e-03
      3.7576275984017785e-05 -1.9272865374942308e-03
      1.0271071783960551e-03 -2.0620039735158458e-03
      1.4352827284977525e-03 7.9867339495599159e-04
      1.3828610138805447e-03 9.5160144448181035e-04
      -1.3741298137122679e-03 2.1974773615297274e-03
      3.5607885917681960e-04 -6.6593160827454958e-04
      8.2225607470576636e-04 1.9976005049075112e-03
      -1.0983412980940183e-03 7.9542047286282943e-04
      -1.1062825333097923e-04 2.6005701845321647e-03
      -1.7306168437354429e-04 6.0887151197949711e-05
      1.2609094912331331e-03 -9.5675207197837796e-04
      5.9823768060447192e-04 -1.4753484929815742e-03
      -4.6425503541130074e-04 1.8302529289644502e-03
      -1.5437401534611830e-03 2.2109606494683902e-03
      1.0666236360184031e-03 -1.4834960940666559e-03
      1.4363143055977419e-03 1.3923696595030850e-03
      4.6877913736210726e-04 4.2987526865401025e-04
      -5.3886662790430899e-04 1.6508688094830834e-03
      4.2290509296556537e-04 8.4493920053704558e-04
      -7.7011026929990319e-04 8.4793023112072542e-04
      -2.1772360858676012e-03 6.1051537726491707e-04
      -1.4661096866212086e-03 -1.7740472444217150e-03
      -2.2053593383104132e-03 4.7894187843006694e-06
      1.6287842876917865e-03 1.6767201311558789e-03
      -6.5083398163813002e-04 9.0189930509300160e-04
      3.1349633314703152e-04 9.3766422124337892e-04
      1.9752715812774760e-03 -2.8919609842576187e-04
      1.1444969838403081e-03 5.8926951014309922e-04
      7.3321607195635209e-04 -7.7716584845973781e-04
      -1.8495689427658146e-03 1.9628003863483862e-03
      -2.2787819399448408e-03 1.8283579425997869e-03
      -2.2907861150378442e-03 3.0530138880137912e-04
      1.8503379021893561e-03 -2.4562186549541413e-03
      -1.1838822604070571e-03 9.5077091792158453e-04
      9.8654176891203849e-04 1.0259398386727840e-04
      -1.8153435727086213e-03 2.4478749055700708e-03
      -1.3823167831109305e-03 -1.2153559146723012e-03
      7.2441251423404685e-05 1.3216966512445713e-03
      1.3055688292031963e-03 -2.2178552577706238e-03
      3.0672795884285670e-04 2.6158655507953726e-03
      -2.2682377218739133e-03 -1.4726316589922723e-03
      -3.8280797581297457e-04 -2.2449449417732141e-03
      1.4864426662689930e-03 1.3439731825773185e-03
      -1.1582459754766732e-03 3.8393387917287148e-04
      -1.6899318716928581e-03 1.3417908661796322e-03
      -9.7930662303042379e-04 -1.7160620763584280e-03
      -1.2417318090292549e-03 1.9062419674057071e-03
      4.8737900349813909e-04 -1.1052575837535157e-03
      2.3536135064068870e-03 -2.3809768735502160e-03
      -1.8443471711096379e-04 2.1279240929225865e-03
      2.1188934929064732e-03 -2.2642116509965157e-03
      -2.8146162232525122e-04 1.7212421260585750e-03
      4.5797498378719466e-04 -1.7205900016446676e-03
      -7.3167802574093525e-04 -1.1646166407393720e-03
      -2.2398069979535857e-03 -1.0884989760433362e-04
      -1.7851812567111682e-03 1.3167277700927316e-04
      1.7826811152396780e-03 1.5485556607405765e-03
      1.9613091057322212e-03 2.0575610765562803e-03
      6.2398217017577487e-04 -2.5784920272894671e-03
      -1.4561855906251608e-03 2.8785345150918689e-04
      -1.9653804388095474e-03 1.4239450773204548e-03
      -2.2259288895171868e-03 -4.1476607599582894e-04
      1.7857352984811735e-03 -2.3822077352201928e-03
      -1.3739077347898034e-03 -2.1833072766807961e-03
      2.5360698871394497e-03 -2.6214417555936524e-04
      1.7594466465525838e-04 1.4184428793935281e-03
      2.5033700418833054e-03 5.9329730809928568e-04
      -2.4232909580813289e-03 -9.8526370778945786e-06
      -2.1130757823219367e-03 -4.3859206284531556e-04
      -1.5915189515687343e-03 -2.1656547386723467e-03
      -4.0622222601552424e-05 1.0904265135440220e-03
      2.7876444450934690e-04 2.3949124405510339e-03
      2.9406380654973358e-04 -6.0845565368443551e-04
      2.3618922761447897e-03 1.4279646005436757e-03
      -8.2118076216016183e-04 2.2251270640099652e-04
      -2.4457736441528977e-04 -1.3015018993245253e-03
      -2.3842745284145014e-03 -8.5660732088227256e-05
      -1.4368777506213487e-03 -4.2880709073151840e-04
      -9.3399347528132551e-04 -9.5815993299637817e-04
      -2.7702287203834527e-04 -1.3919522037444975e-03
      5.5981973741046844e-04 1.2592437520365343e-03
      3.9861550429308939e-04 1.4830090444329723e-03
      1.0275557454611764e-03 -2.0087718358453841e-03
      -2.4572510218307210e-03 -2.1701284509745988e-04
      -5.6554801757875781e-04 3.0908211060486996e-04
      2.2150317755591582e-03 -2.0118046087417244e-03
      1.6549863984914438e-04 -2.3675163615882950e-03
      1.1888472324001506e-04 -2.0341658220247006e-03
      1.6010836094964136e-04 -1.6811283410240972e-03
      -1.1071188084136271e-03 -1.8530738513712994e-03
      -2.2470678961867521e-03 -1.1432373288089849e-03
      2.2966250661984682e-03 1.3686642263637553e-03
      1.8070739202528157e-04 -1.9172996233089159e-03
      -1.9499373599970932e-03 -6.7936107708332580e-04
      -1.8006463499556338e-03 6.4336688518092395e-05
      -5.3179262666446902e-04 -1.6266426424359427e-03
      6.1729614329622258e-04 1.1581170067967148e-04
      2.5165765818013154e-03 -6.3373754639896123e-04
      3.2612162699349674e-04 -3.9012586322864754e-04
      -1.3437678183324893e-04 2.1878492304061199e-03
      -1.9371646327445665e-03 3.6277857855588404e-04
      -4.9652650882623436e-04 -1.1853431627627970e-04
      -2.4682784084280348e-03 -1.2979249181039169e-03
      -1.3376216297522026e-03 1.8498776879161149e-04
      2.4354028840645105e-03 2.1067186359397150e-03
      1.3054257406991225e-03 1.3231202878931006e-04
      -3.5357687443542249e-04 4.8208500766831552e-04
      -5.0787452737550802e-04 -2.2377648498127542e-03
      7.8083042104011157e-04 -1.9976944284265932e-03
      1.9798782457698715e-03 -4.1815145963644296e-04
      1.0521405290128865e-03 -7.2106966735756056e-04
      -2.7237983307437007e-04 1.9284291844999255e-03
      -1.6665542322933890e-04 -1.6789117498151082e-03
      2.0113297671314765e-03 7.6614884610414608e-04
      -7.6667213445274064e-04 2.1592752835153587e-04
      2.0487599718050785e-03 2.1642768112344916e-03
      1.2583495522118112e-03 -9.5289112450592790e-04
      2.4396299104872269e-03 -1.8037646977883128e-03
      -2.1390324922971955e-03 -1.2044727959224576e-03
      1.2710011585058039e-03 8.4237466328999466e-04
      1.7445973596247601e-04 -2.2914435232510126e-03
      1.3792733268538481e-03 -1.3445701536480468e-03
      -9.9165080616318304e-04 -1.0252649791211695e-03
      -2.3252024881278404e-03 3.4541563010368967e-04
      -1.4547700193020041e-04 1.6475745464659454e-03
      7.2566212156857700e-04 2.3421187928533609e-03
      1.0555303836168768e-03 1.4096095365583347e-03
      2.1148741148191178e-03 -1.5526974840900790e-03
      1.3327742832152717e-03 -2.5030567369639959e-03
      2.3537416697053982e-03 -2.9055829821905482e-04
      -5.7593127736993584e-04 -1.3369638703159107e-03
      1.9089568334188453e-03 -1.7503318598882643e-03
      -2.2660953678274639e-03 8.8802945879015477e-04
      1.7383685717860088e-03 8.3475800318834629e-04
      1.6955970035531466e-03 -1.9474320287039652e-03
      -2.3745644618927385e-03 -2.4045434905608045e-03
      2.0242958552051738e-03 -1.6535649944979173e-03
      2.2515769280976195e-03 -2.2821587819305609e-03
      1.4674907443746864e-03 9.6153850231216643e-04
      1.6441875043471353e-03 -2.2128687898473226e-04
      5.8294967992311437e-04 4.0146242211643230e-04
      1.2733482564120928e-03 1.5873314018848902e-03
      1.3779173977255417e-03 -3.4799572963562701e-04
      2.5060278671219750e-03 1.4638641198351458e-03
      8.1803235508839977e-04 9.3086133484131370e-04
      -1.8918569964522696e-03 -1.8756813898104558e-03
      2.4719649401662766e-04 6.9733476809816838e-04
      -4.1047907213923745e-04 -7.7661275895082849e-04
      7.0745268196984660e-04 6.0869023417614479e-04
      -2.2873373615675745e-03 2.1581972292815835e-03
      2.4508645993001669e-03 -1.6561113050128607e-03
      1.0035985829378333e-03 8.1703720706761292e-05
      -1.9176041416294367e-03 2.4585316438366363e-03
      4.9535751934656785e-05 -1.4539875971365838e-03
      1.9253610400030933e-03 6.9058112253687790e-04
      -1.9125537258740061e-03 9.9211302618200554e-04
      5.0801726227337309e-04 7.2705446151314626e-04
      8.7508685808397420e-05 -1.9480771778339525e-03
      2.4055644931465837e-03 -7.8185768977447620e-04
      4.7135845319667551e-04 3.8785625459655598e-04
      1.4578728426691133e-03 5.9453927828856260e-04
      -9.7930166634538655e-04 2.0496264771339230e-04
      -9.6093613638088598e-04 2.3627119997782059e-03
      -7.2994920446939175e-04 1.9234166037782354e-03
      2.2770156919210641e-03 -1.0632731374414178e-03
      2.5302247970505893e-03 -1.5953425189791706e-03
      -2.1932430804140917e-03 -8.0765423295806960e-04
      1.7785751117982392e-03 -1.1904773870737677e-03
      1.9957047282664255e-03 -1.8162536520730096e-03
      -8.1149888903133110e-04 2.2030727848848680e-03
      8.8633557628334703e-04 -4.8607072931974740e-04
      -1.4413878332309215e-03 5.8789068113626608e-04
      2.0081596008054274e-03 9.2457653983045907e-04
      -2.3970218737346138e-03 2.3389194980346492e-03
      -1.3004611533888174e-03 -5.0615525434609095e-04
      -2.1472955874481726e-03 4.4810974402181587e-04
      1.3030582680488023e-03 1.9583630290614541e-03
      -1.1619411946025831e-03 6.4554164547118108e-04
      1.1254067656120586e-03 -1.8163640154742985e-03
      -5.0456291278852918e-04 2.0526397677752537e-03
      1.6049210066932885e-03 1.3098506832661290e-03
      -2.0415496405611312e-03 -1.7803969982401475e-03
      7.4100406392412486e-04 -8.2437664626402215e-04
      8.9809220792818559e-04 1.3421245448896552e-03
      2.0637445173381057e-03 8.6229818494644353e-04
      2.4009120297708076e-03 -1.3588261717373826e-03
      4.0065156872828422e-04 2.4787694276847813e-03
      -1.3235607816222900e-04 -2.2231560780724474e-03
      -4.8421095320006527e-04 -9.9267481399862597e-05
      1.3552415830083515e-03 2.2426335121382254e-03
      1.2912352596488772e-03 -1.0599467800361381e-03
      -2.3027547573928843e-03 1.2979308167313786e-03
      -9.0086686450632588e-05 9.0316388948050023e-04
      1.7146425639824779e-03 2.4234828999597936e-03
      1.1276431603710751e-03 2.3542599003364625e-03
      -1.8224354407016428e-03 6.3793818966005340e-04
      -4.5483835231059790e-04 -1.7904393972247516e-03
      -5.1237598861593296e-04 1.4103550723808958e-03
      -1.2520213837183367e-03 -1.7751366994576787e-03
      -2.1777072629169604e-03 5.3044867391029594e-04
      -8.0569770055013171e-05 -2.4864618801235527e-03
      -2.4096415390908671e-03 2.0347155842395936e-03
      2.2316468074166343e-03 5.7966250703999863e-04
      8.0860177014445303e-04 1.5622005288282092e-03
      -2.4989685705944947e-03 -4.7959911267635966e-04
      -1.7706094554525555e-03 1.2558547354955764e-03
      -2.2826929664652835e-03 -2.8749698606354401e-04
      4.9419158631321961e-05 -3.3772463524065047e-04
      -2.4776038122371162e-03 2.4115357709319925e-03
      -9.6974469172589697e-04 1.0092094116836007e-03
      1.2355790972359956e-04 1.5414160175741675e-03
      -5.9486719072941805e-04 -1.0798487183358065e-04
      8.3012929923077892e-04 -2.7395614354638669e-05
      -2.1914352878136343e-03 5.5942917577900221e-04
      1.7078833080952560e-03 -9.2755444185413372e-04
      1.5664382345328355e-03 -8.5468095061152691e-04
      -1.7718096747289068e-04 -1.9103448134238695e-03
      -1.4799590041414486e-03 3.4537075391851443e-04
      1.1217946838101166e-03 1.2635789218211004e-03
      -3.7118098624049745e-04 -1.4607093728413768e-03
      1.4758739711562665e-03 -2.8300756117773384e-04
      -8.2780983069710495e-04 -2.3020143497481721e-03
      -3.0872666242507139e-05 -2.4026070994910786e-04
      -1.8270714466226208e-03 -1.2598472283047804e-03
      -5.9432311933060780e-04 -2.1617026237535203e-04
      5.1004646403261333e-04 1.2971085896814533e-03
      2.2483823218272911e-03 -3.8550050064924888e-04
      6.7809992690513461e-04 -2.2988698332137123e-03
      1.9452484249988028e-03 -3.8949923083069601e-06
      -2.1622974276891025e-03 -1.3152908377553464e-03
      -2.2196054261431532e-03 2.2362247884933641e-03
      -4.4455632555629094e-04 -1.6901745765478249e-04
      -1.8767305091337151e-03 -3.6114077437378127e-04
      -7.1707220335538681e-04 -8.7257375731498543e-04
      6.3658427540250987e-04 -1.9144402936929516e-03
      -1.6094908646691233e-03 -9.6525295792300458e-04
      2.2775023749482238e-03 -1.5378489689386874e-03
      1.0983302328566103e-03 7.7648579607019169e-04
      -2.0502875263660189e-03 -1.2727675234889843e-03
      -1.9562648023334138e-03 -9.3962858286022595e-05
      2.5482289794991997e-04 -1.5899541147416365e-05
      -1.4300228462995338e-04 1.8522368411822783e-03
      5.4393173534555495e-04 2.0413755657237337e-03
      2.2672750773670316e-03 1.7076674165813059e-03
      1.3797096721092735e-04 2.2773676786603295e-03
      1.3504548063091552e-04 1.1154294642286924e-04
      -2.2366926516438528e-03 -7.9896972596641541e-04
      1.3898850666516269e-03 -4.8806218788627372e-06
      -1.3109423473906606e-03 2.4984983568893102e-03
      1.1335752341773281e-03 3.7142529747856537e-04
      -6.3185531482536984e-04 4.8040203765063229e-04
      -1.3545405006685184e-03 1.0680467037353812e-03
      -1.9398275264634025e-03 1.7522541430988734e-03
      -2.4246882534054966e-03 -1.5983198833681767e-03
      2.3103620254295854e-03 -8.8337914397778618e-04
      -4.4379399652727796e-04 -2.5904275908852806e-03
      -4.6954480804626349e-04 -3.2596705973121079e-04
      2.5105426972719474e-03 6.5560188796330622e-05
      -1.0185507633896260e-03 2.4886366159001562e-03
      -4.5490151453889024e-04 9.7867329636085101e-04
      1.9395028825553078e-03 2.3955841549328678e-03
      9.3269958725550014e-04 2.5645471031008065e-03
      1.6809372789824376e-03 2.8748914114326346e-04
      1.9531897644414517e-03 8.1509246201670355e-04
      -2.5430592039605089e-03 1.7423934204340284e-03
      1.3862703546509046e-03 9.7500176621165161e-04
      1.0027698700918260e-03 -6.7994559704048557e-04
      2.2409416188022271e-03 -1.5834604178905256e-03
      8.9974731467861097e-04 -1.3739726409083526e-05
      -8.3544142057065212e-04 8.9774725401720414e-04
      2.1265421915944147e-03 8.6861477209044114e-04
      -1.8893438167644804e-03 -1.7688557019557396e-03
      -1.9251123614667366e-03 1.9543852568165562e-03
      -1.2588641648999270e-03 2.1833229941085838e-03
      6.1114597723560440e-04 8.6629638332531855e-04
      -2.2013946077117817e-03 1.9168179459980185e-03
      2.2934112681996014e-03 3.4617952880662046e-04
      5.8179775795204302e-05 -1.9058318291120604e-03
      -2.0801126377768069e-03 1.7960451330998855e-04
      -3.0347213050494154e-04 1.3874539241138027e-03
      7.1408250814265794e-04 -1.2982595763843131e-03
      -1.4110598109178404e-03 1.7228979503908404e-03
      -2.3356234657282101e-03 5.4946580875963854e-04
      -1.7784535395562275e-03 -2.1022726521791298e-03
      -1.3147744023914327e-05 4.9558853099451516e-05
      -9.9922559945611454e-05 -2.4725844541353781e-03
      -5.1628440196512546e-04 -3.1209451985420467e-04
      9.5972296834153736e-04 -2.1042297281855041e-03
      1.6891669423814205e-03 2.4555106081836143e-03
      9.5160459118307568e-04 1.9218540908993809e-03
      1.1616764404611998e-03 8.5808084116800298e-04
      1.5060207463058555e-03 -9.0465124299452524e-04
      -1.1587402584891341e-03 -1.1015600816097945e-04
      1.9509086080484318e-03 -1.0161234535909045e-03
      -4.5874637402158042e-04 -1.8679201680198076e-03
      2.3046693640085586e-03 -1.6133776091862653e-03
      1.8531886030541545e-03 2.2441237391910267e-03
      1.9575793272894257e-03 1.1936592616355630e-03
      1.7292045332026158e-03 -1.3373843055019671e-03
      -1.0835617816808093e-03 9.9719466186924655e-04
      1.3049170294497704e-03 -1.8944373380843754e-04
      1.3453371848797001e-03 1.6668523155892474e-03
      -2.0013100923226158e-03 1.0104715836602859e-03
      -1.9549535419952470e-03 -1.2791272319069252e-03
      -1.4083477510861806e-03 -3.9919729350369797e-04
      3.8519675970390935e-04 -2.4711055439764046e-03
      -2.2742104499226296e-03 -1.9938547207857178e-03
      1.7880048587811993e-03 1.8127082099995682e-03
      -5.9325374795568195e-04 -1.2939437754492730e-03
      3.1725875963820483e-04 -2.2776892967856196e-04
      6.8789815982213507e-04 -2.0772184141089464e-03
      -1.8048372726238660e-04 6.5037984742106363e-04
      -1.6161239679988177e-03 1.2111791365565457e-03
      -5.7470172040545420e-04 2.4060450046367063e-03
      1.8323361640977809e-03 -2.2985147291212032e-04
      2.0016066995525907e-03 -4.6215584673108326e-04
